
\data\
ngram 1=10453

\1-grams:
-1.012845	</s>
-99	<s>
-4.034448	ಅ
-4.335478	ಅಂ
-3.595115	ಅಂಕ
-4.159387	ಅಂಕಗಳ
-4.159387	ಅಂಕಗಳು
-4.034448	ಅಂಕಣ
-4.335478	ಅಂಕಣಕಾರರಿಂದ
-4.335478	ಅಂಕಣಗಳನ್ನು
-4.335478	ಅಂಕಣಗಳು
-4.335478	ಅಂಕಣದಲ್ಲಿ
-4.159387	ಅಂಕದ
-4.159387	ಅಂಕಲಗಿ
-4.335478	ಅಂಕಲೇಶ್ವರ
-4.159387	ಅಂಕವು
-3.27478	ಅಂಕಿ
-4.159387	ಅಂಕಿಅಂಶಗಳ
-4.335478	ಅಂಕಿಅಂಶದ
-3.937538	ಅಂಕಿಗಳ
-3.733418	ಅಂಕಿಗಳನ್ನು
-4.335478	ಅಂಕಿಗಳಿಂದಲೇ
-4.335478	ಅಂಕಿಗಳಿಗೂ
-4.335478	ಅಂಕಿಗಳಿಗೆ
-4.034448	ಅಂಕಿಗಳು
-4.159387	ಅಂಕಿಗಳೂ
-4.335478	ಅಂಕಿಯ
-3.937538	ಅಂಕೀಯ
-4.335478	ಅಂಕುರತ್ವರಣಕ್ಕೆ
-4.034448	ಅಂಕುರತ್ವರಣದ
-4.335478	ಅಂಕುರತ್ವರಣವು
-4.335478	ಅಂಕೆಗಳ
-4.159387	ಅಂಕೆಗಳನ್ನು
-4.335478	ಅಂಕೆಗಳೊಂದಿಗಿನ
-4.159387	ಅಂಕೆಯ
-4.159387	ಅಂಕೋತವೆಂಬ
-3.858357	ಅಂಕೋಲ
-3.937538	ಅಂಕೋಲದ
-4.335478	ಅಂಕೋಲದಲ್ಲಿ
-4.335478	ಅಂಕೋಲಪಟ್ಟಣ
-4.335478	ಅಂಕೋಲಮ್
-4.335478	ಅಂಕೋಲಾ
-4.159387	ಅಂಕೋಲೆ
-4.335478	ಅಂಕೋಲೆಯಲ್ಲಿ
-4.034448	ಅಂಗ
-3.682266	ಅಂಗಗಳ
-4.335478	ಅಂಗಗಳನ್ನು
-4.335478	ಅಂಗಗಳಿಗೂ
-4.159387	ಅಂಗಗಳು
-4.335478	ಅಂಗಜೀವ
-4.034448	ಅಂಗಡಿ
-4.335478	ಅಂಗಡಿಗಳಿಂದಾಗಿ
-4.159387	ಅಂಗಡಿಯ
-4.335478	ಅಂಗದ
-4.159387	ಅಂಗದಲ್ಲಿ
-4.159387	ಅಂಗನು
-4.335478	ಅಂಗರ
-4.335478	ಅಂಗರಚನಾ
-4.034448	ಅಂಗರಚನಾವಿಜ್ಞಾನದಲ್ಲಿ
-4.159387	ಅಂಗರಚನಾವಿಜ್ಞಾನವನ್ನು
-4.159387	ಅಂಗರಚನಾವಿಜ್ಞಾನಶಾಸ್ತ್ರ
-4.335478	ಅಂಗರಚನೆ
-4.159387	ಅಂಗರಚನೆಗೆ
-4.335478	ಅಂಗರಚನೆಯನ್ನು
-4.335478	ಅಂಗರು
-4.159387	ಅಂಗಳದ
-4.159387	ಅಂಗವನ್ನೇ
-4.335478	ಅಂಗವಾಗಿ
-4.335478	ಅಂಗವಾದ
-4.335478	ಅಂಗವು
-4.159387	ಅಂಗವೆಂದರ್ಥ
-4.034448	ಅಂಗವೊಂದರ
-4.159387	ಅಂಗಸಂಸ್ಥೆಗಳ
-4.335478	ಅಂಗಸಂಸ್ಥೆಗಳಿಗೂ
-4.335478	ಅಂಗಸಂಸ್ಥೆಗಳು
-4.335478	ಅಂಗಸಂಸ್ಥೆಗಳೂ
-4.159387	ಅಂಗಸಂಸ್ಥೆಗಳೆಲ್ಲವೂ
-4.034448	ಅಂಗಸ್ಥಲಗಳು
-3.733418	ಅಂಗಾಂಶ
-4.034448	ಅಂಗಾಂಶಗಳ
-4.159387	ಅಂಗಾಂಶಗಳಿಂದ
-4.159387	ಅಂಗಾಂಶಗಳಿಗೆ
-4.159387	ಅಂಗಾಂಶಗಳು
-4.159387	ಅಂಗಾಂಶದ
-4.159387	ಅಂಗಾಂಶದಲ್ಲಿನ
-4.335478	ಅಂಗಾಂಶಪರೀಕ್ಷೆ
-4.159387	ಅಂಗಾಂಶವನ್ನು
-4.335478	ಅಂಗಾಂಶವು
-4.335478	ಅಂಗಾರ
-4.335478	ಅಂಗಾಲು
-4.335478	ಅಂಗಾಶ
-4.034448	ಅಂಗೀಕರಿಸಲಾಗಿದೆ
-3.557327	ಅಂಗೀಕೃತ
-4.159387	ಅಂಗುತ್ತರ
-4.335478	ಅಂಗುತ್ತರನಿಕಾಯದ
-4.159387	ಅಂಗುತ್ತರವೆಂದರೆ
-4.159387	ಅಂಗುಲ
-3.733418	ಅಂಗುಲ್
-4.335478	ಅಂಗುಳದ
-4.335478	ಅಂಗೈಯಲ್ಲಿ
-3.858357	ಅಂಗೋಲ
-4.335478	ಅಂಗೋಲದ
-4.335478	ಅಂಗೋಲವನ್ನು
-4.335478	ಅಂಚಿನಿಂದ
-4.335478	ಅಂಚುಗಟ್ಟದ
-3.335478	ಅಂಚೆ
-4.335478	ಅಂಚೆದೊಡ್ಡಿ
-3.682266	ಅಂಚೆಯ
-4.159387	ಅಂಚೆಯಲ್ಲಿ
-4.159387	ಅಂಜದೀವ್ನ
-4.159387	ಅಂಜಾರ್
-4.335478	ಅಂಜಿದಿವ್
-3.636508	ಅಂಜು
-4.335478	ಅಂಜುಟಗಿ
-4.335478	ಅಂಜುಮನ್
-4.335478	ಅಂಜುರವರಿಗೆ
-3.682266	ಅಂಜೂರ
-4.335478	ಅಂಜೂರಗಳು
-3.682266	ಅಂಜೂರದ
-4.159387	ಅಂಜೂರದಿಂದ
-4.159387	ಅಂಜೂರವನ್ನು
-4.335478	ಅಂಟಣಿಕಗಳು
-4.335478	ಅಂಟಣಿಕದ
-4.335478	ಅಂಟಣಿಕಪಡಲಿ
-4.335478	ಅಂಟಣಿಕವನ್ನು
-3.937538	ಅಂಟನ್ನು
-4.159387	ಅಂಟಾರ್ಕ್ಟಿಕ
-4.034448	ಅಂಟಿಕೆ
-4.335478	ಅಂಟಿಕೊಂಡಿರುತ್ತದೆ
-4.335478	ಅಂಟಿಕೊಂಡಿರುತ್ತವೆ
-4.159387	ಅಂಟಿಕೊಳ್ಳುವುದು
-4.335478	ಅಂಟಿಗೂ
-4.335478	ಅಂಟಿಗೆ
-4.034448	ಅಂಟಿನ
-4.335478	ಅಂಟಿಸಬೇಕೆಂದಿರುವ
-4.335478	ಅಂಟಿಸಲಾಗುತ್ತದೆ
-3.733418	ಅಂಟಿಸಲು
-4.159387	ಅಂಟಿಸಲೂ
-4.034448	ಅಂಟಿಸಿ
-4.034448	ಅಂಟಿಸಿದ
-3.937538	ಅಂಟಿಸುವ
-4.159387	ಅಂಟಿಸುವಿಕೆಯನ್ನು
-4.335478	ಅಂಟಿಸುವುದಕ್ಕೆ
-3.105029	ಅಂಟು
-4.159387	ಅಂಟುಗಳ
-4.335478	ಅಂಟುಗಳನ್ನು
-4.335478	ಅಂಟುಗಳಲ್ಲಿ
-4.335478	ಅಂಟುಗಳಿಗೆ
-3.460417	ಅಂಟುಗಳು
-3.937538	ಅಂಟುಪದಾರ್ಥಗಳು
-3.937538	ಅಂಟುವಾಳ
-4.159387	ಅಂಟುಶಕ್ತಿ
-4.335478	ಅಂಟುಶಕ್ತಿಗೆ
-4.159387	ಅಂಟುಶಕ್ತಿಯ
-3.858357	ಅಂಡ
-3.937538	ಅಂಡಗಳಲ್ಲಿ
-4.335478	ಅಂಡಗಳಿಗೆ
-4.335478	ಅಂಡದಲ್ಲಿ
-3.937538	ಅಂಡಮಾನಿ
-4.335478	ಅಂಡಮಾನಿನ
-4.335478	ಅಂಡಮಾನಿನಲ್ಲಿ
-4.034448	ಅಂಡಮಾನಿಯಲ್ಲಿ
-3.733418	ಅಂಡಮಾನ್
-3.937538	ಅಂಡವಾಯು
-3.937538	ಅಂಡವಾಯುಗಳ
-4.335478	ಅಂಡವಾಯುಗಳನ್ನು
-4.335478	ಅಂಡವಾಯುಗಳಾಗಿದೆ
-3.682266	ಅಂಡವಾಯುಗಳು
-4.335478	ಅಂಡವಾಯುವನ್ನು
-3.937538	ಅಂಡವಾಯುವಿಗೆ
-3.937538	ಅಂಡವಾಯುವಿನ
-4.335478	ಅಂಡವಾಯುವಿನಲ್ಲಿ
-4.335478	ಅಂಡವಾಯುವಿನಲ್ಲಿದೆ
-4.159387	ಅಂಡವಾಯುವು
-4.335478	ಅಂಡವಿಜ್ಞಾನ
-3.937538	ಅಂಡಾಂಶಗಳೂ
-4.159387	ಅಂಡಾಣುವಿಗೆ
-4.335478	ಅಂಡಾಶಯ
-4.159387	ಅಂಡಾಶಯಗಳನ್ನು
-4.159387	ಅಂಡಾಶಯಗಳು
-3.937538	ಅಂಡಾಶಯದಲ್ಲಿ
-4.159387	ಅಂಡಾಶಯವನ್ನು
-4.159387	ಅಂಡಾಶಯವು
-4.159387	ಅಂಡಾಶ್ಮಗಳು
-4.335478	ಅಂಡಾಶ್ಮಗಳೆಂದು
-4.335478	ಅಂಡಾಶ್ಮದಂಥ
-4.034448	ಅಂಡ್
-4.159387	ಅಂತ
-4.335478	ಅಂತಃ
-3.937538	ಅಂತಃಕರಣ
-4.335478	ಅಂತಃಕರಣದ
-4.335478	ಅಂತಃಕಲಹಗಳು
-4.335478	ಅಂತಃಪುರಗೀತೆ
-4.159387	ಅಂತಃಶುದ್ಧಿಯ
-4.159387	ಅಂತಃಶುದ್ಧಿಯನ್ನು
-4.335478	ಅಂತಃಶುದ್ಧಿಯಿಂದ
-4.335478	ಅಂತಃಶುದ್ಧಿಯೇ
-3.79141	ಅಂತಃಸ್ರಾವ
-3.937538	ಅಂತಃಸ್ರಾವಕ
-4.159387	ಅಂತಃಸ್ರಾವಶಾಸ್ತ್ರಜ್ಞನು
-4.335478	ಅಂತಃಸ್ರಾವಶಾಸ್ತ್ರಜ್ಞರು
-3.733418	ಅಂತಪಾಲರು
-4.335478	ಅಂತರ
-4.335478	ಅಂತರಂಗದ
-4.335478	ಅಂತರಕಶೇರುಕ
-4.335478	ಅಂತರಗಳನ್ನು
-4.335478	ಅಂತರಗ್ರಹ
-3.49038	ಅಂತರಜಾಲ
-4.335478	ಅಂತರಜಾಲದ
-4.335478	ಅಂತರಜಾಲಪದರದಲ್ಲಿ
-4.159387	ಅಂತರದಂತೆ
-2.797659	ಅಂತರರಾಷ್ಟ್ರೀಯ
-4.159387	ಅಂತರರಾಷ್ಟ್ರೀಯವಾಗಿ
-4.335478	ಅಂತರವನ್ನು
-3.79141	ಅಂತರವಲೋಕನ
-4.335478	ಅಂತರವಲೋಕನಕ್ರಿಯೆ
-4.335478	ಅಂತರವಲೋಕನದ
-4.335478	ಅಂತರವಲೋಕನವಿಧಾನದಲ್ಲಿ
-4.335478	ಅಂತರವಲೋಕನವೆಂದು
-4.335478	ಅಂತರವಲೋಕನವೆಂದೂ
-4.335478	ಅಂತರವು
-4.335478	ಅಂತರಾತ್ಮ
-4.335478	ಅಂತರಾಷ್ಟ್ರಿಯ
-3.256297	ಅಂತರಾಷ್ಟ್ರೀಯ
-4.335478	ಅಂತರಾಷ್ಟ್ರೀಯದ
-4.335478	ಅಂತರಿಕವಾಗಿರುವ
-3.381235	ಅಂತರಿಕ್ಷ
-4.335478	ಅಂತರಿಕ್ಷಕ್ಕೂ
-3.937538	ಅಂತರಿಕ್ಷದ
-4.335478	ಅಂತರಿಕ್ಷದಲ್ಲಿನ
-4.335478	ಅಂತರಿಕ್ಷದಲ್ಲಿಯೂ
-4.335478	ಅಂತರಿಕ್ಷದಲ್ಲೂ
-4.335478	ಅಂತರಿಕ್ಷದಿಂದ
-4.159387	ಅಂತರಿಕ್ಷದೇವತೆ
-4.159387	ಅಂತರಿಕ್ಷದೇವತೆಗಳಲ್ಲಿ
-4.335478	ಅಂತರಿಕ್ಷದೇವತೆಗಳಲ್ಲೆಲ್ಲ
-4.159387	ಅಂತರಿಕ್ಷದೇವತೆಯ
-3.221534	ಅಂತರಿಕ್ಷಯಾನ
-4.335478	ಅಂತರಿಕ್ಷಯಾನಕ್ಕೆ
-4.159387	ಅಂತರಿಕ್ಷಯಾನದ
-4.159387	ಅಂತರಿಕ್ಷವನ್ನೂ
-4.159387	ಅಂತರಿಕ್ಷವು
-4.335478	ಅಂತರಿಕ್ಷವೇ
-4.034448	ಅಂತರಿಕ್ಷಸ್ಥಾನಕ್ಕೆ
-3.937538	ಅಂತರಿಕ್ಷಸ್ಥಾನದ
-4.335478	ಅಂತರಿಕ್ಷಸ್ಥಾನದಲ್ಲಿ
-4.335478	ಅಂತರಿಕ್ಷೀಯ
-3.937538	ಅಂತರ್ಗತ
-4.335478	ಅಂತರ್ಗತವಾಗಿದೆ
-3.335478	ಅಂತರ್ಜಲ
-3.682266	ಅಂತರ್ಜಲದ
-4.335478	ಅಂತರ್ಜಲವಾಗಿ
-4.335478	ಅಂತರ್ಜಲವಿರುವ
-4.159387	ಅಂತರ್ಜಲಸಂಪುಟ
-4.335478	ಅಂತರ್ಜಲಸಂಪುಟಕ್ಕೆ
-4.335478	ಅಂತರ್ಜಲಸಂಪುಟವನ್ನು
-3.522565	ಅಂತರ್ಜಾಲ
-4.335478	ಅಂತರ್ಜಾಲಕ್ಕೆ
-4.159387	ಅಂತರ್ಜಾಲಗಳನ್ನು
-3.79141	ಅಂತರ್ಜಾಲಗಳು
-3.595115	ಅಂತರ್ಜಾಲದ
-4.335478	ಅಂತರ್ಜಾಲದಲ್ಲಿ
-4.335478	ಅಂತರ್ಜಾಲದೊಳಗಿರುವ
-3.937538	ಅಂತರ್ಬೋಧೆ
-4.159387	ಅಂತರ್ಬೋಧೆಯ
-4.159387	ಅಂತರ್ಬೋಧೆಯನ್ನು
-4.335478	ಅಂತರ್ಯಾಮಿ
-4.335478	ಅಂತರ್ಯಾಮಿತ್ವವನ್ನು
-4.335478	ಅಂತರ್ಯಾಮಿಯೇ
-4.335478	ಅಂತರ್ಯಾಮ್ಯಧಿಕರಣವು
-3.858357	ಅಂತರ್ಯುದ್ಧ
-4.159387	ಅಂತರ್ಯುದ್ಧಕ್ಕೆ
-3.937538	ಅಂತರ್ಯುದ್ಧಗಳಲ್ಲಿ
-4.335478	ಅಂತರ್ಯುದ್ಧಗಳು
-4.159387	ಅಂತರ್ಯುದ್ಧಗಳೆಂದು
-4.335478	ಅಂತರ್ಯುದ್ಧದ
-4.335478	ಅಂತರ್ಯುದ್ಧವನ್ನು
-4.159387	ಅಂತರ್ಯುದ್ಧವೆಂದು
-4.335478	ಅಂತರ್ವ್ಯಾಪ್ತನಲ್ಲ
-4.159387	ಅಂತರ್ವ್ಯಾಪ್ತನಾಗಿದ್ದರೂ
-4.159387	ಅಂತರ್ವ್ಯಾಪ್ತನಾದ
-4.335478	ಅಂತರ್ವ್ಯಾಪ್ತಾವಾದುದು
-4.159387	ಅಂತರ್ವ್ಯಾಪ್ತಿ
-4.159387	ಅಂತರ್ವ್ಯಾಪ್ತಿಗೆ
-4.159387	ಅಂತಲಿಕಿತ
-4.335478	ಅಂತಲಿಕಿತನ
-4.159387	ಅಂತಸ್ತನ್ನು
-3.18935	ಅಂತಸ್ಥ
-4.159387	ಅಂತಸ್ಥಶಕ್ತಿ
-4.335478	ಅಂತಸ್ಥಶಕ್ತಿಯನ್ನು
-4.335478	ಅಂತಸ್ಥಶಕ್ತಿಯಾಗಿದೆ
-4.034448	ಅಂತಸ್ಥಶಕ್ತಿಯು
-3.636508	ಅಂತಹ
-4.335478	ಅಂತಹವುಗಳನ್ನು
-4.335478	ಅಂತಹುದೇ
-2.654237	ಅಂತಾರಾಷ್ಟ್ರೀಯ
-4.335478	ಅಂತಾರಾಷ್ಟ್ರೀಯತಾ
-4.335478	ಅಂತಾರಾಷ್ಟ್ರೀಯತಾಭಾವನೆ
-4.034448	ಅಂತಾರಾಷ್ಟ್ರೀಯತೆಯ
-3.460417	ಅಂತಾರಾಷ್ಟ್ರೀಯದ
-4.159387	ಅಂತಾರಾಷ್ಟ್ರೀಯದಂತೆ
-4.335478	ಅಂತಾರಾಷ್ಟ್ರೀಯದವರೆಗೆ
-4.159387	ಅಂತಾರಾಷ್ಟ್ರೀಯವನ್ನು
-4.335478	ಅಂತಾರಾಷ್ಟ್ರೀಯವಾಗಿ
-3.79141	ಅಂತಾರಾಷ್ಟ್ರೀಯವು
-3.682266	ಅಂತಿಮ
-4.159387	ಅಂತಿಮವಾಗಿ
-4.159387	ಅಂತ್ಯ
-4.335478	ಅಂತ್ಯಕ್ಕೆ
-3.733418	ಅಂಥ
-4.335478	ಅಂಥಹ
-3.406059	ಅಂದರೆ
-4.159387	ಅಂದಾಜನ್ನು
-4.335478	ಅಂದಾಜಿನ
-4.335478	ಅಂದಾಜಿನಲ್ಲಿ
-4.335478	ಅಂದಾಜುಮಾಡಲಾದ
-4.335478	ಅಂದಾಜುಮಾಡಲಾಯಿತು
-4.335478	ಅಂದಿನ
-4.159387	ಅಂದಿನಿಂದ
-4.034448	ಅಂದು
-4.335478	ಅಂದುಕೊಂಡಷ್ಟು
-4.034448	ಅಂರ್ತಜಾಲ
-3.522565	ಅಂಶ
-4.034448	ಅಂಶಗಳ
-3.79141	ಅಂಶಗಳನ್ನು
-4.034448	ಅಂಶಗಳನ್ನೂ
-4.159387	ಅಂಶಗಳಲ್ಲಿ
-4.335478	ಅಂಶಗಳಲ್ಲಿನ
-4.335478	ಅಂಶಗಳಾದಂತಹ
-4.034448	ಅಂಶಗಳಿಂದ
-4.335478	ಅಂಶಗಳಿರುತ್ತವೆ
-3.858357	ಅಂಶಗಳು
-4.335478	ಅಂಶಗಳೂ
-4.159387	ಅಂಶಗಳೊಂದಿಗೆ
-4.335478	ಅಂಶದ
-4.335478	ಅಂಶದಲ್ಲಿನ
-4.034448	ಅಂಶವನ್ನು
-4.159387	ಅಂಶವಾಗಿದೆ
-4.335478	ಅಂಶವಾಗಿದ್ದು
-4.335478	ಅಂಶವಾಗುತ್ತದೆ
-4.159387	ಅಂಶವು
-3.937538	ಅಂಶವೂ
-3.858357	ಅಂಶವೆಂದರೆ
-4.335478	ಅಂಶೀಯ
-4.159387	ಅಕೊಲಾ
-4.159387	ಅಕ್ಕ
-3.858357	ಅಕ್ಕಿ
-3.858357	ಅಕ್ಟೋಬರ್
-4.335478	ಅಕ್ರಮವಾಗಿ
-4.335478	ಅಕ್ರಮವಾದ
-4.335478	ಅಕ್ರಿಲಿಕ್
-4.335478	ಅಕ್ರಿಲೇಟ್
-3.858357	ಅಕ್ಷರ
-4.335478	ಅಕ್ಷರಗಳ
-4.159387	ಅಕ್ಷರಗಳಂತೆಯೇ
-4.335478	ಅಕ್ಷರಗಳನ್ನು
-4.335478	ಅಕ್ಷರದಂತೆ
-4.335478	ಅಕ್ಷರವನ್ನು
-4.335478	ಅಕ್ಷರವಾಗಿದೆ
-4.335478	ಅಕ್ಷರಸಂಖ್ಯೆಗಳಿಗೆ
-4.335478	ಅಕ್ಸೆಪ್ಟಿಗ್
-4.159387	ಅಖಿಲ
-3.636508	ಅಗತ್ಯ
-4.159387	ಅಗತ್ಯಕ್ಕಿಂತ
-3.937538	ಅಗತ್ಯಗಳನ್ನು
-4.335478	ಅಗತ್ಯಗಳು
-4.159387	ಅಗತ್ಯತೆಗಳನುಸಾರ
-4.159387	ಅಗತ್ಯವಾಗಿದೆ
-4.159387	ಅಗತ್ಯವಾಗಿರುವ
-4.335478	ಅಗತ್ಯವಾಗಿವೆ
-3.557327	ಅಗತ್ಯವಾದ
-3.682266	ಅಗತ್ಯವಿದೆ
-3.858357	ಅಗತ್ಯವಿರುತ್ತದೆ
-4.034448	ಅಗತ್ಯವಿರುವ
-4.335478	ಅಗತ್ಯವಿಲ್ಲ
-4.034448	ಅಗತ್ಯವೂ
-4.335478	ಅಗತ್ಯವೆಂದು
-4.159387	ಅಗದಿರ್
-4.335478	ಅಗಲವಾದ
-4.335478	ಅಗಲವು
-4.335478	ಅಗೋಚರ
-4.335478	ಅಗೋಚರವಾದದ್ದು
-4.335478	ಅಗ್ಗದ
-4.335478	ಅಗ್ನಿ
-4.034448	ಅಗ್ನಿಯ
-4.335478	ಅಗ್ನಿಯಲ್ಲಿ
-4.335478	ಅಗ್ನಿವೇಶನು
-4.335478	ಅಗ್ನಿವೇಶಸಂಹಿತೆಯನ್ನು
-4.335478	ಅಗ್ರಗಣ್ಯತೆಯನ್ನು
-4.335478	ಅಗ್ರಸ್ಥಾನ
-4.159387	ಅಗ್ರಿಮೆಂಟ್
-4.159387	ಅಚ್ಚರಿಯ
-4.159387	ಅಚ್ಚಾಗಿರುತ್ತವೆ
-4.335478	ಅಚ್ಚುತರಾಯನ
-4.159387	ಅಚ್ಚುಮೆಚ್ಚಿನ
-4.335478	ಅಜೆಂಡಾಗಳನ್ನು
-4.159387	ಅಜ್ಞಾನವನ್ನು
-4.159387	ಅಟ್ಲಾಂಟಿಸ್
-4.335478	ಅಡಕ
-4.335478	ಅಡಕವಾಗಿರುತ್ತದೆ
-4.335478	ಅಡಚಣೆಗಳ
-4.159387	ಅಡಚಣೆಗೆ
-4.159387	ಅಡಿ
-4.159387	ಅಡಿಗಲ್ಲೆಂಬ
-3.034448	ಅಡಿಗಳಲ್ಲಿ
-4.159387	ಅಡಿಪಾಯವಾಗುತ್ತದೆ
-4.159387	ಅಡಿಯಲ್ಲಿ
-4.159387	ಅಡುಗೆ
-4.159387	ಅಡುಗೆಮನೆಯು
-4.335478	ಅಡ್ಡ
-4.335478	ಅಡ್ಡಗೆರೆಗಳನ್ನು
-4.335478	ಅಡ್ಡಿಯುಂಟು
-4.159387	ಅಡ್ವಾನ್ಸ್ಡ್
-3.937538	ಅಣು
-4.034448	ಅಣುಗಳ
-4.159387	ಅಣುಗಳನ್ನು
-3.937538	ಅಣುವಿನ
-4.159387	ಅಣುಶಕ್ತಿ
-4.335478	ಅಣುಶಕ್ತಿಯನ್ನು
-4.335478	ಅಣ್ವಸ್ತ್ರಗಳ
-3.557327	ಅತಿ
-4.335478	ಅತಿಮುಖ್ಯ
-4.335478	ಅತಿವ್ಯಾಪಿತ
-4.159387	ಅತಿಸಾಮಾನ್ಯವಾದ
-4.335478	ಅತಿಸುಲಭವಾಗಿರುವುದೇ
-4.335478	ಅತ್ತಿಯ
-3.105029	ಅತ್ಯಂತ
-4.335478	ಅತ್ಯಗತ್ಯ
-4.335478	ಅತ್ಯಗತ್ಯವಾಗಿದೆ
-4.159387	ಅತ್ಯಲ್ಪ
-4.335478	ಅತ್ಯಾಶ್ಚರ್ಯಕರವಾಗಿದೆ
-4.034448	ಅತ್ಯುತ್ತಮ
-3.937538	ಅತ್ಯುನ್ನತ
-4.335478	ಅತ್ರೇಯನಿಂದ
-4.159387	ಅಥರ್ವ
-4.335478	ಅಥರ್ವದಲ್ಲಿ
-4.335478	ಅಥರ್ವವೇದಕ್ಕೂ
-4.335478	ಅಥರ್ವವೇದದಲ್ಲಿ
-4.159387	ಅಥವ
-2.522565	ಅಥವಾ
-4.335478	ಅಥೆನ್ಸ್
-4.335478	ಅಥ್ಲೆಟಿಕ್
-3.79141	ಅಥ್ಲೆಟಿಕ್ಸ್
-4.335478	ಅಥ್ಲೆಟಿಕ್ಸ್‌ನಲ್ಲಿ
-4.335478	ಅದಕ್ಕಿಂತ
-3.460417	ಅದಕ್ಕೆ
-4.335478	ಅದಕ್ಕೆಪೂರಕವಾದ
-4.335478	ಅದಕ್ಕೊಂದು
-4.335478	ಅದಕ್ಕೋಸ್ಕರವೇ
-4.335478	ಅದನು
-3.27478	ಅದನ್ನು
-2.88832	ಅದರ
-4.159387	ಅದರದೆ
-4.335478	ಅದರದ್ದೇ
-3.733418	ಅದರಲ್ಲಿ
-4.335478	ಅದರಲ್ಲಿನ
-4.335478	ಅದರಲ್ಲಿಯೂ
-4.159387	ಅದರಲ್ಲೂ
-4.159387	ಅದರಿಂದ
-4.159387	ಅದರಿಂದಲೇ
-4.159387	ಅದರೊಂದಿಗೆ
-4.159387	ಅದರೊಳಗಡೆ
-4.335478	ಅದಲು
-3.937538	ಅದಲ್ಲದೇ
-4.335478	ಅದಾದ
-4.335478	ಅದಿರಗಳು
-4.159387	ಅದಿರುಗಳನ್ನು
-3.00304	ಅದು
-4.159387	ಅದುಮುತ್ತಾರೆ
-4.335478	ಅದುಮುವ
-4.159387	ಅದೂ
-4.159387	ಅದೆಂದರೆ
-3.432388	ಅದೇ
-4.335478	ಅದೇನೇ
-4.335478	ಅದೇಶಗಳ
-4.159387	ಅದೊ
-4.335478	ಅದ್ವಿತೀಯ
-3.335478	ಅಧಿಕ
-4.335478	ಅಧಿಕವಾಗಿತ್ತು
-4.335478	ಅಧಿಕವಾಗಿದೆ
-4.335478	ಅಧಿಕವೆಂದರೆ
-4.034448	ಅಧಿಕಾರ
-4.159387	ಅಧಿಕಾರಕ್ಕಾಗಿ
-4.335478	ಅಧಿಕಾರಗಳನ್ನು
-4.335478	ಅಧಿಕಾರದಲ್ಲಿರುವ
-4.335478	ಅಧಿಕಾರವನ್ನ
-4.159387	ಅಧಿಕಾರವನ್ನು
-4.335478	ಅಧಿಕಾರವಾಗಲಿ
-4.159387	ಅಧಿಕಾರವು
-4.335478	ಅಧಿಕಾರಶೂನ್ಯತೆ
-4.034448	ಅಧಿಕೃತ
-3.937538	ಅಧಿಕೃತವಾಗಿ
-4.159387	ಅಧಿನಿಯಮ
-4.335478	ಅಧಿನಿಯಮವನ್ನು
-4.034448	ಅಧಿಷ್ಠಾನವಾಗಿ
-4.335478	ಅಧೀನ
-4.335478	ಅಧ್ಯಕ್ಷರ
-3.595115	ಅಧ್ಯಯನ
-4.159387	ಅಧ್ಯಯನಕ್ಕೆ
-4.335478	ಅಧ್ಯಯನಗಳನ್ನು
-3.937538	ಅಧ್ಯಯನಗಳು
-4.159387	ಅಧ್ಯಯನದ
-4.335478	ಅಧ್ಯಯನದಲ್ಲಿ
-4.159387	ಅಧ್ಯಯನದಲ್ಲಿನ
-4.335478	ಅಧ್ಯಯನದಿಂದ
-4.335478	ಅಧ್ಯಯನವಸ್ತು
-3.79141	ಅಧ್ಯಯನವು
-4.335478	ಅಧ್ಯಯನವೇ
-4.159387	ಅಧ್ಯಾಯದಲ್ಲಿ
-4.335478	ಅಧ್ಯಾಯವನ್ನೇ
-3.335478	ಅನಂತರ
-4.335478	ಅನಂತರದ
-4.159387	ಅನಂತರವೂ
-4.335478	ಅನನಕೂಲವಾಗಿದ್ದರೆ
-4.335478	ಅನರ್ಥಗಳು
-4.335478	ಅನಾದಿಕಾಲದ
-4.335478	ಅನಾಮಿಕ
-4.335478	ಅನಾಯಕತೆ
-4.335478	ಅನಾವೃಷ್ಟಿಗೆ
-4.034448	ಅನಿರೀಕ್ಷಿತ
-4.159387	ಅನಿಲ
-4.335478	ಅನಿಲಗಳ
-4.335478	ಅನುಕರಣೆ
-4.159387	ಅನುಕರಣೆಯಾಗುತ್ತಿದೆ
-3.682266	ಅನುಕೂಲ
-4.159387	ಅನುಕೂಲಕ್ಕೆ
-4.159387	ಅನುಕೂಲಗಳಿವೆ
-3.937538	ಅನುಕೂಲತೆಗಳನ್ನು
-4.159387	ಅನುಕೂಲತೆಗಳಿರುವುದಿಲ್ಲ
-4.159387	ಅನುಕೂಲತೆಗಳುಂಟೋ
-4.335478	ಅನುಕೂಲತೆಗೆ
-4.034448	ಅನುಕೂಲತೆಯ
-4.335478	ಅನುಕೂಲದೃಷ್ಟಿಯಿಂದ
-4.159387	ಅನುಕೂಲವಾಗಲೆಂದು
-4.159387	ಅನುಕೂಲವಾಗಿದೆಯೆಂದೂ
-4.335478	ಅನುಕೂಲವಾಗುತ್ತದೆ
-4.335478	ಅನುಕೂಲವಾಗುವಂತೆ
-4.159387	ಅನುಕೂಲವುಂಟಾಗುತ್ತದೆ
-4.159387	ಅನುಕ್ರಮ
-4.335478	ಅನುಕ್ರಮಣಿಕೆ
-4.335478	ಅನುಕ್ರಮಣಿಕೆಯನ್ನು
-4.335478	ಅನುಕ್ರಮದಲ್ಲಿ
-4.335478	ಅನುಗುಣವಾಗಿದೆ
-4.159387	ಅನುಗ್ರಹವನ್ನು
-4.159387	ಅನುದಾನದ
-4.159387	ಅನುಪಾತ
-4.335478	ಅನುಪಾತಕ್ಕೆ
-3.858357	ಅನುಭವ
-4.034448	ಅನುಭವಗಳನ್ನು
-4.159387	ಅನುಭವಗಳಿಗೆ
-3.79141	ಅನುಭವದ
-4.335478	ಅನುಭವಪೂರ್ಣವಾದ
-4.335478	ಅನುಭವವನ್ನು
-4.159387	ಅನುಭವಿಸಬೇಕಾಗುತ್ತದೆ
-4.335478	ಅನುಭವಿಸಿದವು
-4.335478	ಅನುಭವಿಸುತ್ತಿರುವ
-4.159387	ಅನುಭವಿಸುವ
-3.733418	ಅನುಮತಿ
-4.159387	ಅನುಮತಿಯಿದೆಯೇ
-4.159387	ಅನುಮತಿಸುತ್ತದೆ
-4.335478	ಅನುಮತಿಸುವ
-4.335478	ಅನುಮಾನ
-4.335478	ಅನುಮೋದಿಸಲು
-4.335478	ಅನುಯಾಯಿಗಳು
-4.159387	ಅನುವರ್ತನಾಶೀಲ
-4.335478	ಅನುವುಮಾಡಿಕೊಳ್ಳುವುದೇ
-4.159387	ಅನುಸರಣೆಯನ್ನು
-4.159387	ಅನುಸರಿಸಬೇಕಾದ
-4.335478	ಅನುಸರಿಸಬೇಕಾದಾಗ
-4.159387	ಅನುಸರಿಸಿ
-4.335478	ಅನುಸರಿಸುತ್ತಲಿರುವುದು
-4.335478	ಅನುಸರಿಸುವುದರೊಂದಿಗೆ
-4.159387	ಅನುಸರಿಸುವುದೆ
-4.159387	ಅನುಸಾರ
-3.937538	ಅನುಸಾರವಾಗಿ
-4.159387	ಅನುಸಾರವಾಗಿರಬೇಕು
-2.687118	ಅನೇಕ
-4.159387	ಅನೇಕರ
-4.335478	ಅನೇಕರು
-4.335478	ಅನೇಕಾನೇಕ
-4.159387	ಅನೈಜವಾದದ್ದು
-4.159387	ಅನೌಪಚಾರಿಕವಾಗಿ
-4.335478	ಅನ್ನ
-4.335478	ಅನ್ನಬಹುದು
-3.937538	ಅನ್ನಾಂಗಗಳು
-3.159387	ಅನ್ನು
-4.335478	ಅನ್ನುವ
-4.159387	ಅನ್ಯಪರಾಗಸ್ಪರ್ಶ
-4.335478	ಅನ್ಯಪರಾಗಸ್ಪರ್ಶವಾಗಲೇಬೇಕು
-4.159387	ಅನ್ವಯಗಳನ್ನು
-4.335478	ಅನ್ವಯಗಳಿಗೆ
-4.335478	ಅನ್ವಯಿಕೆ
-4.335478	ಅನ್ವಯಿಕೆಯು
-4.335478	ಅನ್ವಯಿಸಿದರು
-4.335478	ಅನ್ವಯಿಸುವಿಕೆಗಳಿಗಾಗಿ
-4.335478	ಅನ್ವಯಿಸುವಿಕೆಗಳಿಗೆ
-4.335478	ಅನ್ವರ್ಥವಾಗಿರುತ್ತದೆ
-4.159387	ಅಪಕೀರ್ತಿಗೆ
-4.159387	ಅಪಘಾತ
-4.335478	ಅಪಮೌಲ್ಯವನ್ನು
-4.335478	ಅಪರದತ್ತವನ್ನು
-4.159387	ಅಪರಾಧದಲ್ಲಿ
-4.335478	ಅಪರಾಧವೆಂದು
-4.335478	ಅಪರಿಮಿತ
-4.335478	ಅಪರಿಮಿತತೆಯ
-4.335478	ಅಪರಿಮಿತವಾಗಿದೆ
-4.159387	ಅಪರೂಪವಾಗಿ
-4.159387	ಅಪರೂಪವಾದರೂ
-4.335478	ಅಪವ್ಯಯ
-4.335478	ಅಪಸಾಮಾನ್ಯ
-4.335478	ಅಪಾಂನಪಾತ್
-3.858357	ಅಪಾಯ
-4.034448	ಅಪಾಯದ
-4.034448	ಅಪಾಯವನ್ನು
-4.335478	ಅಪಾಯವನ್ನುಂಟು
-4.335478	ಅಪಾಯವೂ
-4.335478	ಅಪಾರ
-4.159387	ಅಪೂರ್ಣವಾಗಿ
-4.335478	ಅಪೂರ್ಣವಾದದ್ದು
-4.335478	ಅಪೇಕ್ಷಿಸುವ
-4.159387	ಅಪೇಕ್ಷಿಸುವುದಿಲ್ಲ
-4.159387	ಅಪೋಲೋ
-4.034448	ಅಪ್ಪಟ
-4.335478	ಅಪ್ಪುಗಳಿಂದ
-4.159387	ಅಪ್ರಾಯೋಗಿಕ
-4.335478	ಅಪ್ಲಿಕೇಶನ್
-4.335478	ಅಪ್ಸರೆ
-4.159387	ಅಫ್
-4.335478	ಅಬಿನಂಧಿಸಿ
-4.335478	ಅಭದ್ರತೆ
-4.159387	ಅಭಾವದ
-4.159387	ಅಭಿದಮ್ಮಪಿಟಕದಲ್ಲಿ
-3.79141	ಅಭಿಪ್ರಾಯ
-4.335478	ಅಭಿಪ್ರಾಯಗಳ
-4.034448	ಅಭಿಪ್ರಾಯಗಳನ್ನು
-4.159387	ಅಭಿಪ್ರಾಯಗಳು
-4.159387	ಅಭಿಪ್ರಾಯವು
-4.335478	ಅಭಿಮತದಂತೆ
-4.159387	ಅಭಿಮಾನ
-4.159387	ಅಭಿಮಾನದಿಂದ
-4.335478	ಅಭಿಮಾನಪೂರ್ವಕವಾಗಿ
-4.335478	ಅಭಿವೃದ್ದಿಯೇತರ
-3.357754	ಅಭಿವೃದ್ಧಿ
-4.159387	ಅಭಿವೃದ್ಧಿಪಡಿಸಲಾದ
-4.335478	ಅಭಿವೃದ್ಧಿಪಡಿಸುವುದು
-4.159387	ಅಭಿವೃದ್ಧಿಯನ್ನು
-4.335478	ಅಭಿವೃದ್ಧಿಯಲ್ಲಿ
-4.335478	ಅಭಿವೃದ್ಧಿಯಾಗದು
-4.159387	ಅಭಿವೃದ್ಧಿಯಾಗುತ್ತದೆ
-4.335478	ಅಭಿವೃದ್ಧಿಹೊಂದಿದ
-4.335478	ಅಭಿವ್ಯಕ್ತನಾಗಿರುವನೆಂಬುದನ್ನು
-4.034448	ಅಭ್ಯಾಸ
-4.335478	ಅಭ್ಯಾಸದ
-4.159387	ಅಭ್ಯಾಸವು
-4.335478	ಅಮೂರ್ತ
-4.159387	ಅಮೂಲ್ಯ
-4.159387	ಅಮೃತಮಂಥನದಲ್ಲಿ
-4.159387	ಅಮೃತವನ್ನು
-3.79141	ಅಮೆರಿಕ
-3.858357	ಅಮೆರಿಕದ
-4.159387	ಅಮೆರಿಕದಲ್ಲೂ
-4.159387	ಅಮೆರಿಕನ್
-4.335478	ಅಮೆರಿಕವನ್ನೂ
-4.335478	ಅಮೆರಿಕಾ
-4.159387	ಅಮೆರಿಕಾದ
-4.159387	ಅಮೇರಿಕ
-4.159387	ಅಮೇರಿಕದ
-4.335478	ಅಮೇರಿಕನ್ನರು
-4.159387	ಅಮೇರಿಕವು
-4.159387	ಅಮೇರಿಕಾದ
-4.335478	ಅಮೋನಿಯ
-4.335478	ಅಮೋನಿಯವನ್ನು
-4.335478	ಅಯಸ್ಕಾಂತಗಳೊಂದಿಗೆ
-4.335478	ಅಯಾನು
-4.034448	ಅರಬ್ಬಿ
-4.335478	ಅರಬ್ಬೀ
-4.335478	ಅರವತ್ತು
-4.335478	ಅರಸನಾಗಿದ್ದನೆಂದು
-4.335478	ಅರಸರಿಂದ
-4.159387	ಅರಾಬಿಕ್
-4.335478	ಅರಿತು
-4.335478	ಅರಿಭಯಂಕರನೂ
-4.159387	ಅರಿಯಬೇಕೆಂಬ
-4.034448	ಅರಿವನ್ನು
-4.159387	ಅರಿವು
-4.335478	ಅರುವತ್ತ
-4.335478	ಅರುವತ್ತರ
-3.937538	ಅರುವತ್ತು
-4.335478	ಅರುವತ್ತೇಳು
-4.335478	ಅರುವತ್ತೈದು
-4.159387	ಅರೆದುರ್ಬಲವಾದ
-3.682266	ಅರ್ಜಿ
-4.159387	ಅರ್ಜಿದಾರರ
-4.335478	ಅರ್ಜಿಯನ್ನು
-4.335478	ಅರ್ಜಿಯು
-4.159387	ಅರ್ಜುನ
-4.159387	ಅರ್ಜೆಂಟೈನಾ
-3.79141	ಅರ್ಥ
-4.159387	ಅರ್ಥಗಳು
-4.335478	ಅರ್ಥದ
-3.937538	ಅರ್ಥದಲ್ಲಿ
-4.159387	ಅರ್ಥನಿರೂಪಣೆ
-4.159387	ಅರ್ಥಮಾಡಿಕೊಳ್ಳಲು
-4.159387	ಅರ್ಥಮಾಡಿಕೊಳ್ಳುವ
-4.335478	ಅರ್ಥವನ್ನು
-4.159387	ಅರ್ಥವಿವರಣೆ
-4.034448	ಅರ್ಥವೂ
-4.335478	ಅರ್ಥವ್ಯಾಖ್ಯಾನಗಳು
-3.858357	ಅರ್ಥಶಾಸ್ತ್ರ
-4.335478	ಅರ್ಥಶಾಸ್ತ್ರಜ್ಞರು
-3.858357	ಅರ್ಥಶಾಸ್ತ್ರದ
-3.937538	ಅರ್ಥಶಾಸ್ತ್ರದಲ್ಲಿ
-4.335478	ಅರ್ಥಶಾಸ್ತ್ರವೆನಿಸುವುದು
-4.335478	ಅರ್ಥೈಸಬಹುದು
-4.335478	ಅರ್ಥೈಸಲಾಗುತ್ತದೆ
-3.79141	ಅರ್ಧ
-4.335478	ಅರ್ಧಂಬರ್ಧ
-4.159387	ಅರ್ಪಿಸಲಾಗಿದೆ
-4.335478	ಅರ್ಪಿಸಲಾಯಿತು
-4.159387	ಅರ್ಹಂತರಲ್ಲಿ
-4.335478	ಅರ್ಹತೆ
-3.858357	ಅಲಂಕರಣ
-4.159387	ಅಲಂಕರಣದ
-4.335478	ಅಲಂಕಾರ
-4.159387	ಅಲಭ್ಯವಾಗಿದೆ
-4.159387	ಅಲೆಗ್ಸಾಂಡರ್
-4.159387	ಅಲ್ಟ್ರಾಸೌಂಡ್
-4.335478	ಅಲ್ಪ
-4.159387	ಅಲ್ಪಪ್ರಮಾಣದಲ್ಲಿ
-4.159387	ಅಲ್ಪಾವಧಿ
-4.159387	ಅಲ್ಬುಮಿನ್
-4.159387	ಅಲ್ಯೂಮಿನಿಯಂ
-4.335478	ಅಲ್ಲ
-3.522565	ಅಲ್ಲದೆ
-2.88832	ಅಲ್ಲದೇ
-4.159387	ಅಲ್ಲಲ್ಲಿ
-4.159387	ಅಲ್ಲವೇ
-3.557327	ಅಲ್ಲಿ
-4.034448	ಅಲ್ಲಿಂದ
-4.335478	ಅಲ್ಲಿಗೆ
-3.858357	ಅಲ್ಲಿನ
-4.335478	ಅಲ್ಲಿಯೇ
-4.159387	ಅಲ್ಲಿರಬಹುದು
-4.335478	ಅಲ್ಲೂ
-4.159387	ಅಲ್ಲೇ
-4.335478	ಅಳವಡಿಕೆ
-4.335478	ಅಳವಡಿಸಲಾಗಿದೆ
-4.335478	ಅಳವಡಿಸಿಕೊಳ್ಳಬಹುದು
-4.335478	ಅಳವಡಿಸಿಕೊಳ್ಳುವುದೇ
-4.335478	ಅಳವಡಿಸಿಗೊಂಡಿದೆ
-4.159387	ಅಳವಡಿಸಿದರೆ
-4.159387	ಅಳವಡಿಸಿದವು
-4.335478	ಅಳವಡಿಸುತ್ತಾರೆ
-4.335478	ಅಳವಡಿಸುವ
-4.159387	ಅಳಿಸಿ
-4.335478	ಅಳಿಸುವಿಕೆಗಾಗಿ
-4.335478	ಅಳಿಸುವಿಕೆಗೆ
-4.335478	ಅಳಿಸುವುದರ
-4.159387	ಅಳೆದು
-4.335478	ಅಳೆಯುವುದು
-3.406059	ಅವಕಾಶ
-4.159387	ಅವಕಾಶಗಳನ್ನು
-4.335478	ಅವಕಾಶಗಳಿರುವುದರಿಂದ
-4.159387	ಅವಕಾಶಗಳು
-4.159387	ಅವಕಾಶವಿದೆ
-4.159387	ಅವಕಾಶವಿರುವುದಿಲ್ಲ
-4.335478	ಅವಕಾಶವು
-4.159387	ಅವಕ್ಕೆ
-4.335478	ಅವತರಣಿಕೆಯಲ್ಲಿ
-3.937538	ಅವಧಿ
-3.79141	ಅವಧಿಯಲ್ಲಿ
-4.335478	ಅವಧಿಯಾಗಿದ್ದು
-3.937538	ಅವಧಿಯು
-4.335478	ಅವನ
-4.159387	ಅವನತಿ
-4.335478	ಅವನನ್ನು
-4.335478	ಅವನಷ್ಟು
-4.159387	ಅವನಿಗೆ
-3.79141	ಅವನು
-4.335478	ಅವನ್ನು
-3.221534	ಅವರ
-4.159387	ಅವರಂತೆ
-4.335478	ಅವರದೇ
-4.159387	ಅವರಲ್ಲಿ
-4.159387	ಅವರಿಂದ
-3.79141	ಅವರಿಗೆ
-4.335478	ಅವರಿರುವ
-3.013259	ಅವರು
-4.335478	ಅವರ್ಸೆ
-4.335478	ಅವಲಂಬಿತ
-4.159387	ಅವಲಂಬಿತವಾಗಿರುತ್ತದೆ
-4.335478	ಅವಲಂಬಿತವಾಗಿರುವುದರಿಂದ
-4.335478	ಅವಲಂಬಿತವಾಗಿಲ್ಲ
-4.335478	ಅವಲಂಬಿಸದೇ
-4.335478	ಅವಲಂಬಿಸಿ
-3.937538	ಅವಲಂಬಿಸಿದೆ
-4.159387	ಅವಲಂಬಿಸಿದ್ದುದರಿಂದ
-3.858357	ಅವಲಂಬಿಸಿರುತ್ತದೆ
-4.335478	ಅವಲಂಬಿಸಿವೆ
-4.335478	ಅವಶ್ಯ
-4.335478	ಅವಶ್ಯಕ
-4.335478	ಅವಶ್ಯಕತೆ
-4.335478	ಅವಶ್ಯಕತೆಗಳ
-4.159387	ಅವಶ್ಯಕತೆಗಳನ್ನು
-4.159387	ಅವಶ್ಯಕತೆಯಿರದಂತೆ
-4.335478	ಅವಶ್ಯಕತೆಯಿಲ್ಲದೆ
-4.335478	ಅವಶ್ಯಕತೆಯು
-4.159387	ಅವಶ್ಯಕವಾಗಿರುತ್ತದೆ
-4.159387	ಅವಶ್ಯಕವಿರುತ್ತವೆ
-4.159387	ಅವಶ್ಯವಾಗಿ
-4.159387	ಅವಶ್ಯವಾಗಿದೆ
-4.335478	ಅವಸಾಧನದಲ್ಲಿ
-4.159387	ಅವಸಾನಗೊಂಡಿತು
-4.335478	ಅವಾಹಕ
-4.335478	ಅವಿದ್ಯಾವಂತರಿಗೆ
-4.335478	ಅವಿಧ್ಯಾವಂತರಿಗೆ
-4.159387	ಅವಿರೋಧವಾಗಿ
-3.557327	ಅವು
-3.314289	ಅವುಗಳ
-3.636508	ಅವುಗಳನ್ನು
-4.159387	ಅವುಗಳಲ್ಲಿ
-4.335478	ಅವುಗಳಿಂದಲೂ
-4.335478	ಅವುಗಳಿಗೆ
-3.79141	ಅವುಗಳು
-4.335478	ಅವುಗಳೆಂದರೆ
-4.335478	ಅವುಗಳೊಳಗಿರುವ
-4.335478	ಅವೆರಡನ್ನೂ
-4.335478	ಅವ್ಯಾಪ್ಯ
-4.159387	ಅಶೋಕನ
-4.335478	ಅಶ್ವಿನೀ
-4.159387	ಅಷ್ಟಾಂಗಯೋಗವನ್ನು
-4.034448	ಅಷ್ಟಾಗಿ
-4.034448	ಅಷ್ಟು
-3.733418	ಅಷ್ಟೇ
-4.034448	ಅಷ್ಟೇನೂ
-4.335478	ಅಸಂಖ್ಯಾತ
-4.335478	ಅಸಂಗ
-4.159387	ಅಸತ್ಯ
-4.335478	ಅಸಮರ್ಪಕ
-4.335478	ಅಸಹ್ಯವಾದ
-4.335478	ಅಸಾಧ್ಯ
-4.034448	ಅಸಾಧ್ಯವಾಗುತ್ತದೆ
-4.335478	ಅಸಾಮಾನ್ಯ
-4.335478	ಅಸಿಟಿಕ್
-4.335478	ಅಸುರರನ್ನು
-4.335478	ಅಸೆಂಬ್ಲಿ
-4.335478	ಅಸೋಶಿಯೇಟ್
-4.335478	ಅಸ್ತವ್ಯಸ್ತಗೊಂಡಿರಬಹುದಾದ
-4.335478	ಅಸ್ತಿತ್ವಕ್ಕೆ
-4.159387	ಅಸ್ತಿತ್ವದಲ್ಲಿ
-4.034448	ಅಸ್ತಿತ್ವದಲ್ಲಿರುವ
-4.034448	ಅಸ್ತಿತ್ವದಲ್ಲಿವೆ
-4.335478	ಅಸ್ತಿತ್ವವಿದೆ
-4.335478	ಅಸ್ಥಿ
-4.159387	ಅಸ್ಥಿಮಜ್ಜೆ
-4.159387	ಅಸ್ಥಿರ
-4.335478	ಅಸ್ಥಿರವಾದುವುಗಳು
-4.335478	ಅಸ್ಪಷ್ಟವಾಗಿದೆ
-4.159387	ಅಸ್ಪಷ್ಟವಾಗಿವೆ
-4.335478	ಅಸ್ವಸ್ಥತೆಗಳ
-4.335478	ಅಸ್ಸಾಂ
-4.034448	ಅಹಂಕಾರ
-4.159387	ಅಹಂಕಾರವನ್ನು
-4.335478	ಅಹಂಕಾರವು
-4.159387	ಅಹವಾಲು
-2.896145	ಆ
-4.335478	ಆಂಟಿಯಾಲ್ಕಿಡಾಸ್
-4.159387	ಆಂಟೆನಗಳ
-4.335478	ಆಂಟೆನವು
-4.335478	ಆಂಡಾಶಯವು
-3.733418	ಆಂತರಿಕ
-4.335478	ಆಂತರಿಕ್ಷ
-4.159387	ಆಂಥ್ರೊಪಾಲಜಿ
-4.335478	ಆಂಸ್ಟರ್ಡ್ಯಾಮ್
-4.159387	ಆಕರ
-4.335478	ಆಕರವಾಗಿ
-4.034448	ಆಕರ್ಷಕ
-4.159387	ಆಕರ್ಷಣೀಯವಾಗಿ
-4.159387	ಆಕರ್ಷಣೆಯಿಂದ
-4.159387	ಆಕರ್ಷಿಸಿದೆ
-4.159387	ಆಕಸ್ಮಿಕವಾಗಿ
-3.733418	ಆಕಾರ
-4.335478	ಆಕಾರಗಳನ್ನು
-4.159387	ಆಕಾರದಲ್ಲೂ
-4.335478	ಆಕಾರವನ್ನು
-4.335478	ಆಕಾರವಾವುದೆಂದರೆ
-4.159387	ಆಕಾರವು
-3.79141	ಆಕಾಶ
-3.858357	ಆಕಾಶಕಾಯಗಳ
-4.159387	ಆಕಾಶದ
-4.034448	ಆಕಾಶದಲ್ಲಿ
-4.335478	ಆಕಾಶದ್ರವ್ಯ
-4.159387	ಆಕೃತಿಗಳನ್ನು
-4.034448	ಆಕೃತಿಗಳು
-4.335478	ಆಕೃತಿಯನ್ನು
-4.159387	ಆಕ್ರಮಣ
-4.335478	ಆಕ್ಷೇಪಣೆಗಳನ್ನು
-3.858357	ಆಕ್ಷೇಪಣೆಗಳು
-4.335478	ಆಕ್ಷೇಪಿಸಿದರೆ
-4.335478	ಆಕ್ಸಿಜನ್ನಿನ
-4.335478	ಆಕ್ಸೈಡ್
-3.432388	ಆಗ
-4.335478	ಆಗಬಹುದು
-4.159387	ಆಗಲಿ
-4.159387	ಆಗಲೇ
-4.159387	ಆಗಲೇಬೇಕು
-4.034448	ಆಗಸ್ಟ್
-4.335478	ಆಗಸ್ಟ್‌ನಲ್ಲಿ
-3.937538	ಆಗಾಗ
-4.159387	ಆಗಾಗ್ಗೆ
-3.733418	ಆಗಿ
-4.335478	ಆಗಿಂದಾಗ್ಗೆ
-3.937538	ಆಗಿದೆ
-4.034448	ಆಗಿದ್ದ
-4.335478	ಆಗಿದ್ದವೆಂದು
-4.034448	ಆಗಿದ್ದು
-4.335478	ಆಗಿರುವ
-4.159387	ಆಗಿರುವುದಿಲ್ಲ
-3.733418	ಆಗುತ್ತದೆ
-4.034448	ಆಗುತ್ತಿಲ್ಲ
-4.159387	ಆಗುವ
-4.335478	ಆಗುವಂತೆ
-3.937538	ಆಗ್ನೇಯಕ್ಕೆ
-4.335478	ಆಚರಣೆ
-4.159387	ಆಚರಣೆಗಳನ್ನು
-4.159387	ಆಚರಣೆಗೆ
-4.335478	ಆಚರಿಸಲಾಗುತ್ತಿದೆ
-4.335478	ಆಚರಿಸಿ
-4.335478	ಆಚಾರ್ಯಪುರುಷನಾದ
-4.159387	ಆಟಗಳಲ್ಲಿ
-4.159387	ಆಟಗಳು
-4.335478	ಆಟಗಾರ
-4.159387	ಆಟವಾಡುವ
-4.159387	ಆಡಬಹುದಾಗಿದೆ
-3.595115	ಆಡಳಿತ
-4.335478	ಆಡಳಿತಕ್ಕೆ
-4.159387	ಆಡಳಿತದ
-4.159387	ಆಡಳಿತವು
-4.159387	ಆಡಳಿತಾಧಿಕಾರಿಗಳು
-4.159387	ಆಡಿದ್ದಾರೆ
-4.159387	ಆಡು
-4.159387	ಆಡುತ್ತವೆ
-3.937538	ಆತ
-4.034448	ಆತನ
-4.159387	ಆತ್ಮನಾಗಿದ್ದಾನೆ
-4.335478	ಆತ್ಮಾ
-4.335478	ಆತ್ರೇಯ
-4.335478	ಆತ್ರೇಯರಿದ್ದರು
-4.335478	ಆತ್ರೇಯಾದಿಗಳು
-3.406059	ಆದ
-4.335478	ಆದರಿಸಬೇಕೋ
-4.335478	ಆದರು
-3.381235	ಆದರೂ
-2.79141	ಆದರೆ
-4.335478	ಆದವನಿವನು
-4.335478	ಆದವನು
-4.034448	ಆದಾಗ್ಯೂ
-4.335478	ಆದಾಯದ
-4.335478	ಆದಾಯವಿದೆ
-4.335478	ಆದಾಯವು
-4.159387	ಆದಿವಾಸಿಗಳ
-4.159387	ಆದಿವಾಸಿಗಳು
-3.636508	ಆದುದರಿಂದ
-4.159387	ಆದೇಶಗಳ
-4.335478	ಆದೇಶಗಳನ್ನು
-4.335478	ಆದೇಶಗಳು
-3.49038	ಆದ್ದರಿಂದ
-4.159387	ಆದ್ದರಿಂದಲೇ
-3.937538	ಆದ್ಯತೆ
-4.159387	ಆದ್ರ್ರತೆ
-4.159387	ಆಧರಿತ
-3.858357	ಆಧರಿಸಿ
-4.335478	ಆಧರಿಸಿವೆ
-4.159387	ಆಧಾರ
-3.460417	ಆಧಾರದ
-4.335478	ಆಧಾರವಾಗಿ
-4.335478	ಆಧಾರವಾಗಿದೆ
-4.335478	ಆಧಾರವಾಗಿರುತ್ತದೆ
-4.335478	ಆಧಾರವಿರಬೇಕಾಗಿದ್ದಿಲ್ಲ
-4.335478	ಆಧಾರವಿರಬೇಕಾದ್ದಿಲ್ಲ
-4.335478	ಆಧಾರವ್ಯವಸ್ಥೆಗಳು
-4.335478	ಆಧಾರಸ್ತಂಭ
-3.858357	ಆಧಾರಿತ
-4.335478	ಆಧೀನಕ್ಕೆ
-3.335478	ಆಧುನಿಕ
-4.335478	ಆಧುನಿಕತೆಯ
-4.335478	ಆನಂತರ
-4.159387	ಆನ್ಲೈನ್
-4.335478	ಆಪತ್ತುಗಳನ್ನು
-3.733418	ಆಫ್
-4.159387	ಆಫ್ರಿಕದ
-4.159387	ಆಫ್ರಿಕದಲ್ಲಿರುವ
-4.335478	ಆಫ್ರಿಕವೇ
-4.159387	ಆಫ್ರಿಕಾದ
-4.335478	ಆಫ್ರೊ
-4.159387	ಆಮದಿಗೆ
-3.858357	ಆಮದು
-4.335478	ಆಮದುಗಳ
-4.335478	ಆಮದುಮಾಡಿಕೊಳ್ಳುವ
-4.034448	ಆಮದುಮಾಡಿಕೊಳ್ಳುವುದರ
-4.159387	ಆಮದುಮಾಡಿಕೊಳ್ಳುವುದು
-4.335478	ಆಮೆ
-3.636508	ಆಮೇಲೆ
-4.159387	ಆಮ್ಲ
-4.335478	ಆಮ್ಲಗಳನ್ನು
-4.335478	ಆಮ್ಲಗಳೂ
-4.335478	ಆಮ್ಲಜನಕ
-4.034448	ಆಮ್ಲಜನಕದ
-4.159387	ಆಮ್ಲಜನಕವನ್ನು
-4.335478	ಆಯಮವನ್ನ
-4.159387	ಆಯವ್ಯಯದಲ್ಲಿ
-3.522565	ಆಯಾ
-4.159387	ಆಯಾಮದ
-4.335478	ಆಯಾಮವಗಿ
-4.335478	ಆಯಾಮವಾಗಿ
-4.335478	ಆಯಿತು
-4.335478	ಆಯುಧ
-4.159387	ಆಯುಧಗಳನ್ನು
-4.335478	ಆಯುಧಗಳೂ
-3.858357	ಆಯುರ್ವೇದ
-4.335478	ಆಯುರ್ವೇದಕ್ಕೆ
-4.335478	ಆಯುರ್ವೇದದ
-4.159387	ಆಯುರ್ವೇದವನ್ನು
-4.034448	ಆಯ್ಕೆ
-4.335478	ಆಯ್ಕೆಯಾಗಿದ್ದಾರೆ
-4.159387	ಆಯ್ಕೆಯಾಗುತ್ತಾರೆ
-4.159387	ಆಯ್ಕೆಯಾದರು
-4.335478	ಆಯ್ದುಕೊಳ್ಳಲಾಗಿದೆ
-4.335478	ಆರಂಭದಲ್ಲಿಯೇ
-4.159387	ಆರಂಭವಾಗಿ
-4.159387	ಆರಂಭವಾದ
-4.034448	ಆರಂಭಿಕ
-4.335478	ಆರಂಭಿಸಬಹುದು
-4.335478	ಆರಕ್ಕಿಂತಲೂ
-4.335478	ಆರನೂರು
-4.335478	ಆರನೇ
-4.335478	ಆರರಂದು
-4.335478	ಆರರಲ್ಲಿ
-4.159387	ಆರಾಧನೆ
-3.937538	ಆರಿದಾಗ
-3.858357	ಆರು
-4.159387	ಆರುತಿಂಗಳ
-4.159387	ಆರುನೂರು
-4.335478	ಆರುವತ್ತು
-4.335478	ಆರೋಗ್ಯ
-4.159387	ಆರೋಗ್ಯಕ್ಕೆ
-4.335478	ಆರೋಗ್ಯಗಳಿಗೆ
-4.335478	ಆರ್
-4.335478	ಆರ್ಟೀಸಿಯನ್
-3.145146	ಆರ್ಥಿಕ
-4.335478	ಆರ್ಥಿಕತೆ
-4.034448	ಆರ್ಥಿಕತೆಯ
-4.335478	ಆರ್ಥಿಕತೆಯಲ್ಲಿ
-4.335478	ಆರ್ಥಿಕಪ್ರಗತಿಯನ್ನು
-4.335478	ಆರ್ಥಿಕಯೋಜನೆಗಳನ್ನು
-4.159387	ಆರ್ಥಿಕಾಭಿವೃದ್ಧಿ
-4.335478	ಆರ್ಥಿಕಾಭಿವೃದ್ಧಿಗೆ
-4.335478	ಆರ್ಥಿಕಾಭಿವೃದ್ಧಿಯಲ್ಲಿ
-4.159387	ಆರ್ಥಿಕೋದ್ದೇಶಗಳಿಗಾಗಿ
-4.335478	ಆರ್ನೂರ
-3.937538	ಆರ್ನೂರು
-3.79141	ಆರ್ಬಿಟಲ್
-4.335478	ಆರ್ಬಿಟ್ರೇಶನ್
-4.159387	ಆರ್ಮ್
-4.159387	ಆರ್ಯಜನಾಂಗಕ್ಕೆ
-4.335478	ಆಲ
-4.335478	ಆಲದ
-4.335478	ಆಲಿಸಬಹುದು
-4.159387	ಆಲಿಸುವ
-3.937538	ಆಲೋಚನೆಯ
-4.034448	ಆಲೋಚನೆಯೇ
-4.034448	ಆಲೋಚಿಸಲಾಗಿದೆ
-4.159387	ಆಲ್ಬಾ
-4.335478	ಆಲ್ಬ್ಯೂಮಿನ್
-4.335478	ಆಲ್ರೌಂಡರ್
-4.034448	ಆಳ
-4.335478	ಆಳಕ್ಕೆ
-4.159387	ಆಳದ
-4.159387	ಆಳದಲ್ಲಿರುತ್ತದೆ
-4.159387	ಆಳಿದ
-4.335478	ಆಳುತ್ತಿದ್ದ
-4.335478	ಆಳುವವನು
-4.335478	ಆಳ್ವಿಕೆಗೊಳಪಟ್ಟಿವೆ
-4.335478	ಆಳ್ವಿಕೆಯನ್ನು
-4.335478	ಆವರಣ
-4.335478	ಆವರಣಗಳಲ್ಲಿ
-4.159387	ಆವರಣದಲ್ಲಿ
-4.159387	ಆವರಿಸಲ್ಪಟ್ಟಿದೆ
-4.159387	ಆವರ್ತನ
-4.034448	ಆವಶ್ಯಕ
-4.159387	ಆವಶ್ಯಕತೆ
-4.159387	ಆವಶ್ಯಕತೆಗಳನ್ನು
-4.159387	ಆವಶ್ಯಕತೆಯನ್ನು
-4.159387	ಆವಶ್ಯಕತೆಯಿರುತ್ತದೆ
-4.335478	ಆವಶ್ಯಕತೆಯಿಲ್ಲದಿದ್ದಾಗ
-4.335478	ಆವಶ್ಯಕವಾಗಿ
-4.159387	ಆವಶ್ಯಕವಾದ
-4.034448	ಆವಿಯಾಗಿ
-4.335478	ಆವಿಯಾಗಿಸಬೇಕು
-4.335478	ಆವಿಯಾಗಿಸಿ
-4.335478	ಆವಿಯಾಗುವಂತೆ
-4.159387	ಆವಿಯಿದ್ದರೆ
-4.335478	ಆವಿಷ್ಕಾರಗಳನ್ನು
-4.335478	ಆವಿಷ್ಕಾರಗಳು
-4.335478	ಆವಿಷ್ಕಾರದ
-4.159387	ಆವಿಸ್ಕಾರಗಳು
-3.937538	ಆವೃತ್ತಿ
-4.335478	ಆವೃತ್ತಿಗಳು
-4.335478	ಆವೃತ್ತಿಯ
-4.159387	ಆವೃತ್ತಿಯು
-4.335478	ಆಶಯಗಳನ್ನು
-4.159387	ಆಶಯಗಳು
-4.159387	ಆಶ್ಚರ್ಯಕರವಾಗಿದೆ
-4.159387	ಆಸಕ್ತ
-4.335478	ಆಸಕ್ತರಿಗೆ
-4.159387	ಆಸಕ್ತಿ
-4.159387	ಆಸಕ್ತಿಗೊಂಡಿತು
-4.159387	ಆಸಕ್ತಿಯನ್ನು
-4.335478	ಆಸಕ್ತಿವಹಿಸಲು
-4.159387	ಆಸರೆ
-4.159387	ಆಸೆಯಿಂದಾಗಿ
-4.335478	ಆಸ್ಟ್ರಿಯದ
-4.159387	ಆಸ್ಟ್ರಿಯಾಗಳಲ್ಲಿ
-4.159387	ಆಸ್ಟ್ರೇಲಿಯಾ
-4.335478	ಆಸ್ಟ್ರೋನಾಟಿಕ್ಸ್
-4.034448	ಆಸ್ತಿ
-4.335478	ಆಸ್ತಿಯನ್ನು
-4.159387	ಆಸ್ಪತ್ರೆಗಳು
-4.335478	ಆಸ್ಪದ
-3.733418	ಆಹಾರ
-4.159387	ಆಹಾರಕ್ಕೆ
-4.335478	ಆಹಾರಗಳೂ
-3.79141	ಆಹಾರದ
-4.159387	ಆಹಾರವನ್ನಾದರೂ
-3.937538	ಆಹಾರವನ್ನು
-4.335478	ಆಹಾರವಾಗಲಿ
-4.335478	ಆಹಾರವಾಗಿರುತ್ತದೆ
-4.335478	ಆಹಾರವು
-4.335478	ಆಹಾರಸೂಚಿಯನ್ನು
-4.159387	ಆಹ್ಲಾದವನ್ನಾಗಲಿ
-4.335478	ಇ
-4.159387	ಇಂಗಾಲದ
-4.159387	ಇಂಗಿಹೋಗುತ್ತದೆ
-4.335478	ಇಂಗ್ಲಿಷ್
-4.159387	ಇಂಗ್ಲೀಷ್
-4.335478	ಇಂಗ್ಲೆಂಡಿನಲ್ಲಿ
-4.034448	ಇಂಚು
-4.159387	ಇಂಚುಗಳಿಗೆ
-4.335478	ಇಂಜನಿಯರಿಂಗ್
-3.357754	ಇಂಜಿನಿಯರಿಂಗ್
-4.335478	ಇಂಜಿನಿಯರಿಂಗ್‌ನಲ್ಲಿ
-4.159387	ಇಂಜಿನಿಯರುಗಳು
-4.335478	ಇಂಜಿನಿಯರ್
-3.682266	ಇಂಜಿನ್
-4.159387	ಇಂಟರ್
-4.159387	ಇಂಟರ್ಫೇಸ್
-4.335478	ಇಂಟರ್‌ನ್ಯಾಶನಲ್
-4.034448	ಇಂಟಿಗ್ರೇಟೆಡ್
-4.335478	ಇಂಡಿ
-4.159387	ಇಂಡಿಯನ್
-4.335478	ಇಂಡೋಗ್ರೀಕ್
-3.357754	ಇಂತಹ
-4.335478	ಇಂತಹದ್ದೇ
-4.335478	ಇಂತಹುದೇ
-4.159387	ಇಂತಿಷ್ಟೇ
-3.221534	ಇಂಥ
-3.682266	ಇಂದಿನ
-4.335478	ಇಂದಿನತನಕದ
-3.79141	ಇಂದು
-4.335478	ಇಂದೂ
-3.937538	ಇಂದ್ರ
-3.937538	ಇಂದ್ರನಂತೆ
-4.159387	ಇಂದ್ರನದ್ದು
-4.335478	ಇಂದ್ರನನ್ನು
-4.335478	ಇಂದ್ರನಲ್ಲಿಗೆ
-4.335478	ಇಂದ್ರನಿಂದ
-4.335478	ಇಂದ್ರನೂ
-4.335478	ಇಂದ್ರಿಯಾನುಭವಗಳನ್ನು
-4.159387	ಇಕ್ಕಳ
-4.159387	ಇಗರ್ಜಿಯೂ
-4.335478	ಇಚ್ಚಿಸುವುದಿಲ್ಲ
-4.034448	ಇಟಲಿ
-4.159387	ಇಟಲಿಯಲ್ಲೂ
-4.335478	ಇಟ್ಟಿಗೆ
-4.159387	ಇಟ್ಟಿರುವ
-3.937538	ಇಟ್ಟು
-4.159387	ಇಟ್ಟುಕೊಂಡಿದೆ
-4.034448	ಇಟ್ಟುಕೊಂಡು
-4.335478	ಇಡಲಾಗಿದೆ
-4.159387	ಇಡಲಾಗುತ್ತದೆ
-4.335478	ಇಡಿ
-3.858357	ಇಡೀ
-2.96441	ಇತರ
-4.335478	ಇತರರಿಗೆ
-4.335478	ಇತರರು
-4.159387	ಇತರೆ
-3.858357	ಇತಿಹಾಸ
-4.159387	ಇತಿಹಾಸಕ್ಕೆ
-4.159387	ಇತಿಹಾಸದಲ್ಲೇ
-4.335478	ಇತಿಹಾಸವಿದೆ
-4.335478	ಇತ್ತೀಚಿಗಿನ
-3.682266	ಇತ್ತೀಚಿನ
-4.335478	ಇತ್ತೀಚೆಗಂತೂ
-4.335478	ಇತ್ತೀಚೆಗಷ್ಟೇ
-3.733418	ಇತ್ತೀಚೆಗೆ
-4.159387	ಇತ್ತು
-4.159387	ಇತ್ಯರ್ಥಕ್ಕೆ
-4.335478	ಇತ್ಯರ್ಥಗೊಳಿಸುವಾಗ
-4.335478	ಇತ್ಯರ್ಥವು
-4.159387	ಇದ
-4.159387	ಇದಕ್ಕಾಗಿ
-4.159387	ಇದಕ್ಕಿಂತಲೂ
-3.145146	ಇದಕ್ಕೆ
-4.159387	ಇದನ್ನನುಸರಿಸಿ
-2.946312	ಇದನ್ನು
-2.696989	ಇದರ
-3.17411	ಇದರಲ್ಲಿ
-4.335478	ಇದರಲ್ಲೊಂದೆನಿಸಿದೆ
-3.557327	ಇದರಿಂದ
-4.335478	ಇದರಿಂದಲೇ
-3.18935	ಇದರಿಂದಾಗಿ
-3.858357	ಇದರೊಂದಿಗೆ
-4.159387	ಇದಲ್ಲದೆ
-4.159387	ಇದಾಗಿರುತ್ತದೆ
-4.159387	ಇದಾದಮೇಲೆ
-2.386088	ಇದು
-4.034448	ಇದುವರೆಗೂ
-4.335478	ಇದುವರೆಗೆ
-3.79141	ಇದೂ
-3.18935	ಇದೆ
-4.159387	ಇದೆಅಲಾಂಜಿಯೇಸೀ
-4.335478	ಇದೆಇದರ
-4.335478	ಇದೆಯೆ
-4.335478	ಇದೆಲ್ಲ
-3.080205	ಇದೇ
-4.159387	ಇದೊ
-3.858357	ಇದೊಂದು
-4.159387	ಇದ್ದಕ್ಕಿದ್ದಂತೆ
-4.335478	ಇದ್ದಕ್ಕಿದ್ದಂತೆಯೇ
-3.79141	ಇದ್ದಲ್ಲಿ
-4.159387	ಇದ್ದಾರೆ
-4.335478	ಇದ್ದಿರಬಹುದು
-4.335478	ಇದ್ದು
-4.034448	ಇದ್ದುವು
-3.858357	ಇನ್
-3.937538	ಇನ್ನಷ್ಟು
-4.335478	ಇನ್ನಷ್ಟೂ
-4.034448	ಇನ್ನಿತರ
-4.335478	ಇನ್ನಿತರೆ
-3.733418	ಇನ್ನು
-4.159387	ಇನ್ನುಳಿದ
-3.159387	ಇನ್ನೂ
-3.937538	ಇನ್ನೂರ
-4.335478	ಇನ್ನೂರಾ
-3.49038	ಇನ್ನೂರು
-3.49038	ಇನ್ನೊಂದು
-4.335478	ಇನ್ನೊಂದೆಡೆ
-4.335478	ಇನ್ಸಿಟ್ಯೂಟ್
-4.335478	ಇನ್ಸಿಡೆಂಟಾಲೋಮಾಗಳೆಂದು
-4.335478	ಇನ್ಸ್ಟಿಟ್ಯೂಟ್
-4.335478	ಇನ್ಸ್‌ಟಿಟ್ಯೂಟ್
-4.335478	ಇಪ್ಪತೊಂದರಲ್ಲಿ
-4.335478	ಇಪ್ಪತ್ತಕ್ಕೆ
-4.335478	ಇಪ್ಪತ್ತನಾಲ್ಕು
-4.034448	ಇಪ್ಪತ್ತನೇ
-4.335478	ಇಪ್ಪತ್ತಮೂರು
-4.159387	ಇಪ್ಪತ್ತರ
-4.159387	ಇಪ್ಪತ್ತರಲ್ಲಿ
-4.159387	ಇಪ್ಪತ್ತರಿಂದ
-3.733418	ಇಪ್ಪತ್ತು
-4.034448	ಇಪ್ಪತ್ತೆಂಟು
-4.034448	ಇಪ್ಪತ್ತೇಳರ
-4.335478	ಇಪ್ಪತ್ತೇಳು
-4.335478	ಇಪ್ಪತ್ತೈದು
-4.335478	ಇಪ್ಪತ್ತೊಂದರಲ್ಲಿ
-4.335478	ಇಬ್ಬರನ್ನು
-4.335478	ಇಬ್ಬರೂ
-4.335478	ಇರದಿದ್ದಲ್ಲಿ
-3.733418	ಇರಬಹುದು
-4.159387	ಇರಬೇಕು
-4.159387	ಇರಬೇಕೆಂದು
-4.159387	ಇರಲಿ
-4.335478	ಇರಲೇಬೇಕೆಂದು
-3.733418	ಇರಿ
-4.159387	ಇರಿಸಲಾಗುತ್ತದೆ
-4.159387	ಇರಿಸಲು
-4.335478	ಇರಿಸಿಕೊಂಡು
-4.335478	ಇರುತ್ತ
-3.432388	ಇರುತ್ತದೆ
-4.159387	ಇರುತ್ತದೊ
-3.636508	ಇರುತ್ತವೆ
-3.733418	ಇರುತ್ತಾರೆ
-4.335478	ಇರುತ್ತಿದ್ದರಿಂದ
-3.256297	ಇರುವ
-4.335478	ಇರುವಂತೆ
-4.159387	ಇರುವಲ್ಲಿ
-4.335478	ಇರುವವರಲ್ಲಿ
-4.335478	ಇರುವಷ್ಟು
-4.335478	ಇರುವುದಕ್ಕೂ
-4.335478	ಇರುವುದನ್ನು
-4.335478	ಇರುವುದನ್ನೂ
-3.79141	ಇರುವುದರಿಂದ
-3.636508	ಇರುವುದಿಲ್ಲ
-3.733418	ಇರುವುದು
-4.335478	ಇರುವುದೇ
-4.159387	ಇಲಾಖೆಗೆ
-4.335478	ಇಲಾಖೆಯದು
-4.335478	ಇಲಾಖೆಯಲ್ಲಿ
-4.034448	ಇಲಾಖೆಯವರು
-4.159387	ಇಲಿಯದು
-3.937538	ಇಲ್ಲ
-3.937538	ಇಲ್ಲದ
-4.159387	ಇಲ್ಲದಂತಾಗಿದೆ
-4.335478	ಇಲ್ಲದವರಿಗೆ
-4.335478	ಇಲ್ಲದಾಗುತ್ತದೆ
-4.034448	ಇಲ್ಲದಿದ್ದರೆ
-4.335478	ಇಲ್ಲದಿದ್ದುದರಿಂದ
-3.937538	ಇಲ್ಲದಿರಬಹುದು
-4.335478	ಇಲ್ಲದಿರುವುದೇ
-4.159387	ಇಲ್ಲದೆ
-4.159387	ಇಲ್ಲವಾದಲ್ಲಿ
-3.858357	ಇಲ್ಲವೆ
-4.335478	ಇಲ್ಲವೆಂದೂ
-4.034448	ಇಲ್ಲವೇ
-4.335478	ಇಲ್ಲವೋ
-3.159387	ಇಲ್ಲಿ
-4.335478	ಇಲ್ಲಿಗೆ
-4.335478	ಇಲ್ಲಿದ್ದು
-3.79141	ಇಲ್ಲಿನ
-3.937538	ಇಲ್ಲಿಯ
-3.636508	ಇಲ್ಲಿರುವ
-3.937538	ಇಳಿಜಾರಿನಲ್ಲಿ
-4.335478	ಇಳಿದರೆ
-4.335478	ಇಳಿದಿರುವುದನ್ನು
-4.159387	ಇಳಿದು
-4.335478	ಇಳಿಮುಖವಾಯಿತಷ್ಟೇ
-4.335478	ಇಳಿಯಬಹುದಾದ್ದರಿಂದ
-4.335478	ಇಳಿಯುತ್ತದೆ
-4.335478	ಇಳಿಯುತ್ತದೆಯೋ
-4.335478	ಇಳಿಯುವ
-4.335478	ಇಳಿಯುವಾಗ
-4.159387	ಇಳಿಸುವ
-3.858357	ಇವಕ್ಕೆ
-3.432388	ಇವನ
-4.159387	ಇವನಿಂದಲೇ
-4.159387	ಇವನಿಗೆ
-3.18935	ಇವನು
-3.636508	ಇವನ್ನು
-4.335478	ಇವನ್ನೆಲ್ಲಾ
-3.79141	ಇವರ
-4.335478	ಇವರದಾಗಿತ್ತು
-4.335478	ಇವರನ್ನು
-4.335478	ಇವರಿಂದ
-4.159387	ಇವರಿಗೂ
-3.79141	ಇವರಿಗೆ
-3.294085	ಇವರು
-4.335478	ಇವರೆಲ್ಲರೂ
-3.117994	ಇವು
-3.381235	ಇವುಗಳ
-4.335478	ಇವುಗಳಂಥ
-3.460417	ಇವುಗಳನ್ನು
-4.159387	ಇವುಗಳಲೆಲ್ಲ
-4.335478	ಇವುಗಳಲ್ಲದೆ
-3.557327	ಇವುಗಳಲ್ಲಿ
-4.335478	ಇವುಗಳಿಂದ
-4.335478	ಇವುಗಳಿಗೆ
-3.937538	ಇವುಗಳು
-3.636508	ಇವೆ
-4.335478	ಇವೆರಡನ್ನೂ
-4.335478	ಇವೆರಡರಲ್ಲಿ
-4.159387	ಇವೆರಡೂ
-3.937538	ಇವೆಲ್ಲ
-4.159387	ಇವೇ
-4.335478	ಇಷ್ಟವಿರುವುದಿಲ್ಲ
-4.335478	ಇಷ್ಟಾನುಸಾರವಾಗಿ
-4.335478	ಇಷ್ಟಾರ್ಥಗಳನ್ನು
-4.335478	ಇಷ್ಟು
-1.933217	ಈ
-3.381235	ಈಗ
-4.335478	ಈಗಾಗಲೇ
-3.682266	ಈಗಿನ
-3.858357	ಈಗಿರುವ
-4.159387	ಈಚೆಗೆ
-4.159387	ಈಜಿಪ್ಟಿನವರು
-4.159387	ಈಡಾಗಬಹುದು
-4.159387	ಈಡಾದ
-3.682266	ಈತ
-3.858357	ಈಪಾಕ್ಸಿ
-4.034448	ಈಶಾನ್ಯಕ್ಕೆ
-4.335478	ಈಶಾನ್ಯದಿಂದ
-4.335478	ಈಶ್ವರವಾದಿಗಳು
-4.335478	ಈಸಾಡ
-4.335478	ಈಸ್ಟ್
-4.335478	ಉಂಟಾಗಬಹುದಾದ
-4.335478	ಉಂಟಾಗಿ
-4.159387	ಉಂಟಾಗಿತ್ತು
-3.858357	ಉಂಟಾಗುತ್ತದೆ
-4.335478	ಉಂಟಾಗುತ್ತಿದ್ದ
-3.937538	ಉಂಟಾಗುವ
-4.335478	ಉಂಟಾಗುವುದು
-3.858357	ಉಂಟಾದ
-4.034448	ಉಂಟಾದರೆ
-4.335478	ಉಂಟಾದಲ್ಲಿ
-4.335478	ಉಂಟಾಯಿತು
-3.79141	ಉಂಟು
-4.335478	ಉಂಟುಮಾಡಿ
-4.335478	ಉಂಟುಮಾಡುತ್ತವೆ
-3.79141	ಉಂಟುಮಾಡುವ
-4.335478	ಉಕ್ಕಬಹುದು
-4.159387	ಉಕ್ಕಿನ
-4.335478	ಉಕ್ಕು
-4.159387	ಉಗಮ
-4.159387	ಉಗಮಕ್ಕೆ
-4.335478	ಉಗಮವಾದುವು
-4.159387	ಉಗುರುಗಳವರೆಗೆ
-4.159387	ಉಗ್ಗೇಹಳ್ಳಿಯಲ್ಲಿ
-4.335478	ಉಗ್ರ
-4.335478	ಉಗ್ರರೂಪ
-4.335478	ಉಜ್ಜಿ
-4.335478	ಉಜ್ಜಿದರೆ
-4.335478	ಉಡಾಯಿಸಲಾಯಿತು
-3.937538	ಉಡಾವಣೆ
-4.335478	ಉಡಾವಣೆಗೆ
-4.335478	ಉಡುತ್ತಾರೆ
-4.335478	ಉಡುಪುಗಳ
-4.159387	ಉಣ್ಣೆ
-3.357754	ಉತ್ತಮ
-4.159387	ಉತ್ತಮಗೊಳಿಸುವ
-4.335478	ಉತ್ತಮಪಡಿಸಲೂ
-4.335478	ಉತ್ತಮಪಡಿಸುತ್ತವೆ
-4.159387	ಉತ್ತಮವಾಗಿದೆ
-4.159387	ಉತ್ತಮವಾಗಿದ್ದು
-4.159387	ಉತ್ತಮವಾದ
-3.557327	ಉತ್ತರ
-3.858357	ಉತ್ತರಕ್ಕೆ
-4.159387	ಉತ್ತರದ
-4.335478	ಉತ್ತರಪ್ರದೇಶದಲ್ಲಿ
-4.159387	ಉತ್ತರವನ್ನು
-4.159387	ಉತ್ತೇಜನ
-4.335478	ಉತ್ತೇಜನಕಾರಿ
-4.159387	ಉತ್ತೇಜನಗೊಳಿಸಿದರೆ
-4.335478	ಉತ್ತೇಜಿತಗೊಂಡು
-4.335478	ಉತ್ತೇಜಿಸುತ್ತವೆ
-4.335478	ಉತ್ತೇಜಿಸುವುದು
-3.937538	ಉತ್ಪತ್ತಿ
-4.159387	ಉತ್ಪತ್ತಿಯ
-4.335478	ಉತ್ಪತ್ತಿಯನ್ನಾಗಲೀ
-4.335478	ಉತ್ಪತ್ತಿಯಾಗದೆ
-4.159387	ಉತ್ಪತ್ತಿಯಾಗಿ
-4.335478	ಉತ್ಪತ್ತಿಯಾಗುವ
-3.937538	ಉತ್ಪನ್ನ
-4.335478	ಉತ್ಪನ್ನಗಳ
-4.335478	ಉತ್ಪನ್ನಗಳು
-3.937538	ಉತ್ಪನ್ನದ
-4.335478	ಉತ್ಪನ್ನದಲ್ಲಿ
-4.335478	ಉತ್ಪಾದಕ
-4.159387	ಉತ್ಪಾದಕಗಳ
-4.159387	ಉತ್ಪಾದಕರ
-3.460417	ಉತ್ಪಾದನಾ
-4.034448	ಉತ್ಪಾದನೀಯ
-3.733418	ಉತ್ಪಾದನೆ
-4.335478	ಉತ್ಪಾದನೆಗೆ
-3.937538	ಉತ್ಪಾದನೆಯ
-4.335478	ಉತ್ಪಾದನೆಯನ್ನಾಗಿ
-4.159387	ಉತ್ಪಾದನೆಯನ್ನು
-3.937538	ಉತ್ಪಾದಿಸಲು
-4.159387	ಉತ್ಪಾದಿಸಿ
-4.159387	ಉತ್ಪಾದಿಸಿದ
-4.335478	ಉತ್ಪಾದಿಸಿದವರಿಗೆ
-4.335478	ಉತ್ಪಾದಿಸುತ್ತದೆ
-4.335478	ಉತ್ಪಾದಿಸುವ
-4.335478	ಉತ್ಪಾದಿಸುವಲ್ಲಿ
-4.335478	ಉದಕ
-4.335478	ಉದಕಗಳ
-4.335478	ಉದಕಗಳಿಂದಲು
-4.159387	ಉದಯವಾಯಿತು
-4.335478	ಉದಯಿಸಿತು
-4.159387	ಉದಾತ್ತನಾಗಿ
-4.335478	ಉದಾಹರಣೆಗಳನ್ನು
-4.335478	ಉದಾಹರಣೆಗಳಾಗಿ
-4.335478	ಉದಾಹರಣೆಗಳಿವೆ
-4.159387	ಉದಾಹರಣೆಗಳು
-4.159387	ಉದಾಹರಣೆಗಳೆಂದರೆ
-4.159387	ಉದಾಹರಣೆಗಾಗಿ
-3.682266	ಉದಾಹರಣೆಗೆ
-4.335478	ಉದಾಹರಣೆಗೆಳು
-4.335478	ಉದಾಹರಣೆಯನ್ನು
-4.335478	ಉದಾಹರಣೆಯಾಗಿದೆ
-4.335478	ಉದುರಿಹೋಗಿ
-4.335478	ಉದುರುವ
-4.159387	ಉದುರುವುದಕ್ಕಿಂತ
-4.335478	ಉದ್ದ
-3.937538	ಉದ್ದಕ್ಕೂ
-3.937538	ಉದ್ದದ
-4.335478	ಉದ್ದನೆಯ
-4.335478	ಉದ್ದಿಮೆ
-3.858357	ಉದ್ದೇಶ
-4.034448	ಉದ್ದೇಶಗಳನ್ನು
-4.159387	ಉದ್ದೇಶಗಳಿಗಾಗಿ
-4.159387	ಉದ್ದೇಶಗಳಿಗೆ
-4.159387	ಉದ್ದೇಶಗಳು
-4.034448	ಉದ್ದೇಶದ
-4.335478	ಉದ್ದೇಶದಿಂದ
-4.159387	ಉದ್ದೇಶಪೂರ್ವತ
-4.159387	ಉದ್ದೇಶವನ್ನು
-4.335478	ಉದ್ದೇಶವಾಗಿದೆ
-4.159387	ಉದ್ದೇಶವಿರುತ್ತದೆ
-4.335478	ಉದ್ದೇಶವೆಂದರೆ
-3.937538	ಉದ್ದೇಶಿತ
-4.335478	ಉದ್ದೇಶಿಸುವಂತೆ
-4.335478	ಉದ್ಭವಿಸಬಹುದು
-4.335478	ಉದ್ಭವಿಸಿದ
-4.335478	ಉದ್ಭವಿಸಿದವು
-4.335478	ಉದ್ಭವಿಸಿದುವು
-4.335478	ಉದ್ಭವಿಸಿರುವ
-4.159387	ಉದ್ಭವಿಸುತ್ತದೆ
-4.335478	ಉದ್ಭವಿಸುವ
-3.937538	ಉದ್ಯಮ
-4.335478	ಉದ್ಯಮಗಳ
-4.335478	ಉದ್ಯಮಗಳನ್ನು
-3.79141	ಉದ್ಯಮಗಳಿಗೆ
-4.034448	ಉದ್ಯಮಗಳು
-4.159387	ಉದ್ಯಮದಲ್ಲಿ
-4.335478	ಉದ್ಯಮದಲ್ಲಿಯಾಗಲೀ
-4.335478	ಉದ್ಯಮವು
-4.034448	ಉದ್ಯಮಿಗಳ
-3.79141	ಉದ್ಯಮಿಗಳು
-4.335478	ಉದ್ಯಮಿಗಳೆಂದು
-4.335478	ಉದ್ಯಾನವನ
-4.034448	ಉದ್ಯೋಗದ
-3.937538	ಉದ್ಯೋಗವಾಗಿದೆ
-4.159387	ಉದ್ಯೋಗವೇ
-4.159387	ಉದ್ರಿಕ್ತಸ್ವಭಾವವನ್ನಾಗಲಿ
-3.733418	ಉನ್ನತ
-4.159387	ಉನ್ನತಮಟ್ಟದ
-4.159387	ಉನ್ನತಿಗೆ
-4.159387	ಉಪ
-4.159387	ಉಪಕರಣಗಳ
-4.335478	ಉಪಕರಣಗಳನ್ನು
-4.335478	ಉಪಕ್ರಮದ
-4.159387	ಉಪಗ್ರಹ
-4.335478	ಉಪಗ್ರಹದ
-4.159387	ಉಪಚರಿಸುವುದು
-4.335478	ಉಪಚಾರ
-4.159387	ಉಪದೇಶಿಸಿದ
-4.335478	ಉಪನಿಷತ್ತಿನಲ್ಲಿ
-4.335478	ಉಪನಿಷತ್ತುಗಳಲ್ಲಿ
-4.159387	ಉಪಪನ್ನವಾಗುತ್ತದೆ
-4.335478	ಉಪಫಲಗಳಿಂದ
-3.682266	ಉಪಯುಕ್ತ
-4.335478	ಉಪಯುಕ್ತತೆ
-4.159387	ಉಪಯುಕ್ತತೆಯು
-4.335478	ಉಪಯುಕ್ತವಾಗಿ
-4.159387	ಉಪಯುಕ್ತವಾಗಿದೆ
-4.335478	ಉಪಯುಕ್ತವಾಗಿವೆ
-3.937538	ಉಪಯುಕ್ತವಾದ
-4.159387	ಉಪಯುಕ್ತವಾದುವಲ್ಲ
-4.335478	ಉಪಯುಕ್ತವೋ
-3.937538	ಉಪಯೋಗ
-4.159387	ಉಪಯೋಗದ
-4.159387	ಉಪಯೋಗವಾಗಬಹುದು
-4.335478	ಉಪಯೋಗವಾಗುತ್ತದೆ
-4.335478	ಉಪಯೋಗವಾಗುವುದಕ್ಕೆ
-4.335478	ಉಪಯೋಗವು
-4.335478	ಉಪಯೋಗವುಂಟು
-4.335478	ಉಪಯೋಗಿ
-4.335478	ಉಪಯೋಗಿಸದಂತೆ
-4.335478	ಉಪಯೋಗಿಸಬಹುದು
-4.159387	ಉಪಯೋಗಿಸಲಾಗಿದೆ
-4.159387	ಉಪಯೋಗಿಸಲಾಗಿದ್ದು
-3.79141	ಉಪಯೋಗಿಸಲಾಗುತ್ತದೆ
-4.335478	ಉಪಯೋಗಿಸಲಾಗುತ್ತಿದೆ
-4.335478	ಉಪಯೋಗಿಸಲಾಗುವುದು
-4.335478	ಉಪಯೋಗಿಸಲಾದ
-4.335478	ಉಪಯೋಗಿಸಲು
-4.335478	ಉಪಯೋಗಿಸಿ
-4.159387	ಉಪಯೋಗಿಸಿಕೊಂಡು
-4.335478	ಉಪಯೋಗಿಸಿಕೊಳ್ಳಲು
-4.159387	ಉಪಯೋಗಿಸಿದರೆ
-4.159387	ಉಪಯೋಗಿಸಿದಲ್ಲಿ
-4.335478	ಉಪಯೋಗಿಸಿದ್ದಾರೆ
-3.406059	ಉಪಯೋಗಿಸುತ್ತಾರೆ
-4.159387	ಉಪಯೋಗಿಸುತ್ತಿದ್ದನು
-4.034448	ಉಪಯೋಗಿಸುವ
-4.335478	ಉಪಯೋಗಿಸುವಲ್ಲಿ
-4.159387	ಉಪಸಂಸ್ಥೆ
-4.335478	ಉಪಸ್ಥಿತವಾಗಿವೆ
-4.159387	ಉಪಸ್ಥಿತಿಯು
-4.335478	ಉಪಾಂತ
-4.335478	ಉಪಾಧ್ಯಕ್ಷ
-4.335478	ಉಪೋತ್ಪನ್ನಗಳು
-4.335478	ಉಪ್ಪಾಗಿಸುತ್ತದೆ
-4.034448	ಉಪ್ಪು
-4.335478	ಉರಿಸುವುದಕ್ಕೆ
-4.335478	ಉರುಳಬಹುದು
-4.335478	ಉಲ್ಕಾಭಗಳು
-4.335478	ಉಲ್ಕಾಶಿಲೆಗಳ
-4.335478	ಉಲ್ಬಣಗಳಿಂದ
-4.335478	ಉಲ್ಬಣಗೊಳ್ಳುತ್ತದೆ
-4.335478	ಉಲ್ಲಂಘಿಸದಂತೆ
-4.034448	ಉಲ್ಲಘಿಂಸಿದರೆ
-4.335478	ಉಲ್ಲೆಖಿಸುತ್ತಾರೆ
-3.937538	ಉಲ್ಲೇಖ
-4.335478	ಉಲ್ಲೇಖವನ್ನು
-4.335478	ಉಲ್ಲೇಖಿತ
-4.159387	ಉಲ್ಲೇಖಿತವಾಗಿರುವ
-4.335478	ಉಲ್ಲೇಖಿಸಲಾಗುತ್ತದೆ
-4.335478	ಉಲ್ಲೇಖಿಸಲಾಗುತ್ತದೆಇದು
-4.159387	ಉಲ್ಲೇಖಿಸುತ್ತಾರೆ
-4.159387	ಉಳಿತಾಯದ
-4.335478	ಉಳಿತಾಯವು
-3.733418	ಉಳಿದ
-4.159387	ಉಳಿದವ
-4.335478	ಉಳಿದವುಗಳೆಂದರೆ
-4.335478	ಉಳಿದಿದ್ದಲ್ಲಿ
-4.159387	ಉಳಿದಿರುವ
-4.159387	ಉಳಿದಿರುವುದರಿಂದ
-4.335478	ಉಳಿದು
-4.335478	ಉಳಿದುಕೊಳ್ಳುತ್ತದೆ
-4.335478	ಉಳಿದುಕೊಳ್ಳುತ್ತವೆ
-4.335478	ಉಳಿಯಲಿಲ್ಲ
-4.159387	ಉಳಿಸಲು
-4.159387	ಉಳಿಸಿಕೊಳ್ಳುವ
-4.335478	ಉಳಿಸಿಕೊಳ್ಳುವುದಿಲ್ಲ
-4.335478	ಉಳ್ಳ
-3.937538	ಉಷ್ಣತೆ
-3.522565	ಉಷ್ಣತೆಯ
-4.159387	ಉಷ್ಣತೆಯನ್ನಾಗಲಿ
-4.159387	ಉಷ್ಣತೆಯಿಂದ
-4.335478	ಉಷ್ಣವಾದ
-4.335478	ಉಷ್ಣಶಕ್ತಿಯು
-4.034448	ಉಷ್ಣಾಂಶ
-4.335478	ಉಷ್ಣಾಂಶದ
-4.159387	ಉಷ್ಣಾಂಶದಲ್ಲಿ
-4.159387	ಉಸಿರಾಟದ
-4.335478	ಉಸಿರಿನ
-4.335478	ಊಟ
-4.159387	ಊಟದ
-4.159387	ಊರಿನ
-4.335478	ಊರಿನಲ್ಲಿ
-4.335478	ಊರಿನವರನ್ನು
-4.335478	ಊರಿನವರಲ್ಲದೆ
-4.335478	ಊರುಗಳಿಗೆ
-4.335478	ಊರ್ಜಿತಗೊಳಿಸಬಹುದಾಗಿದೆ
-4.335478	ಊರ್ಜಿತಗೊಳಿಸುವ
-4.159387	ಊರ್ಜಿತಗೊಳಿಸುವಿಕೆಯ
-4.159387	ಊಹಿಸಬಹುದು
-4.335478	ಊಹಿಸಲಾಗಿದೆ
-4.335478	ಋಗ್ವೇದಕ್ಕಿಂತಲೂ
-4.335478	ಋಣಾತ್ಮಕ
-3.858357	ಋತುವಿನ
-4.159387	ಋತುವಿನಲ್ಲಿ
-4.159387	ಎ
-4.335478	ಎಂಗೆಲ್ಸ್
-4.159387	ಎಂಜಿನಿಯರಿಂಗ್
-4.335478	ಎಂಜಿನಿಯರ್
-4.159387	ಎಂಜಿನ್
-4.335478	ಎಂಟರಲ್ಲಿ
-4.335478	ಎಂಟಿಯು
-3.858357	ಎಂಟು
-4.034448	ಎಂಟುನೂರು
-4.034448	ಎಂಟ್ನೂರು
-4.335478	ಎಂಡೊಥೆಲಿಯಲ್
-3.49038	ಎಂದರೆ
-4.335478	ಎಂದರ್ಥ
-4.335478	ಎಂದಿದೆ
-2.744413	ಎಂದು
-3.595115	ಎಂದೂ
-3.858357	ಎಂದೇ
-2.96441	ಎಂಬ
-4.335478	ಎಂಬತೈದು
-4.335478	ಎಂಬತ್ತ
-4.335478	ಎಂಬತ್ತಾರು
-4.034448	ಎಂಬತ್ತು
-4.159387	ಎಂಬತ್ತೆಂಟರಲ್ಲಿ
-3.937538	ಎಂಬಲ್ಲಿ
-4.335478	ಎಂಬುದಕ್ಕೆ
-3.49038	ಎಂಬುದನ್ನು
-4.034448	ಎಂಬುದರ
-3.49038	ಎಂಬುದು
-4.335478	ಎಂಬುದೂ
-4.335478	ಎಂಬುದೊಂದು
-4.159387	ಎಂಬುವವರು
-4.335478	ಎಂಬುವುದು
-4.335478	ಎಂಭತ್ತು
-4.335478	ಎಂಭತ್ತೈದು
-4.335478	ಎಂಭತ್ಮೂರರಲ್ಲಿ
-4.335478	ಎಕರೆಗಳಷ್ಟು
-4.335478	ಎಕ್ಸ್ಟ್ರಾನೆಟ್
-4.335478	ಎಕ್ಸ್‌ಪರಿಮೆಂಟ್
-4.335478	ಎಕ್ಸ್‌ಪ್ರೆಸ್
-4.159387	ಎಚ್ಚರ
-4.159387	ಎಚ್ಚರಿಕೆ
-4.159387	ಎಚ್ಚರಿಕೆಯ
-4.335478	ಎಚ್ಚರಿಕೆಯನ್ನು
-3.937538	ಎಚ್ಚರಿಕೆಯಿಂದ
-3.682266	ಎಡ
-3.937538	ಎಡಕ್ಕಿದೆ
-3.381235	ಎಡಕ್ಕೆ
-4.159387	ಎಡಗೈ
-4.159387	ಎಡದಲ್ಲಿ
-4.335478	ಎಡಬಲಗಳಲ್ಲಿ
-4.034448	ಎಡಭಾಗಕ್ಕೆ
-3.937538	ಎಡಭಾಗದಲ್ಲಿರುತ್ತದೆ
-4.335478	ಎಡೆಕೊಡುತ್ತವೆಯಾದರೂ
-4.335478	ಎಡೆಮಾಡಿಕೊಟ್ಟಿವೆ
-4.159387	ಎಣಿಕೆ
-4.335478	ಎಣಿಕೆಗಳು
-4.335478	ಎಣಿಸಲು
-3.79141	ಎಣ್ಣೆ
-4.335478	ಎಣ್ಣೆಯನ್ನು
-4.159387	ಎತ್ತರ
-4.159387	ಎತ್ತರಕ್ಕೆ
-3.858357	ಎತ್ತರದ
-4.034448	ಎತ್ತರದಲ್ಲಿ
-4.335478	ಎತ್ತರದಲ್ಲಿರುವ
-4.034448	ಎತ್ತರದಿಂದ
-3.733418	ಎತ್ತರವನ್ನು
-4.159387	ಎತ್ತರವಾದ
-4.159387	ಎತ್ತರವಿರುವ
-4.335478	ಎತ್ತಲು
-3.937538	ಎತ್ತಿದ
-4.335478	ಎತ್ತಿದರು
-4.335478	ಎತ್ತಿದಾಗ
-4.159387	ಎತ್ತಿಹಿಡಿದು
-4.335478	ಎದುರಾಗಿದೆ
-4.335478	ಎದುರಾಗುತ್ತಿದ್ದ
-4.159387	ಎದುರಾದಾಗ
-4.159387	ಎದುರಿಸಬೇಕಾಗುತ್ತದೆ
-4.159387	ಎದುರಿಸಬೇಕಾಯಿತು
-4.335478	ಎದುರಿಸಲು
-4.335478	ಎದುರಿಸುತ್ತಿರುವ
-4.034448	ಎದುರು
-4.335478	ಎದುರುಬದರಾಗಿ
-4.335478	ಎದುರುಬದುರಾಗಿ
-4.335478	ಎದುರುಬಿದ್ದು
-4.335478	ಎದ್ದು
-4.159387	ಎದ್ದುಬಂದು
-4.335478	ಎನಿಸಬಹುದುಇದರ
-4.335478	ಎನಿಸಿಕೊಂಡಿದೆ
-4.335478	ಎನ್ನಬಹುದು
-4.034448	ಎನ್ನಲಾಗುತ್ತದೆ
-4.159387	ಎನ್ನಲಾಯಿತು
-4.335478	ಎನ್ನಿಸಿಕೊಂಡಿದೆ
-4.335478	ಎನ್ನಿಸಿಕೊಂಡಿದ್ದಾರೆ
-4.159387	ಎನ್ನಿಸುತ್ತದೆ
-3.79141	ಎನ್ನುತ್ತಾರೆ
-3.858357	ಎನ್ನುತ್ತೇವೆ
-3.557327	ಎನ್ನುವ
-4.335478	ಎನ್ನುವರು
-4.335478	ಎನ್ನುವಷ್ಟು
-4.335478	ಎನ್ನುವುದನ್ನು
-3.937538	ಎನ್ನುವುದು
-4.034448	ಎಪ್ಪತ್ತು
-4.335478	ಎಪ್ಪತ್ತೆಂಟು
-4.335478	ಎಪ್ಪತ್ತೇಳ
-4.335478	ಎಪ್ಪತ್ತೈದರಲ್ಲಿ
-4.335478	ಎಪ್ಪತ್ತೊಂಬತ್ತರ
-4.335478	ಎರಡಕ್ಕಿಂತ
-4.159387	ಎರಡನೆ
-3.357754	ಎರಡನೆಯ
-4.159387	ಎರಡನೆಯದಾಗಿ
-4.335478	ಎರಡನೆಯದಾದ
-4.159387	ಎರಡನೆಯದು
-3.682266	ಎರಡನೇ
-3.858357	ಎರಡರ
-4.335478	ಎರಡರಿಂದ
-2.553723	ಎರಡು
-4.335478	ಎರಡುವರೆ
-4.159387	ಎರಡುಸಾವಿರದ
-3.595115	ಎರಡೂ
-4.335478	ಎರಡೋ
-4.335478	ಎರೆದು
-4.159387	ಎರೆಭೂಮಿ
-4.335478	ಎಲುಬಿನಿಂದಾದುದರಿಂದ
-4.335478	ಎಲೆ
-4.335478	ಎಲೆಕ್ಟ್ರೊಸ್ಪಿನ್ನಿಂಗ್
-4.159387	ಎಲೆಗಳ
-4.159387	ಎಲೆಗಳನ್ನು
-4.159387	ಎಲೆಗಳಲ್ಲಿ
-3.858357	ಎಲೆಗಳು
-4.335478	ಎಲೆಗೆ
-3.557327	ಎಲೆಯ
-4.034448	ಎಲ್
-3.09244	ಎಲ್ಲ
-4.335478	ಎಲ್ಲಕ್ಕೂ
-4.335478	ಎಲ್ಲದರಲ್ಲು
-4.335478	ಎಲ್ಲರಿಗೂ
-4.335478	ಎಲ್ಲರೂ
-4.335478	ಎಲ್ಲವನ್ನೂ
-3.937538	ಎಲ್ಲವೂ
-3.27478	ಎಲ್ಲಾ
-4.335478	ಎಲ್ಲಿ
-4.335478	ಎಲ್ಲೆಗೆರೆಗಳು
-4.335478	ಎಲ್ಲೆಡೆ
-4.034448	ಎಳೆಗಳನ್ನು
-4.335478	ಎಳೆಗಳಿರಬಹುದು
-4.159387	ಎಳೆತದಿಂದಾಗಿ
-4.335478	ಎಳೆತವನ್ನು
-4.159387	ಎಳೆಯಲಾಗುವುದಿಲ್ಲ
-4.335478	ಎಳೆಯುವಂತಹ
-4.159387	ಎಳೆಯುವುದನ್ನು
-4.159387	ಎಷ್ಟರಮಟ್ಟಿಗೆ
-4.159387	ಎಷ್ಟು
-4.335478	ಎಷ್ಟೊವೇಳೆ
-4.159387	ಎಷ್ಟೋ
-4.159387	ಎಸೆದರು
-3.682266	ಎಸ್
-4.034448	ಎಸ್ಟರ್
-3.937538	ಏಕ
-4.335478	ಏಕಕಾಲದಲ್ಲಿ
-4.335478	ಏಕಕೇಂದ್ರೀಯ
-4.335478	ಏಕಕೇಂದ್ರೀಯಪದರಗಳಿಲ್ಲದ
-4.335478	ಏಕದಿನದ
-4.335478	ಏಕಪ್ರಕಾರದ
-4.335478	ಏಕಮಾತ್ರ
-4.159387	ಏಕಮಾನ
-4.335478	ಏಕಮುಖ
-4.335478	ಏಕಲಿಂಗಳಾಗಿರುವುದು
-4.335478	ಏಕಶಿಲೆಗಳಾಗಿ
-4.335478	ಏಕಸ್ವಾಮ್ಯವುಳ್ಳ
-4.335478	ಏಕೀಕರಿಸಿ
-3.357754	ಏಕೆಂದರೆ
-4.159387	ಏಕೈಕ
-4.335478	ಏಕೋತ್ತರಶತಸ್ಥಲ
-4.335478	ಏಕೋತ್ತರಾಗಮ
-4.335478	ಏಜೆನ್ಸಿಗಳಿಗೆ
-4.335478	ಏಜೆನ್ಸಿಗಳು
-4.034448	ಏನನ್ನು
-4.034448	ಏನಾದರಾಗಲಿ
-3.858357	ಏನು
-3.937538	ಏನೂ
-4.335478	ಏನೆಂದರೆ
-4.335478	ಏನೇನೂ
-4.335478	ಏಪ್ರಿಲ್
-4.335478	ಏರಿಕೆ
-4.335478	ಏರಿದವು
-4.335478	ಏರಿಳಿತದ
-4.159387	ಏರಿಸಬೇಕಾಗುತ್ತದೆ
-4.335478	ಏರಿಸಲಾಗುತ್ತದೆ
-4.159387	ಏರಿಸುವುದರ
-4.335478	ಏರುಪೇರುಗಳ
-4.335478	ಏರೋನಾಟಿಕ್ಸ್
-4.335478	ಏರೋಪ್ಲೇನ್
-4.159387	ಏರೋಸ್ಪೇಸ್
-4.159387	ಏರ್ಪಟ್ಟ
-4.335478	ಏರ್ಪಡಬಹುದು
-4.159387	ಏರ್ಪಡಿಸಿಕೊಂಡಂಥವು
-4.159387	ಏರ್ಪಡಿಸಿದ್ದ
-4.335478	ಏರ್ಪಾಟಾಗಿವೆ
-4.335478	ಏರ್ಪಾಟುಗಳನ್ನೂ
-4.034448	ಏರ್ಪಾಡಿಗೆ
-4.335478	ಏರ್ಪಾಡುಗಳು
-4.335478	ಏರ್ಲೈನರ್
-4.159387	ಏಲಕ್ಕಿ
-4.159387	ಏಳರ
-4.335478	ಏಳು
-4.335478	ಏಳುವುದಿಲ್ಲ
-4.335478	ಏಳ್ನೂರ
-4.034448	ಏಷ್ಯನ್
-4.335478	ಏಷ್ಯಾ
-4.335478	ಏಷ್ಯಾದಲ್ಲಿ
-3.858357	ಐ
-4.335478	ಐಚ್ಛಿಕವಾಗಿದ್ದು
-4.335478	ಐತಿಹಾಸಿಕ
-4.335478	ಐತಿಹಾಸಿಕವೆನ್ನಬಹುದಾದ
-4.335478	ಐತಿಹ್ಯಗಳಿಂದಲೂ
-4.034448	ಐದನೆಯ
-3.937538	ಐದನೇ
-4.335478	ಐದರ
-4.335478	ಐದರವರೆಗೆ
-4.335478	ಐದರಿಂದ
-3.595115	ಐದು
-4.335478	ಐದುನಿಮಿಷಗಳ
-4.335478	ಐದುನೂರು
-4.159387	ಐನೂರ
-3.595115	ಐನೂರು
-4.159387	ಐಪಿ
-4.335478	ಐರ್ಲ್ಯಾಂಡ್
-4.335478	ಐವತ್ತನಾಲ್ಕರ
-4.335478	ಐವತ್ತರಿಂದ
-3.406059	ಐವತ್ತು
-4.335478	ಐವತ್ತೆಂಟರಲ್ಲಿ
-4.335478	ಐಶಾರಾಮಿ
-4.335478	ಐಸಾಕ್
-4.335478	ಐಸಿಇಎಸ್
-4.034448	ಐಸ್
-4.335478	ಒ
-4.159387	ಒಂದಕ್ಕಿಂತ
-4.335478	ಒಂದಕ್ಕೊಂದರ
-3.937538	ಒಂದಕ್ಕೊಂದು
-3.79141	ಒಂದನೆಯ
-3.858357	ಒಂದನೇ
-4.159387	ಒಂದರ
-3.937538	ಒಂದರಂತೆ
-3.858357	ಒಂದರಿಂದ
-4.335478	ಒಂದರೊಡನೊಂದು
-4.159387	ಒಂದಷ್ಟು
-4.335478	ಒಂದಾಗಿದೆ
-4.335478	ಒಂದಾಗಿದೆಇದು
-4.335478	ಒಂದಾಗಿರುವ
-4.335478	ಒಂದಿಲ್ಲ
-4.335478	ಒಂದಿಲ್ಲೊಂದು
-2.200345	ಒಂದು
-4.159387	ಒಂದುಗೂಡಿಸಿ
-4.335478	ಒಂದುನೂರ
-4.159387	ಒಂದುನೂರು
-3.595115	ಒಂದೂವರೆ
-4.159387	ಒಂದೆಂದು
-4.335478	ಒಂದೆಡೆ
-4.335478	ಒಂದೆಡೆಯಲ್ಲಿ
-4.159387	ಒಂದೆರಡು
-3.105029	ಒಂದೇ
-4.034448	ಒಂದೊಂದರ
-3.557327	ಒಂದೊಂದು
-4.335478	ಒಂದೋ
-4.335478	ಒಂಬತ್ತನೇ
-4.159387	ಒಂಬತ್ತನ್ನು
-4.159387	ಒಂಬತ್ತರ
-3.937538	ಒಂಬತ್ತರವರೆಗಿನ
-3.858357	ಒಂಬತ್ತು
-3.49038	ಒಂಬೈನೂರ
-4.034448	ಒಂಬೈನೂರಾ
-4.159387	ಒಂಭತ್ತರ
-4.335478	ಒಂಭತ್ತು
-4.335478	ಒಂಭೈನೂರ
-4.159387	ಒಂಭೈನೂರಾ
-4.335478	ಒಕ್ಕೂಟ
-4.159387	ಒಕ್ಕೂಟಗಳು
-3.937538	ಒಕ್ಕೂಟದ
-4.335478	ಒಕ್ಕೂಟವನ್ನೇರ್ಪಡಿಸಿಕೊಂಡು
-4.335478	ಒಕ್ಕೂಟವಾಗಿರಬಹುದು
-4.159387	ಒಕ್ಕೂಟವು
-4.335478	ಒಕ್ಕೂಟವೂ
-4.034448	ಒಟ್ಟಾಗಿ
-4.335478	ಒಟ್ಟಾಗಿಯಾಗಲಿ
-4.335478	ಒಟ್ಟಾಭಿಪ್ರಾಯ
-4.159387	ಒಟ್ಟಾರೆ
-4.034448	ಒಟ್ಟಾರೆಯಾಗಿ
-4.159387	ಒಟ್ಟಿಗೆ
-4.159387	ಒಟ್ಟಿಗೇ
-3.79141	ಒಟ್ಟಿನಲ್ಲಿ
-3.79141	ಒಟ್ಟು
-4.159387	ಒಟ್ಟೊ
-4.034448	ಒಡಂಬಡಿಕೆಗಳು
-4.335478	ಒಡಂಬಡಿಕೆಮೂಲಕ
-4.335478	ಒಡತಿ
-4.335478	ಒಡಿಐಗಳನ್ನು
-4.335478	ಒಡ್ಡಲಾಗುತ್ತದೆ
-4.159387	ಒಡ್ಡುವುದರಿಂದ
-4.335478	ಒಣಗಿದ
-4.335478	ಒಣಗಿಸಿ
-4.335478	ಒಣಗಿಸಿದ
-4.034448	ಒಣಗಿಸುತ್ತಾರೆ
-4.335478	ಒಣಗಿಸುವ
-4.159387	ಒಣಗಿಹೋಗುತ್ತವೆ
-4.335478	ಒಣಹವೆ
-3.937538	ಒತ್ತಡ
-4.034448	ಒತ್ತಡಕ್ಕೆ
-4.034448	ಒತ್ತಡಕ್ಕೇರಿಸಲಾದ
-4.335478	ಒತ್ತಡಕ್ಕೊಳಪಡಿಸಿರುತ್ತಾರೆ
-4.335478	ಒತ್ತಡಗಳಿಗೆ
-4.335478	ಒತ್ತಡಗಳು
-4.159387	ಒತ್ತಡದ
-4.335478	ಒತ್ತಡದಿಂದ
-4.034448	ಒತ್ತಡವನ್ನು
-4.335478	ಒತ್ತಡವು
-4.159387	ಒತ್ತಿ
-4.335478	ಒತ್ತುತ್ತಾರೆ
-4.335478	ಒದಗಿರುವ
-4.335478	ಒದಗಿಸಬೇಕು
-3.937538	ಒದಗಿಸಲಾಗುತ್ತದೆ
-4.335478	ಒದಗಿಸಲಾದ
-4.159387	ಒದಗಿಸಿಕೊಳ್ಳಲು
-4.335478	ಒದಗಿಸಿದ
-4.335478	ಒದಗಿಸಿದರೂ
-4.159387	ಒದಗಿಸಿದೆ
-3.595115	ಒದಗಿಸುತ್ತದೆ
-3.858357	ಒದಗಿಸುತ್ತವೆ
-3.636508	ಒದಗಿಸುವ
-4.335478	ಒದಗಿಸುವಲ್ಲಿ
-4.159387	ಒದಗಿಸುವುದು
-4.034448	ಒದಗುತ್ತದೆ
-3.733418	ಒಪ್ಪಂದ
-4.159387	ಒಪ್ಪಂದಗಳ
-4.335478	ಒಪ್ಪಂದಗಳನ್ನು
-4.335478	ಒಪ್ಪಂದಗಳೂ
-3.79141	ಒಪ್ಪಂದದ
-4.335478	ಒಪ್ಪಂದವನ್ನು
-4.335478	ಒಪ್ಪಂದವೇ
-4.335478	ಒಪ್ಪದ
-4.159387	ಒಪ್ಪಬಹುದು
-4.335478	ಒಪ್ಪಲ್ಪಡುತ್ತವೆ
-4.335478	ಒಪ್ಪಿಗೆ
-4.335478	ಒಪ್ಪಿಗೆಯಿಲ್ಲದೆ
-4.159387	ಒಪ್ಪಿಸಿದ
-4.159387	ಒಪ್ಪಿಸುವ
-4.335478	ಒಪ್ಪುವಹಾಗಿಲ್ಲ
-4.159387	ಒಬಾಮ
-3.595115	ಒಬ್ಬ
-4.034448	ಒಬ್ಬನೇ
-4.335478	ಒಬ್ಬರ
-4.335478	ಒಬ್ಬೊಬ್ಬ
-4.335478	ಒಮ್ಮತದ
-4.034448	ಒಮ್ಮತವಿಲ್ಲ
-3.858357	ಒಮ್ಮೆ
-4.159387	ಒರಟು
-4.159387	ಒರಿಯನ್
-3.937538	ಒರಿಸ್ಸಾ
-4.335478	ಒಲಿಂಪಿಕ್ಸ್
-3.858357	ಒಳ
-4.159387	ಒಳಕೋಟೆ
-3.858357	ಒಳಕ್ಕೆ
-3.937538	ಒಳಗಡೆ
-4.335478	ಒಳಗಾಗದೇ
-4.335478	ಒಳಗಾಗಬೇಕಾಗುತ್ತವೆ
-4.335478	ಒಳಗಾಗಿ
-4.335478	ಒಳಗಾಗಿರುತ್ತದೆ
-3.858357	ಒಳಗಾಗುತ್ತದೆ
-4.335478	ಒಳಗಾಗುವುದಿಲ್ಲ
-4.159387	ಒಳಗಿನ
-3.858357	ಒಳಗಿರುವ
-4.034448	ಒಳಗೆ
-3.937538	ಒಳಗೊಂಡಂತೆ
-3.406059	ಒಳಗೊಂಡಿದೆ
-4.335478	ಒಳಗೊಂಡಿದೆಹಿರಿತನದ
-4.335478	ಒಳಗೊಂಡಿದ್ದಿತು
-4.335478	ಒಳಗೊಂಡಿರಬಹುದು
-4.034448	ಒಳಗೊಂಡಿರುತ್ತದೆ
-4.159387	ಒಳಗೊಂಡಿರುವ
-4.335478	ಒಳಗೊಂಡಿರುವುವೆಂದೂ
-4.335478	ಒಳಗೊಂಡಿಲ್ಲ
-4.335478	ಒಳಗೊಂಡಿವೆ
-4.034448	ಒಳಗೊಳ್ಳುತ್ತದೆ
-4.159387	ಒಳಚರ್ಮದಡಿಗೆ
-4.335478	ಒಳನಾಡಿನಲ್ಲಿ
-4.159387	ಒಳನೋಟದ
-4.335478	ಒಳಪಟ್ಟ
-4.335478	ಒಳಪಟ್ಟವು
-4.335478	ಒಳಪಟ್ಟಿದೆ
-4.335478	ಒಳಪಟ್ಟಿರುತ್ತದೆ
-4.335478	ಒಳಪಟ್ಟಿರುವ
-4.335478	ಒಳಪಟ್ಟಿವೆ
-4.159387	ಒಳಪಡಬೇಕಾಗುತ್ತದೆ
-4.159387	ಒಳಪಡಿಸಲಾಗಿರುತ್ತದೆ
-4.159387	ಒಳಪಡಿಸಲು
-4.335478	ಒಳಪಡಿಸುವ
-4.335478	ಒಳಪಡಿಸುವುದು
-4.159387	ಒಳಭಾಗದ
-4.335478	ಒಳಹರಿವಾಗಿದೆ
-4.335478	ಒಳಹರಿವು
-4.335478	ಒಳಿತಲ್ಲ
-4.159387	ಒಳಿತಿಗಾಗಿ
-4.159387	ಒಳ್ಳೆಯತನದಿಂದ
-4.335478	ಒಳ್ಳೆಯದಾಗಿ
-4.335478	ಒಳ್ಳೆಯದು
-4.159387	ಒಸಾಕ
-4.335478	ಓಂಗೆ
-4.159387	ಓಜಸ್ಸು
-4.335478	ಓಜಸ್ಸುಳ್ಳವನೂ
-4.335478	ಓಡಾಟ
-4.335478	ಓದಬಹುದು
-4.335478	ಓದುವ
-4.335478	ಓರಣವನ್ನು
-4.159387	ಓರ್ವ
-4.159387	ಔತಣಕೂಟದ
-4.335478	ಔದ್ಯೋಗಿಕ
-4.159387	ಔಪಚಾರಿಕ
-3.79141	ಔಷಧ
-4.335478	ಔಷಧಗಳನ್ನು
-4.159387	ಔಷಧಗಳು
-4.335478	ಔಷಧತಂತ್ರದಿಂದಲೇ
-4.034448	ಔಷಧಿ
-4.335478	ಔಷಧಿಗೆ
-4.159387	ಔಷಧಿಯನ್ನು
-4.159387	ಔಷಧೀಯ
-4.335478	ಕಂಕುಳಲ್ಲಿ
-4.159387	ಕಂಚಿನ
-4.159387	ಕಂಟಕವಾಯಿತಲ್ಲದೆ
-4.335478	ಕಂಟ್ರೋಲ್
-4.159387	ಕಂಡರಗಳೆಂದು
-4.034448	ಕಂಡು
-4.335478	ಕಂಡುಕೊಂಡು
-4.159387	ಕಂಡುಕೊಳ್ಳಬಹುದು
-4.335478	ಕಂಡುಕೊಳ್ಳಬೇಕಾದರೆ
-4.335478	ಕಂಡುಕೊಳ್ಳಲು
-4.335478	ಕಂಡುಬಂತು
-4.034448	ಕಂಡುಬಂದ
-4.335478	ಕಂಡುಬಂದರೆ
-4.335478	ಕಂಡುಬಂದವು
-4.034448	ಕಂಡುಬಂದಿತು
-4.159387	ಕಂಡುಬಂದಿತ್ತು
-4.034448	ಕಂಡುಬಂದಿದೆ
-4.335478	ಕಂಡುಬಂದಿಲ್ಲ
-4.335478	ಕಂಡುಬಂದಿವೆ
-4.335478	ಕಂಡುಬರಬಹುದು
-3.682266	ಕಂಡುಬರುತ್ತದೆ
-4.335478	ಕಂಡುಬರುತ್ತವೆ
-4.159387	ಕಂಡುಬರುತ್ತಿದ್ದು
-4.335478	ಕಂಡುಬರುತ್ತಿವೆ
-4.159387	ಕಂಡುಬರುವ
-4.335478	ಕಂಡುಬರುವುದು
-4.159387	ಕಂಡುಬರುವುದೋ
-4.335478	ಕಂಡುಹಿಡಿದವರೆಂದೂ
-4.335478	ಕಂಡುಹಿಡಿಯಬಹುದು
-4.159387	ಕಂತುಗಳ
-4.159387	ಕಂತುಗಳನ್ನು
-4.335478	ಕಂದರಗಳಿದ್ದಾಗ
-4.159387	ಕಂದಾಯ
-4.335478	ಕಂದಾಯವನ್ನು
-4.034448	ಕಂಪನ
-4.159387	ಕಂಪನಶೀಲ
-4.335478	ಕಂಪನಿಗಳ
-4.159387	ಕಂಪನಿಗಳಲ್ಲಿ
-3.733418	ಕಂಪನಿಗಳು
-4.335478	ಕಂಪನಿಯು
-4.335478	ಕಂಪಲ್ಸರಿ
-4.335478	ಕಂಪಿಸುತ್ತದೆ
-4.335478	ಕಂಪಿಸುವುವು
-4.335478	ಕಂಪೆನಿಗಳ
-4.159387	ಕಂಪೆನಿಗಳಿಗೆ
-4.335478	ಕಂಪೆನಿಗಳು
-4.159387	ಕಂಪೆನಿಯ
-3.937538	ಕಂಪ್ಯೂಟರ್
-4.159387	ಕಂಬಳಿಹುಳು
-3.937538	ಕಂಬಿಗಳನ್ನು
-4.159387	ಕಂಬೈನ್ಡ್
-4.159387	ಕಕ್ಷಗಳಲ್ಲಿ
-4.159387	ಕಕ್ಷಾ
-4.034448	ಕಕ್ಷಿದಾರರು
-3.682266	ಕಕ್ಷೆಯ
-3.937538	ಕಕ್ಷೆಯನ್ನು
-4.034448	ಕಕ್ಷೆಯಲ್ಲಿ
-4.335478	ಕಕ್ಷೆಯಲ್ಲಿನ
-4.159387	ಕಕ್ಷೆಯಲ್ಲಿರುವ
-4.159387	ಕಕ್ಷೆಯಲ್ಲಿವೆ
-4.335478	ಕಕ್ಷೆಯು
-4.335478	ಕಕ್ಷೆಯೊಳಗೆ
-4.335478	ಕಚೇರಿಗಳಲ್ಲೂ
-4.335478	ಕಚೇರಿಗಳಿಗೆ
-4.335478	ಕಚೇರಿಯಿಂದ
-4.335478	ಕಚ್ಚಾ
-4.159387	ಕಛ್
-4.335478	ಕಟ್ಟಡಗಳ
-4.335478	ಕಟ್ಟಡದ
-4.159387	ಕಟ್ಟಬೇಕು
-4.159387	ಕಟ್ಟಲಾಗಿರುತ್ತದೆ
-4.335478	ಕಟ್ಟಲಾಗಿರುವ
-4.335478	ಕಟ್ಟಿ
-4.335478	ಕಟ್ಟಿಕೊಳ್ಳುತ್ತ
-4.335478	ಕಟ್ಟಿನ
-4.335478	ಕಟ್ಟಿಸಿದನೆಂದು
-4.335478	ಕಟ್ಟುಗಳ
-4.335478	ಕಟ್ಟುತ್ತಾರೆ
-4.335478	ಕಟ್ಟುನಿಟ್ಟಾಗಿ
-4.159387	ಕಟ್ಟುನಿಟ್ಟುಗಳಿಂದ
-4.335478	ಕಟ್ಟುಪಾಡುಗಳನ್ನು
-4.335478	ಕಟ್ಟುವ
-4.034448	ಕಠಿಣ
-4.335478	ಕಠಿಣತೆಗಳು
-4.335478	ಕಡಿದಾಗುತ್ತದೆ
-4.335478	ಕಡಿದಾದ
-3.068306	ಕಡಿಮೆ
-4.335478	ಕಡಿಮೆಯಾಗಿ
-4.159387	ಕಡಿಮೆಯಾಗಿತ್ತು
-4.335478	ಕಡಿಮೆಯಾಗಿದೆ
-4.159387	ಕಡಿಮೆಯಾಗಿರುತ್ತದೆ
-4.335478	ಕಡಿಮೆಯಾಗಿರುತ್ತದೆಯೋ
-4.159387	ಕಡಿಮೆಯಾಗುತ್ತ
-3.937538	ಕಡಿಮೆಯಾಗುತ್ತದೆ
-4.159387	ಕಡಿಮೆಯಾಗುತ್ತಿದೆ
-4.335478	ಕಡಿಮೆಯಾಗುವುದನ್ನು
-4.335478	ಕಡಿಮೆಯಾದರೂ
-4.335478	ಕಡಿಮೆಯಾದಷ್ಟೂ
-4.159387	ಕಡಿಮೆಯಾದ್ದರಿಂದ
-4.335478	ಕಡಿಮೆವೆಚ್ಚದಲ್ಲಿ
-4.335478	ಕಡು
-3.733418	ಕಡೆ
-4.335478	ಕಡೆಗಣಿಸಿ
-4.159387	ಕಡೆಗಳಲ್ಲಿ
-4.335478	ಕಡೆಗಿದೆ
-4.335478	ಕಡೆಗೂ
-3.557327	ಕಡೆಗೆ
-3.937538	ಕಡೆಯ
-4.159387	ಕಡೆಯಲ್ಲಿ
-4.159387	ಕಡೆಯಿಂದ
-4.335478	ಕಡ್ಡಾಯ
-4.335478	ಕಡ್ಡಾಯವಾಗಿ
-4.159387	ಕಣಗಳ
-4.335478	ಕಣಿವೆಯ
-4.159387	ಕಣ್ಣಿಗೆ
-4.335478	ಕಣ್ಣಿಗೆಕಟ್ಟುವಂತೆ
-4.159387	ಕಣ್ಣಿನಿಂದ
-4.335478	ಕಣ್ಮರೆಯಾಗುತ್ತಿವೆ
-4.335478	ಕತ್ತರಿ
-4.034448	ಕತ್ತರಿಸಿ
-4.159387	ಕತ್ತರಿಸಿದ
-4.335478	ಕತ್ತರಿಸುವುದು
-4.335478	ಕತ್ತಲಿನಲ್ಲಿ
-4.159387	ಕತ್ತಲಿರಬೇಕು
-4.335478	ಕತ್ತಲೆಯಂತಹ
-4.335478	ಕತ್ತಲೆಯನ್ನುಂಟು
-4.159387	ಕತ್ತಿ
-4.335478	ಕತ್ತಿನಲ್ಲಿರುವುವು
-4.159387	ಕಥನಗೀತೆಗಳಲ್ಲಿ
-4.335478	ಕಥಾನಕಗಳು
-4.159387	ಕಥಾನಾಯಕ
-4.335478	ಕಥೆ
-4.335478	ಕಥೆಯ
-4.159387	ಕಥೆಯಿದೆ
-4.159387	ಕನಿಷ್ಟ
-4.335478	ಕನಿಷ್ಠಪಕ್ಷ
-4.335478	ಕನಿಷ್ಠವಾಗಿ
-3.49038	ಕನ್ನಡ
-3.858357	ಕನ್ನಡದ
-4.159387	ಕನ್ನಡಿಯಂತಿರುವ
-4.159387	ಕಪಿಸೈನ್ಯದ
-4.335478	ಕಪ್ಪಕ್ಕೆ
-4.159387	ಕಪ್ಪು
-3.858357	ಕಪ್ಪೆಯ
-4.335478	ಕಬ್ಬಿಣ
-4.159387	ಕಬ್ಬಿಣದ
-4.335478	ಕಬ್ಬಿಣವನ್ನು
-4.335478	ಕಮಲಕ್ಕೆ
-3.937538	ಕಮಾಂಡರ್
-4.335478	ಕಮ್ಯೂನಿಸ್ಟ
-4.335478	ಕಮ್ಯೂನಿಸ್ಟರು
-4.335478	ಕಮ್ಯೂನಿಸ್ಟ್‌
-4.335478	ಕಮ್ಯೂನ್
-4.159387	ಕರಕುಶಲಕಲೆಯಾಗಿದೆ
-4.159387	ಕರಗಿ
-4.335478	ಕರಗಿದರೆ
-4.335478	ಕರಗುವ
-4.335478	ಕರಾವಳಿಗೆ
-4.159387	ಕರಾವಳಿಯ
-4.335478	ಕರಾವಳಿಯಲ್ಲಿ
-4.335478	ಕರಿ
-4.159387	ಕರುಳಿಗೆ
-4.159387	ಕರುಳಿನ
-4.335478	ಕರುಳಿನಲ್ಲಿರುವ
-4.335478	ಕರುಳಿನಿಂದ
-3.595115	ಕರೆ
-4.159387	ಕರೆಂಟ್
-4.335478	ಕರೆಕೇಂದ್ರಕ್ಕೆ
-4.335478	ಕರೆಗಳ
-4.034448	ಕರೆಗಳನ್ನು
-4.335478	ಕರೆಗಳು
-4.335478	ಕರೆತರುತ್ತದೆ
-4.335478	ಕರೆಯಬಹುದು
-3.858357	ಕರೆಯಲಾಗಿದೆ
-3.557327	ಕರೆಯಲಾಗುತ್ತದೆ
-4.159387	ಕರೆಯಲಾಗುವ
-4.159387	ಕರೆಯಲು
-4.335478	ಕರೆಯಲ್ಪಡುತ್ತವೆ
-4.335478	ಕರೆಯುತಿತ್ತು
-4.335478	ಕರೆಯುತ್ತದೆ
-3.49038	ಕರೆಯುತ್ತಾರೆ
-4.335478	ಕರೆಯುವರು
-4.335478	ಕರ್ತವ್ಯ
-4.159387	ಕರ್ತವ್ಯಗಳನ್ನು
-4.335478	ಕರ್ತವ್ಯವಾಗಿತ್ತು
-4.335478	ಕರ್ತ್ಯವ್ಯವನ್ನು
-3.79141	ಕರ್ನಾಟಕ
-4.335478	ಕರ್ನಾಟಕಗೋವಾ
-4.335478	ಕರ್ನಾಟಕದ
-4.034448	ಕರ್ಮ
-4.335478	ಕರ್ಮದ
-4.335478	ಕರ್ಮದಿಂದ
-4.335478	ಕಲಹಕ್ಕೆ
-4.159387	ಕಲಹಗಳ
-4.335478	ಕಲಹಗಳಿಂದ
-4.335478	ಕಲಾಕೃತಿಗಳನ್ನು
-4.159387	ಕಲಾತಂತ್ರವು
-4.335478	ಕಲಾವಿದರಿಗೆ
-3.937538	ಕಲಾವಿದರು
-4.335478	ಕಲಿತ
-4.335478	ಕಲಿತದ್ದನ್ನು
-4.335478	ಕಲಿತರು
-4.335478	ಕಲಿತಿರಬಹುದು
-4.335478	ಕಲಿಯಬಹುದು
-4.335478	ಕಲಿಯುವುದರಿಂದ
-4.159387	ಕಲುಷಿತಗೊಳಿಸಬಹುದು
-4.335478	ಕಲುಷಿತವಾಗಿದೆಯೆಂದು
-3.937538	ಕಲೆ
-4.335478	ಕಲೆಗಳಲ್ಲಿನ
-4.159387	ಕಲೆಗಾರಿಕೆಯ
-4.034448	ಕಲೆಯ
-3.937538	ಕಲೆಯನ್ನು
-4.335478	ಕಲೆಯಾಗಿದ್ದು
-4.159387	ಕಲೆಹಾಕಲಾಗುವುದು
-4.159387	ಕಲ್ಚರಲ್
-4.159387	ಕಲ್ಪನೆ
-4.335478	ಕಲ್ಪನೆಗಿಂತ
-4.335478	ಕಲ್ಪಿಸಲು
-4.335478	ಕಲ್ಪಿಸಿಕೊಂಡಿದ್ದರು
-4.335478	ಕಲ್ಪಿಸುತ್ತದೆ
-4.335478	ಕಲ್ಪಿಸುವುದು
-4.335478	ಕಲ್ಯಾಣಕ್ಕೆ
-4.335478	ಕಲ್ಲುಗಳನ್ನು
-4.335478	ಕಲ್ಲುಬಂಡೆಗಳ
-4.159387	ಕಳಚಿ
-4.159387	ಕಳಬೇಡ
-4.159387	ಕಳಿಸಲಾಗುತ್ತಿದೆ
-4.335478	ಕಳುಹಿಸಲಾಗುತ್ತದೆ
-4.034448	ಕಳುಹಿಸಲಾಯಿತು
-4.335478	ಕಳುಹಿಸಲು
-4.335478	ಕಳುಹಿಸುವ
-4.159387	ಕಳುಹಿಸುವುದು
-4.159387	ಕಳೆದುಕೊಂಡರೂ
-4.335478	ಕಳೆದುಕೊಂಡಿರಲೂಬಹುದು
-4.159387	ಕಳೆದುಕೊಳ್ಳುತ್ತವೆ
-4.159387	ಕಳೆದುಕೊಳ್ಳುತ್ತಿರುತ್ತದೆ
-4.159387	ಕಳೆದುಕೊಳ್ಳುವುದರಿಂದ
-3.682266	ಕಳೆದುಹೋಗಿದೆ
-4.335478	ಕಳೆಯಿರಿ
-4.335478	ಕಳೆಯುತ್ತದೆ
-4.335478	ಕವನ
-4.335478	ಕವಾಟವನ್ನು
-4.335478	ಕವಿ
-4.335478	ಕವಿದ
-4.335478	ಕಶೇರುಕಗಳಲ್ಲಿ
-3.937538	ಕಷ್ಟ
-4.335478	ಕಷ್ಟಕರ
-4.335478	ಕಷ್ಟಕರವಾಗಿದ್ದದನ್ನು
-4.335478	ಕಷ್ಟಕರವಾಗಿದ್ದುದನ್ನು
-4.159387	ಕಷ್ಟಪಡಬೇಕಾಗುತ್ತದೆ
-4.159387	ಕಷ್ಟವಾಗಿದೆ
-4.335478	ಕಷ್ಟವಾಗಿರುವ
-4.335478	ಕಷ್ಟವಾಗುತ್ತ
-4.335478	ಕಷ್ಟಸಾಧ್ಯ
-4.159387	ಕಸಬು
-4.159387	ಕಸಿ
-4.335478	ಕಾಂಕ್ರೀಟನ್ನು
-4.335478	ಕಾಂಕ್ರೀಟ್
-4.335478	ಕಾಂಗ್ರೆಸ್
-4.335478	ಕಾಂಟ್
-4.335478	ಕಾಂಡ
-3.937538	ಕಾಂಡದ
-4.159387	ಕಾಂಡದಿಂದ
-4.335478	ಕಾಂಡವನ್ನು
-4.335478	ಕಾಂತ
-4.335478	ಕಾಂತತ್ವ
-4.335478	ಕಾಂತಧ್ರುವ
-4.159387	ಕಾಂತೀಯ
-4.159387	ಕಾಂಪೋಸ್ಟ್
-4.335478	ಕಾಂಪ್ಲೆಕ್ಸ್‌
-3.858357	ಕಾಗದ
-4.034448	ಕಾಗದಗಳನ್ನು
-4.335478	ಕಾಗದಗಳಿಗೆ
-3.406059	ಕಾಗದದ
-4.335478	ಕಾಗದಪತ್ರಗಳ
-4.335478	ಕಾಗದಪೆಟ್ಟಿಗೆಗಳ
-4.335478	ಕಾಡಿಗೆರೋಗ
-4.335478	ಕಾಡಿನ
-4.335478	ಕಾಡುಗಳಲ್ಲಿ
-4.335478	ಕಾಡುಗಳಾಗಿರುವುದರಿಂದ
-4.159387	ಕಾಡುಗಳಿಂದ
-4.159387	ಕಾಡುಗಳಿವೆ
-4.159387	ಕಾಡುಪಕ್ಷಿಗಳ
-4.159387	ಕಾಣ
-4.159387	ಕಾಣಬರುವ
-3.79141	ಕಾಣಬಹುದು
-4.159387	ಕಾಣಿಸದು
-4.159387	ಕಾಣಿಸಲು
-4.159387	ಕಾಣಿಸಿಕೊಂಡವು
-4.335478	ಕಾಣಿಸಿಕೊಂಡು
-3.858357	ಕಾಣಿಸಿಕೊಳ್ಳುತ್ತದೆ
-4.159387	ಕಾಣಿಸಿಕೊಳ್ಳುತ್ತಾನೆ
-4.159387	ಕಾಣಿಸುತ್ತಾನೆ
-4.034448	ಕಾಣಿಸುವ
-3.858357	ಕಾಣುತ್ತದೆ
-4.034448	ಕಾಣುತ್ತವೆ
-4.335478	ಕಾಣುತ್ತೇವೆ
-4.335478	ಕಾಣುವ
-4.159387	ಕಾಣುವಂತೆ
-4.034448	ಕಾಣುವುದು
-4.335478	ಕಾತ್ಯಾಯಿನಿ
-4.034448	ಕಾದಂಬರಿ
-4.335478	ಕಾದಂಬರಿಕಾರ
-4.159387	ಕಾದಂಬರಿಗಾರ
-4.034448	ಕಾದಂಬರಿಯ
-4.159387	ಕಾದಂಬರಿಯು
-4.159387	ಕಾದಾಟಕ್ಕೆ
-4.335478	ಕಾದಾಟವನ್ನು
-3.937538	ಕಾನಿಷ್ಕನ
-4.034448	ಕಾನೂನಿಗೆ
-4.159387	ಕಾನೂನಿನ
-3.49038	ಕಾನೂನು
-4.335478	ಕಾನೂನುಗಳ
-4.335478	ಕಾನೂನುಬಾಹಿರವಾದದ್ದು
-4.335478	ಕಾನ್ಪುರ್
-4.159387	ಕಾನ್ಸ್ಟಲೇಷನ್
-3.937538	ಕಾಪಾಡಲು
-4.335478	ಕಾಪಾಡಿ
-4.159387	ಕಾಪಾಡಿಕೊಂಡು
-4.159387	ಕಾಫಿ
-4.335478	ಕಾಮ
-4.159387	ಕಾಮನ್
-4.335478	ಕಾಮೆಟ್
-3.682266	ಕಾಯಂ
-4.335478	ಕಾಯಗಳ
-4.335478	ಕಾಯಗಳು
-4.159387	ಕಾಯನ್ನು
-4.335478	ಕಾಯಬೇಕಾಯಿತು
-4.159387	ಕಾಯಬೇಕಿಲ್ಲ
-4.335478	ಕಾಯಿಗಳಿಗಾಗಿ
-3.937538	ಕಾಯಿದೆ
-4.335478	ಕಾಯಿದೆಗೆ
-4.159387	ಕಾಯಿದೆಯ
-4.335478	ಕಾಯಿಪಲ್ಯ
-4.034448	ಕಾಯಿಯ
-4.159387	ಕಾಯಿಯನ್ನು
-4.159387	ಕಾಯಿಲೆ
-4.159387	ಕಾಯಿಲೆಗಳ
-4.335478	ಕಾಯಿಸಿ
-4.335478	ಕಾಯಿಸಿದರೂ
-4.159387	ಕಾಯಿಸಿದರೆ
-4.335478	ಕಾಯುತ್ತವೆ
-4.335478	ಕಾಯ್ದುಕೊಂಡಿದ್ದವು
-4.335478	ಕಾರ
-3.460417	ಕಾರಣ
-4.335478	ಕಾರಣಕರ್ತರಾದರು
-4.159387	ಕಾರಣಗಳಿಂದಾಗಿ
-4.159387	ಕಾರಣಗಳಿಗಾಗಿ
-4.335478	ಕಾರಣಗಳಿವೆ
-4.159387	ಕಾರಣಗಳೇನೇ
-3.733418	ಕಾರಣದಿಂದ
-4.335478	ಕಾರಣದಿಂದಲೇ
-4.159387	ಕಾರಣದಿಂದಾಗಿ
-4.335478	ಕಾರಣದಿಂದಾದ
-4.335478	ಕಾರಣವನ್ನು
-4.335478	ಕಾರಣವಾಗಿ
-3.682266	ಕಾರಣವಾಗಿದೆ
-4.335478	ಕಾರಣವಾಗಿರಬಹುದು
-4.335478	ಕಾರಣವಾಗಿವೆ
-4.159387	ಕಾರಣವಾದ
-4.159387	ಕಾರಣವಾಯಿತು
-4.335478	ಕಾರಣವಿರಬಹುದು
-4.159387	ಕಾರಣವು
-4.335478	ಕಾರಣವೆಂಬುದನ್ನು
-4.159387	ಕಾರವಾರ
-4.335478	ಕಾರು
-4.335478	ಕಾರ್ಖಾನೆಗಳಿವೆ
-4.335478	ಕಾರ್ಟೆಲ್ಲು
-4.159387	ಕಾರ್ಟೆಲ್ಲುಗಳ
-4.335478	ಕಾರ್ಟೆಲ್ಲುಗಳಲ್ಲಿ
-3.858357	ಕಾರ್ಟೆಲ್ಲುಗಳು
-4.335478	ಕಾರ್ಟೆಲ್ಲುಗಳೂ
-4.335478	ಕಾರ್ಡು
-4.335478	ಕಾರ್ಡುಗಳ
-4.159387	ಕಾರ್ಡ್
-4.335478	ಕಾರ್ಪೊರೇಟ್
-4.159387	ಕಾರ್ಪೊರೇಶನ್
-4.335478	ಕಾರ್ಪೋರೆಟ್
-4.159387	ಕಾರ್ಪೋರೇಟ್
-4.159387	ಕಾರ್ಬೊನೇಟಿನಿಂದಾದ
-3.636508	ಕಾರ್ಮಿಕ
-4.335478	ಕಾರ್ಮಿಕಚಳವಳಿಯನ್ನು
-4.159387	ಕಾರ್ಮಿಕರ
-4.335478	ಕಾರ್ಮಿಕರಂಗದಲ್ಲಿ
-4.159387	ಕಾರ್ಮಿಕರಿಗೆ
-4.335478	ಕಾರ್ಮಿಕರು
-3.406059	ಕಾರ್ಯ
-4.335478	ಕಾರ್ಯಕಲಾಪಗಳಲ್ಲಿ
-4.335478	ಕಾರ್ಯಕಾರಿ
-4.335478	ಕಾರ್ಯಕಾರಿಯಾಗಿ
-3.937538	ಕಾರ್ಯಕ್ಕೆ
-4.335478	ಕಾರ್ಯಕ್ರಮಗಳ
-4.335478	ಕಾರ್ಯಕ್ರಮಗಳನ್ನು
-4.335478	ಕಾರ್ಯಕ್ರಮವನ್ನು
-4.034448	ಕಾರ್ಯಕ್ಷೇತ್ರ
-4.034448	ಕಾರ್ಯಕ್ಷೇತ್ರದ
-3.858357	ಕಾರ್ಯಕ್ಷೇತ್ರವನ್ನು
-4.159387	ಕಾರ್ಯಕ್ಷೇತ್ರವೆನ್ನೋಣ
-4.335478	ಕಾರ್ಯಗತ
-4.335478	ಕಾರ್ಯಗತಗೊಳಿಸುವಿಕೆಯು
-4.159387	ಕಾರ್ಯಗಳ
-3.682266	ಕಾರ್ಯಗಳನ್ನು
-4.335478	ಕಾರ್ಯಗಳಲ್ಲಿ
-3.937538	ಕಾರ್ಯಗಳಿಗೆ
-3.937538	ಕಾರ್ಯಗಳು
-4.159387	ಕಾರ್ಯಗಳೆರಡನ್ನೂ
-4.335478	ಕಾರ್ಯಚಟುವಟಿಕೆ
-4.034448	ಕಾರ್ಯಚಟುವಟಿಕೆಯನ್ನು
-4.335478	ಕಾರ್ಯಚಟುವಟಿಗಳಲ್ಲಿ
-4.335478	ಕಾರ್ಯತಃ
-4.335478	ಕಾರ್ಯತತ್ಪರತೆಯನ್ನು
-4.335478	ಕಾರ್ಯತಾಣಗಳೊಳಗಿರಬಹುದು
-4.335478	ಕಾರ್ಯದರ್ಶಿ
-3.79141	ಕಾರ್ಯದಲ್ಲಿ
-4.335478	ಕಾರ್ಯನಿರ್ವಹಣೆಯನ್ನು
-4.335478	ಕಾರ್ಯನಿರ್ವಹಿಸದಿದ್ದಲ್ಲಿ
-4.159387	ಕಾರ್ಯನಿರ್ವಹಿಸಲು
-4.335478	ಕಾರ್ಯನಿರ್ವಹಿಸಿತ್ತದೆ
-4.159387	ಕಾರ್ಯನಿರ್ವಹಿಸಿದ್ದು
-4.159387	ಕಾರ್ಯನಿರ್ವಹಿಸುತ್ತದೆ
-4.159387	ಕಾರ್ಯನಿರ್ವಹಿಸುತ್ತವೆ
-4.335478	ಕಾರ್ಯನಿರ್ವಹಿಸುತ್ತಿದ್ದಾರೆ
-4.034448	ಕಾರ್ಯನಿರ್ವಹಿಸುವ
-4.335478	ಕಾರ್ಯನಿರ್ವಹಿಸುವುದನ್ನು
-3.858357	ಕಾರ್ಯನಿರ್ವಾಹಕ
-4.159387	ಕಾರ್ಯನೀತಿಗಳ
-4.335478	ಕಾರ್ಯಭಾರವನ್ನು
-4.335478	ಕಾರ್ಯಭಾರವು
-4.335478	ಕಾರ್ಯಭಾರವೂ
-4.335478	ಕಾರ್ಯಮಾಡಲಾರಂಭಿಸಿ
-4.335478	ಕಾರ್ಯಯೋಜನೆಗೆ
-4.159387	ಕಾರ್ಯಯೋಜನೆಯ
-4.335478	ಕಾರ್ಯಯೋಜನೆಯನ್ನು
-4.034448	ಕಾರ್ಯಯೋಜನೆಯಲ್ಲಿ
-4.335478	ಕಾರ್ಯಯೋಜನೆಯು
-4.034448	ಕಾರ್ಯರೂಪಕ್ಕೆ
-3.79141	ಕಾರ್ಯವನ್ನು
-4.159387	ಕಾರ್ಯವಿಧಾನ
-4.159387	ಕಾರ್ಯವಿಧಾನವನ್ನು
-4.335478	ಕಾರ್ಯವ್ಯಾಪ್ತಿ
-4.159387	ಕಾರ್ಯವ್ಯಾಪ್ತಿಯ
-4.335478	ಕಾರ್ಯಸಾಧನೆ
-4.335478	ಕಾರ್ಯಸೂಚಿಗಳಲ್ಲಿರುವಂತೆ
-4.159387	ಕಾರ್ಯಸೂಚಿಯೊಂದನ್ನು
-4.159387	ಕಾರ್ಯಾಚರಣೆ
-4.335478	ಕಾರ್ಯಾಚರಣೆಗಳನ್ನು
-4.159387	ಕಾರ್ಯಾಚರಣೆಗಳು
-4.335478	ಕಾರ್ಯಾಚರಣೆಗೆ
-4.335478	ಕಾರ್ಯಾತ್ಮಕ
-4.335478	ಕಾರ್ಯಾಲಯವಿರುವುದಿಲ್ಲ
-4.335478	ಕಾರ್ಯಾಸಕ್ತಿ
-3.357754	ಕಾಲ
-3.682266	ಕಾಲಕ್ಕೆ
-4.159387	ಕಾಲಕ್ರಮೇಣ
-4.335478	ಕಾಲಗಣನೆಯ
-3.557327	ಕಾಲದ
-4.159387	ಕಾಲದಲ್ಲಂತೂ
-3.238568	ಕಾಲದಲ್ಲಿ
-4.159387	ಕಾಲದಲ್ಲಿದ್ದುದಕ್ಕೆ
-4.335478	ಕಾಲದಲ್ಲಿಯೂ
-3.937538	ಕಾಲದಲ್ಲೂ
-4.159387	ಕಾಲದವರೆಗಿನ
-4.159387	ಕಾಲದವರೆಗೆ
-4.159387	ಕಾಲದಿಂದ
-4.034448	ಕಾಲದಿಂದಲೂ
-4.335478	ಕಾಲದೇಶಗಳಿಗೆ
-4.159387	ಕಾಲಮಾನ
-4.335478	ಕಾಲವನ್ನು
-4.335478	ಕಾಲವು
-4.159387	ಕಾಲವೇ
-4.335478	ಕಾಲಾನುಕ್ರಮದಲ್ಲಿ
-4.159387	ಕಾಲಾಮಾನ
-4.159387	ಕಾಲಾವಧಿ
-4.159387	ಕಾಲಾವಧಿಗೆ
-4.159387	ಕಾಲಾವಧಿಯ
-4.335478	ಕಾಲಾವಧಿಯನ್ನು
-4.159387	ಕಾಲಾವಧಿಯಲ್ಲಿ
-4.034448	ಕಾಲಾವಧಿಯವರೆಗೆ
-4.159387	ಕಾಲಾವಧಿಯು
-4.335478	ಕಾಲಿಗೆ
-3.937538	ಕಾಲು
-4.335478	ಕಾಲೇಜಿನ
-4.159387	ಕಾಲೇಜಿನಿಂದ
-4.159387	ಕಾಲೇಜು
-4.335478	ಕಾಲ್ಬಳೆಗಳೂ
-4.335478	ಕಾಳಜಿಯ
-4.335478	ಕಾಳಜಿವಹಿಸುವುದನ್ನು
-4.034448	ಕಾಳುಗಳನ್ನು
-4.335478	ಕಾವು
-4.159387	ಕಾಶಿರಾಜನಾಗಿದ್ದ
-4.335478	ಕಾಸ್ಮಿಕ್
-4.335478	ಕಿಂಗ್ಡಮ್
-4.335478	ಕಿತ್ತಳೆ
-4.159387	ಕಿತ್ತು
-4.034448	ಕಿಬೋ
-4.335478	ಕಿಬೋದ
-3.79141	ಕಿಬ್ಬೊಟ್ಟೆಯ
-4.335478	ಕಿರಣಗಳ
-4.335478	ಕಿರಿಕಿರಿಯ
-4.159387	ಕಿರಿದಾದ
-4.034448	ಕಿರಿಯ
-4.335478	ಕಿರಿಯರ
-3.79141	ಕಿರು
-4.034448	ಕಿರುನಾಲಿಗೆ
-4.335478	ಕಿಲೋ
-3.858357	ಕಿಲೋಮೀಟರ್
-3.682266	ಕಿಲೋಮೀಟರ್‌ಗಳಲ್ಲಿ
-3.682266	ಕಿಲೋಮೀಟರ್‌ನಲ್ಲಿ
-4.335478	ಕಿವಿ
-4.335478	ಕಿಸಾನ್
-4.335478	ಕೀಟಗಳ
-4.335478	ಕೀಟಗಳಲ್ಲಿ
-4.335478	ಕೀನ್ಯಾ
-4.335478	ಕೀಪಿಂಗ್
-4.335478	ಕೀರ್ತಿಯು
-4.335478	ಕೀಲುಗಳು
-4.335478	ಕೀಳು
-4.335478	ಕೀವು
-3.937538	ಕುಂಠಿತವಾಗುತ್ತದೆ
-3.858357	ಕುಂದಿದ
-4.335478	ಕುಂದು
-4.335478	ಕುಂದುವುದಿಲ್ಲ
-4.335478	ಕುಕ್ಕುಟ
-4.335478	ಕುಗ್ಗಲಿಲ್ಲ
-4.335478	ಕುಗ್ಗಿರುತ್ತದೆ
-4.335478	ಕುಗ್ಗುವಂತೆ
-4.335478	ಕುಟುಂಬ
-3.858357	ಕುಟುಂಬಕ್ಕೆ
-4.335478	ಕುಡಿಯುವ
-4.159387	ಕುತೂಹಲಕರ
-4.335478	ಕುತೂಹಲಕರವಾಗಿದ್ದ
-4.335478	ಕುದಿ
-4.159387	ಕುದಿಸಲಿಕ್ಕೆ
-4.335478	ಕುದುರಿಸಲಾಯಿತು
-4.159387	ಕುದುರೆ
-4.335478	ಕುದುರೆಗಳನ್ನು
-4.159387	ಕುದುರೆಗಳು
-4.159387	ಕುದುರೆಬಾವಿ
-4.335478	ಕುಮಟ
-4.335478	ಕುಮಟಾ
-4.335478	ಕುಮಾರರೂ
-4.159387	ಕುರಿ
-3.79141	ಕುರಿತ
-4.159387	ಕುರಿತದ್ದು
-4.335478	ಕುರಿತಾಗಿವೆ
-4.335478	ಕುರಿತಾದ
-3.595115	ಕುರಿತು
-4.335478	ಕುರಿತೂ
-4.159387	ಕುರುಹುಗಳಿವೆ
-4.159387	ಕುಲದೇವತೆಯಾದ
-4.335478	ಕುಲ್ಪೆ
-4.335478	ಕುಳಿಯು
-4.335478	ಕುಸಿತಕ್ಕೆ
-4.159387	ಕುಸಿತದ
-4.335478	ಕುಸಿದಾಗ
-4.335478	ಕುಸಿದು
-4.335478	ಕೂಗುತ್ತಾ
-4.159387	ಕೂಗುವುದರ
-4.159387	ಕೂಟದ
-4.335478	ಕೂಟದಲ್ಲಿ
-2.946312	ಕೂಡ
-4.335478	ಕೂಡಲೆ
-4.034448	ಕೂಡಾ
-4.335478	ಕೂಡಿಕೊಂಡಿರುತ್ತದೆ
-4.335478	ಕೂಡಿಕೊಂಡಿರುವಂತೆ
-3.79141	ಕೂಡಿದ
-4.335478	ಕೂಡಿದೆ
-4.159387	ಕೂಡಿದ್ದರೂ
-4.335478	ಕೂಡಿದ್ದಾರೆ
-4.159387	ಕೂಡಿರುತ್ತದೆ
-4.335478	ಕೂಡಿರುವುದು
-4.159387	ಕೂಡಿಸಿ
-4.159387	ಕೂಡಿಸು
-4.335478	ಕೂಡಿಸುವುದು
-3.636508	ಕೂಡುವ
-4.335478	ಕೂತಾಗ
-4.335478	ಕೂರಬೇಕಾದ
-4.335478	ಕೂಲಂಕುಷವಾದ
-4.335478	ಕೂಲಿಗಳನ್ನು
-3.733418	ಕೂಲಿಗಾರರ
-4.335478	ಕೂಸಿನಲ್ಲಿರುವ
-4.159387	ಕೂಸು
-3.79141	ಕೃತಕ
-3.79141	ಕೃತಕವಾಗಿ
-4.159387	ಕೃತಿಯ
-4.335478	ಕೃತಿಯು
-4.159387	ಕೃತ್ಯಗಳು
-4.159387	ಕೃಪೆಯಿಲ್ಲದೆ
-3.636508	ಕೃಷಿ
-4.335478	ಕೃಷಿಗಾಗಿ
-4.335478	ಕೃಷಿಪ್ರಧಾನವಾದ
-3.858357	ಕೃಷಿಯ
-4.034448	ಕೃಷಿಯಲ್ಲಿ
-4.034448	ಕೃಷಿಯು
-4.335478	ಕೃಷಿವಿಜ್ಞಾನಿಗಳು
-4.335478	ಕೃಷಿಶಾಸ್ತ್ರದ
-4.335478	ಕೆಂಪಾಗುತ್ತದೆ
-4.159387	ಕೆಂಪು
-4.335478	ಕೆಎಸ್ಬಿಪಂಪ್ಸ್
-4.335478	ಕೆಡುಕಾಗುವುದು
-4.159387	ಕೆಡುವ
-3.937538	ಕೆನಡಾ
-4.159387	ಕೆರಳಿಸುವಿಕೆಪ್ರಚೋದನೆ
-4.335478	ಕೆರೆಗಳು
-3.79141	ಕೆಲ
-4.335478	ಕೆಲವರನ್ನು
-4.335478	ಕೆಲವರು
-2.750017	ಕೆಲವು
-3.636508	ಕೆಲವೇ
-3.682266	ಕೆಲವೊಂದು
-3.460417	ಕೆಲವೊಮ್ಮೆ
-3.335478	ಕೆಲಸ
-4.335478	ಕೆಲಸಕ್ಕಾಗಿಯೇ
-4.335478	ಕೆಲಸಗಳ
-4.034448	ಕೆಲಸಗಳನ್ನು
-4.335478	ಕೆಲಸಗಳಲ್ಲೊಂದಾಗಿತ್ತೆಂದು
-4.159387	ಕೆಲಸಗಳಿಂದ
-4.159387	ಕೆಲಸಗಾರರಿಗೆ
-4.034448	ಕೆಲಸದ
-4.335478	ಕೆಲಸದಿಂದ
-4.335478	ಕೆಲಸಮಾಡಿದೆ
-4.335478	ಕೆಲಸವನ್ನು
-4.335478	ಕೆಳ
-3.858357	ಕೆಳಕಂಡ
-3.733418	ಕೆಳಕಂಡಂತಿವೆ
-4.335478	ಕೆಳಕ್ಕಿಳಿಯುತ್ತದೆ
-4.335478	ಕೆಳಕ್ಕೆ
-3.937538	ಕೆಳಗಿನ
-4.159387	ಕೆಳಗಿನಂತಿವೆ
-4.335478	ಕೆಳಗಿಳಿದ
-4.335478	ಕೆಳಗಿಳಿಯುತ್ತದೆ
-3.636508	ಕೆಳಗೆ
-4.159387	ಕೆಳಭಾಗ
-4.034448	ಕೆಳಭಾಗದಲ್ಲಿ
-4.335478	ಕೆಳಮಟ್ಟಕ್ಕೆ
-4.335478	ಕೆಳೆಗೆ
-4.159387	ಕೆಸರಿನ
-3.314289	ಕೇಂದ್ರ
-4.335478	ಕೇಂದ್ರಕಛೇರಿ
-4.335478	ಕೇಂದ್ರಕ್ಕೆ
-4.335478	ಕೇಂದ್ರಗಳ
-4.034448	ಕೇಂದ್ರಗಳಿಗೆ
-4.335478	ಕೇಂದ್ರಗಳು
-4.335478	ಕೇಂದ್ರಗುಪ್ತ
-3.682266	ಕೇಂದ್ರದ
-4.335478	ಕೇಂದ್ರದಲ್ಲಿ
-4.159387	ಕೇಂದ್ರದಲ್ಲಿರದ
-4.335478	ಕೇಂದ್ರಬಿಂದು
-4.335478	ಕೇಂದ್ರಬ್ಯಾಂಕು
-4.159387	ಕೇಂದ್ರಬ್ಯಾಂಕುಗಳ
-4.335478	ಕೇಂದ್ರವಾಗಿ
-4.159387	ಕೇಂದ್ರವಾಗಿದೆ
-4.335478	ಕೇಂದ್ರವಾಗಿದೆಇಲ್ಲಿ
-3.937538	ಕೇಂದ್ರವು
-4.335478	ಕೇಂದ್ರಸಂಸ್ಥೆಯಾದ
-4.335478	ಕೇಂದ್ರಾಧೀನ
-4.159387	ಕೇಂದ್ರಾಲಯ
-4.335478	ಕೇಂದ್ರಿಕೃತವಾಗಿದೆ
-4.159387	ಕೇಂದ್ರೀಕೃತ
-4.159387	ಕೇಂದ್ರೀಕೃತವಾಗಿ
-4.335478	ಕೇಂದ್ರೀಕೃತವಾಗಿರುತ್ತದೆ
-4.034448	ಕೇಂದ್ರೀಯ
-4.335478	ಕೇಂಬ್ರಿಡ್ಜ್
-4.159387	ಕೇಂಬ್ರಿಯನ್
-4.335478	ಕೇಕೆ
-4.335478	ಕೇಡಾಗುತ್ತದೆಂದೂ
-4.335478	ಕೇಳಬಹುದು
-4.335478	ಕೇಳಿ
-4.335478	ಕೇಳಿಕೆಯ
-4.335478	ಕೇಳಿದ್ದರಿಂದ
-4.335478	ಕೇಳುವ
-3.335478	ಕೇವಲ
-4.159387	ಕೇಶವ
-4.034448	ಕೇಸಿಯಿನ್
-4.159387	ಕೈ
-4.335478	ಕೈಗಳಲ್ಲಿ
-4.335478	ಕೈಗಾರಿಕ
-3.937538	ಕೈಗಾರಿಕಾ
-4.034448	ಕೈಗಾರಿಕೆ
-4.335478	ಕೈಗಾರಿಕೆಗಳ
-4.335478	ಕೈಗಾರಿಕೆಗಳನ್ನು
-4.159387	ಕೈಗಾರಿಕೆಗಳಿಗೆ
-4.335478	ಕೈಗಾರಿಕೆಗೆ
-4.335478	ಕೈಗಾರಿಕೋದ್ಯಮಗಳಿಗೆ
-4.335478	ಕೈಗಾರೀಕರಣ
-4.159387	ಕೈಗೆತ್ತಿಕೊಳ್ಳಬಹುದು
-4.159387	ಕೈಗೆತ್ತಿಕೊಳ್ಳುತ್ತದೆ
-4.335478	ಕೈಗೊಂಡಿದೆ
-4.159387	ಕೈಗೊಂಡು
-4.159387	ಕೈಗೊಳ್ಳಲಾಗುತ್ತದೆ
-4.159387	ಕೈಗೊಳ್ಳುವ
-4.335478	ಕೈಗೊಳ್ಳುವುದಕ್ಕೆ
-4.034448	ಕೈಪಿಡಿ
-4.159387	ಕೈಬಿಟ್ಟು
-4.335478	ಕೈಬೆರಳುಗಳನ್ನು
-4.159387	ಕೈಮರ
-4.335478	ಕೈಯ
-4.159387	ಕೈಸನ್
-4.159387	ಕೈಹಿಡಿದು
-4.159387	ಕೊಂಕುಳಮೊಗ್ಗುಗಳು
-4.159387	ಕೊಂಚಕೊಂಚವಾಗಿ
-4.335478	ಕೊಂಚವೂ
-4.159387	ಕೊಂಡ
-4.335478	ಕೊಂಡಿಗಳನ್ನೂ
-4.335478	ಕೊಂಡಿಯನ್ನುಳ್ಳ
-4.335478	ಕೊಂಡಿಯಲ್ಲಿ
-4.335478	ಕೊಂಡಿಯಾಕಾರವನ್ನು
-4.335478	ಕೊಂಡಿವೆ
-4.335478	ಕೊಂಡು
-4.335478	ಕೊಂಡೊಯ್ಯುತ್ತಾರೆ
-4.335478	ಕೊಂದರು
-4.335478	ಕೊಂದು
-4.335478	ಕೊಂಬು
-4.335478	ಕೊಇರಲ
-4.335478	ಕೊಟ್ಟಿದೆ
-4.335478	ಕೊಟ್ಟಿದ್ದಂತೆ
-4.159387	ಕೊಟ್ಟಿದ್ದಾನೆ
-4.034448	ಕೊಟ್ಟು
-4.159387	ಕೊಟ್ಟುಕೊಂಡು
-4.159387	ಕೊಡದೆ
-4.335478	ಕೊಡಬಲ್ಲನೆಂಬುದು
-4.159387	ಕೊಡಬೇಕಾಗುವುದು
-3.79141	ಕೊಡಬೇಕಾದ
-4.335478	ಕೊಡಬೇಕಾದರೆ
-4.159387	ಕೊಡಲಾಗುತ್ತಿದೆ
-4.159387	ಕೊಡಲು
-4.159387	ಕೊಡುಗೆಗಳು
-4.335478	ಕೊಡುಗೆಯ
-4.159387	ಕೊಡುಗೆಯನ್ನು
-4.034448	ಕೊಡುತ್ತದೆ
-4.159387	ಕೊಡುತ್ತರೆ
-4.159387	ಕೊಡುತ್ತವೆ
-4.034448	ಕೊಡುತ್ತಾರೆ
-4.335478	ಕೊಡುತ್ತಿದ್ದರು
-4.335478	ಕೊಡುವನೆಂದು
-4.159387	ಕೊಡುವುದಕ್ಕೆ
-4.335478	ಕೊಡುವುದರಿಂದ
-4.335478	ಕೊಡುವುದಿಲ್ಲ
-4.335478	ಕೊಡುವುದು
-4.159387	ಕೊನೆಗೆ
-4.159387	ಕೊನೆಗೊಳ್ಳುತ್ತದೆ
-3.682266	ಕೊನೆಯ
-3.858357	ಕೊನೆಯಲ್ಲಿ
-4.034448	ಕೊನೆಯಲ್ಲಿರುವ
-4.335478	ಕೊನೆಯವಾರದಲ್ಲಿ
-4.335478	ಕೊನೆಯಿಲ್ಲದ
-4.335478	ಕೊಬ್ಬಿನಿಂದ
-3.937538	ಕೊಯಿಲು
-4.335478	ಕೊಯ್ತಗಳಲ್ಲಿ
-4.159387	ಕೊಯ್ಯುತ್ತಾರೆ
-4.159387	ಕೊಯ್ಲು
-4.034448	ಕೊರತೆ
-3.858357	ಕೊರತೆಯ
-4.159387	ಕೊರತೆಯನ್ನು
-4.335478	ಕೊರತೆಯಾಗಿದೆ
-4.335478	ಕೊರತೆಯಾದಾಗ
-4.159387	ಕೊರತೆಯಿಂದ
-4.159387	ಕೊರತೆಯಿದ್ದಾಗ
-4.335478	ಕೊರೆದುಕೊಂಡು
-4.159387	ಕೊರೆಯುವ
-4.335478	ಕೊರೆಯುವುದುಂಟು
-4.159387	ಕೊರ್ತೊಡೆ
-4.159387	ಕೊಲಂಬಸ್
-3.937538	ಕೊಲಂಬಿಯ
-4.335478	ಕೊಲ್ಲಿಯ
-4.335478	ಕೊಲ್ಲಿಯಲ್ಲಿರುವ
-4.335478	ಕೊಲ್ಲಿಯಲ್ಲಿವೆ
-4.159387	ಕೊಲ್ಲುತ್ತಾನೆ
-4.159387	ಕೊಳವೂ
-4.159387	ಕೊಳವೆ
-4.159387	ಕೊಳೆತ
-4.335478	ಕೊಳೆತು
-4.335478	ಕೊಳ್ಳುತ್ತಾನೆ
-4.034448	ಕೊಳ್ಳುವ
-4.159387	ಕೊಳ್ಳುವುದಿಲ್ಲ
-4.159387	ಕೋಆರ್ಡಿನೇಟೆಡ್
-4.335478	ಕೋಟಿ
-4.159387	ಕೋಟೆಯ
-4.335478	ಕೋಟೆಯನ್ನು
-4.159387	ಕೋಟೆಯಿದೆ
-4.159387	ಕೋಟೆಯಿದ್ದು
-4.159387	ಕೋಟೆಹರವೆಂಬ
-4.159387	ಕೋಟೇಶ್ವರ
-4.335478	ಕೋಣೆಯನ್ನು
-4.159387	ಕೋನ
-4.335478	ಕೋನಾಕಾರವನ್ನು
-4.159387	ಕೋಪದ
-4.335478	ಕೋಮೊಲೊಲಾಜಿ
-4.159387	ಕೋರಲಾಗಿದೆ
-4.159387	ಕೋರಿ
-4.034448	ಕೋರ್ಟ್
-3.937538	ಕೋಳಿ
-4.335478	ಕೋಶಕೃಷಿಯಲ್ಲಿ
-4.159387	ಕೋಶಗಳ
-3.858357	ಕೋಶಗಳನ್ನು
-3.79141	ಕೋಶಗಳು
-4.159387	ಕೋಶದೊಳಗಡೆ
-4.335478	ಕೋಶೀಕರಣ
-4.159387	ಕೌಟಿಲ್ಯನ
-4.159387	ಕೌಟಿಲ್ಯನು
-4.159387	ಕೌರವರ
-4.335478	ಕೌಲೊಬ್
-4.335478	ಕೌಶಲಗಳನ್ನು
-4.159387	ಕೌಶಲವನ್ನು
-4.335478	ಕೌಶಲ್ಯಗಳನ್ನು
-4.159387	ಕೌಶಲ್ಯಗಳಲ್ಲಿ
-4.034448	ಕೌಶಲ್ಯವನ್ನು
-4.335478	ಕೌಶಲ್ಯವಾಗಿ
-3.49038	ಕ್ಕೆ
-4.159387	ಕ್ಯಾಂಟನ
-4.159387	ಕ್ಯಾಥೋಲಿಕ್
-4.335478	ಕ್ಯಾನ್ಸರ್
-3.858357	ಕ್ಯಾಪ್ರಿ
-4.335478	ಕ್ಯಾಮರಾಗಳು
-4.335478	ಕ್ಯಾಮಿಲ್
-4.335478	ಕ್ಯಾರಿಯರ್
-4.159387	ಕ್ಯಾಲಿಕಟ್
-4.159387	ಕ್ಯಾಲ್ಸಿಯಂ
-4.335478	ಕ್ಯಾಲ್ಸೈಟಿನ
-4.335478	ಕ್ರಮ
-4.159387	ಕ್ರಮಕ್ಕೆ
-4.159387	ಕ್ರಮಗಳನ್ನು
-4.335478	ಕ್ರಮಗಳುಳ್ಳ
-4.335478	ಕ್ರಮಗಳೂ
-4.034448	ಕ್ರಮದ
-4.159387	ಕ್ರಮದಲ್ಲಿ
-4.335478	ಕ್ರಮದಲ್ಲಿರುವ
-4.335478	ಕ್ರಮದಿಂದ
-3.937538	ಕ್ರಮಬದ್ಧ
-4.159387	ಕ್ರಮಬದ್ಧವಾದ
-4.335478	ಕ್ರಮವಾಗಿ
-4.159387	ಕ್ರಮವಿಧಾನದ
-4.159387	ಕ್ರಮವು
-4.159387	ಕ್ರಮವೆಂದು
-4.335478	ಕ್ರಮಾಂಕದಲ್ಲಿ
-4.159387	ಕ್ರಮೇಣ
-3.937538	ಕ್ರಯ
-3.79141	ಕ್ರಾಂತಿಕಾರಿ
-4.335478	ಕ್ರಾಂತಿಕಾರಿಯಾದುದರಿಂದ
-4.335478	ಕ್ರಾಂತಿಗಳೆಂದು
-4.335478	ಕ್ರಾಂತಿಯ
-4.335478	ಕ್ರಾಸ್
-3.937538	ಕ್ರಿಕೆಟ್
-4.159387	ಕ್ರಿಕೇಟ್
-4.335478	ಕ್ರಿಯಾಕಾರಿಗಳು
-4.034448	ಕ್ರಿಯಾತ್ಮಕ
-4.335478	ಕ್ರಿಯಾಶೀಲ
-4.159387	ಕ್ರಿಯೆ
-4.335478	ಕ್ರಿಯೆಗೆ
-3.79141	ಕ್ರಿಯೆಯ
-4.335478	ಕ್ರಿಯೆಯಿಂದ
-4.335478	ಕ್ರಿಯೆಯು
-4.159387	ಕ್ರಿಶಸು
-4.335478	ಕ್ರಿಸ್ತನು
-4.159387	ಕ್ರೀಡಾಂಗಣಗಳಿವೆ
-4.335478	ಕ್ರೀಡಾಕೂಟದ
-3.858357	ಕ್ರೀಡಾಕೂಟದಲ್ಲಿ
-4.159387	ಕ್ರೀಡಾಕೂಟದಲ್ಲೂ
-4.335478	ಕ್ರೀಡಾಪಟುವಿನ
-4.335478	ಕ್ರೀಡಾಪಟುವೆಂದು
-4.335478	ಕ್ರೀಡೆಗಳ
-3.858357	ಕ್ರೀಡೆಗಳಲ್ಲಿ
-4.335478	ಕ್ರೀಡೆಯಲ್ಲಿ
-4.335478	ಕ್ರೀಡೆಯಾಗಿತ್ತು
-4.335478	ಕ್ರೂರಿಯಾಗಿದ್ದ
-4.335478	ಕ್ರೋಧಾದಿಗಳನ್ನು
-4.159387	ಕ್ಲಿಕ್ಕಿಸಿದಾಗಲೆಲ್ಲ
-4.335478	ಕ್ಲಿಪರ್ಟ್
-4.335478	ಕ್ಲುಪ್ತವಾದ
-4.335478	ಕ್ವಾಂಟೀಕರಣದ
-4.335478	ಕ್ವಾಟರ್ಸ್
-4.335478	ಕ್ವಾಟರ್ಸ್‌ಗಳನ್ನು
-4.335478	ಕ್ವಾರ್ಟ್ಸ್‌ಗಳು
-4.159387	ಕ್ಷಣದ
-4.335478	ಕ್ಷಣವೂ
-4.335478	ಕ್ಷಮೆಯುಂಟೆಂದು
-4.335478	ಕ್ಷಿಪ್ರ
-4.159387	ಕ್ಷಿಪ್ರವಾಗಿ
-4.335478	ಕ್ಷೀಣತೆಗೆ
-4.159387	ಕ್ಷೀಣಾಶ್ರವ
-4.335478	ಕ್ಷೀಣಿಸಿತು
-4.335478	ಕ್ಷೀಣಿಸಿದವು
-4.335478	ಕ್ಷೀರ
-3.79141	ಕ್ಷೇತ್ರಕ್ಕೆ
-3.858357	ಕ್ಷೇತ್ರಗಳಲ್ಲಿ
-4.159387	ಕ್ಷೇತ್ರಗಳು
-3.937538	ಕ್ಷೇತ್ರದ
-3.522565	ಕ್ಷೇತ್ರದಲ್ಲಿ
-4.335478	ಕ್ಷೇತ್ರಫಲದ
-3.937538	ಕ್ಷೇತ್ರವನ್ನು
-4.335478	ಕ್ಷೇತ್ರವಾಗಿದೆ
-3.79141	ಕ್ಷೇತ್ರವು
-4.335478	ಕ್ಷೇಮಾಭಿವೃದ್ಧಿ
-3.79141	ಖಂಡ
-3.937538	ಖಂಡದ
-4.335478	ಖಂಡದಿಂದ
-4.034448	ಖಂಡಾಂತರ
-4.159387	ಖಗೋಳಶಾಸ್ತ್ರದಲ್ಲಿ
-4.335478	ಖಚಿತವಾದ
-4.159387	ಖಜಾನೆಯ
-3.858357	ಖಜಾನೆಯು
-3.937538	ಖನಿಜ
-4.335478	ಖನಿಜಗಳನ್ನು
-4.159387	ಖರೀದಿಮಾಡುವವನಿಗೇ
-4.335478	ಖರೀದಿಸಬೇಕು
-4.335478	ಖರೀದಿಸಲು
-4.335478	ಖರೀದಿಸುವಂತೆ
-4.159387	ಖರ್ಚುಗಳನ್ನು
-4.159387	ಖಾತರಿಗಳ
-4.159387	ಖಾತರಿಯನ್ನು
-4.335478	ಖಾತರಿಯು
-4.159387	ಖಾದ್ಯ
-4.335478	ಖಾಲಿ
-3.335478	ಖಾಸಗಿ
-4.335478	ಖಾಸಗೀಯಾಗಿದೆ
-4.335478	ಖ್ಯಾತರಾಗಿದ್ದಾರೆ
-4.159387	ಖ್ಯಾತಿಯನ್ನು
-4.335478	ಗ
-4.159387	ಗಂಗಾವಳಿ
-4.159387	ಗಂಗಾಷ್ಟಮಿಯಂದು
-4.159387	ಗಂಗೆ
-4.159387	ಗಂಟು
-4.159387	ಗಂಟೆಗೆ
-4.335478	ಗಂಟೆಯ
-4.159387	ಗಂಡಮಾಲೆ
-4.159387	ಗಂತಿ
-4.159387	ಗಂದೆ
-4.159387	ಗಗನನೌಕೆ
-4.159387	ಗಗನಯಾತ್ರಿ
-4.335478	ಗಗನಯಾತ್ರಿಗಳ
-4.335478	ಗಗನಯಾತ್ರಿಗಳನ್ನು
-4.159387	ಗಗನಯಾತ್ರಿಗಳಿಗೆ
-3.733418	ಗಗನಯಾತ್ರಿಗಳು
-4.335478	ಗಗನಯಾತ್ರಿಗೆ
-4.335478	ಗಗನಯಾತ್ರಿಯನ್ನು
-3.79141	ಗಗನಯಾತ್ರೆ
-4.159387	ಗಗನಯಾತ್ರೆಗಳನ್ನು
-4.335478	ಗಗನಯಾತ್ರೆಗಳು
-3.522565	ಗಗನಯಾತ್ರೆಯ
-4.159387	ಗಗನಯಾತ್ರೆಯನ್ನು
-3.238568	ಗಜಗಳಲ್ಲಿ
-4.335478	ಗಟ್ಟಲೆ
-4.159387	ಗಟ್ಟಿ
-4.335478	ಗಟ್ಟಿಗನಾದರೆ
-4.159387	ಗಟ್ಟಿಗನಾದವನಿಗೆ
-4.159387	ಗಟ್ಟಿಯಾಗಿ
-4.159387	ಗಟ್ಟಿಯಾಗುವ
-4.335478	ಗಟ್ಟಿಯಾಗುವುದು
-4.335478	ಗಟ್ಟಿಯಾದ
-4.159387	ಗಟ್ಟಿಯಾದರೂ
-4.335478	ಗಟ್ಟಿಯಾದಾಗ
-3.858357	ಗಡಿ
-4.335478	ಗಡಿದ್ವಾರಗಳಲ್ಲಿ
-4.159387	ಗಡಿಪ್ರದೇಶಗಳು
-4.335478	ಗಡಿಬಿಡಿಗೆ
-4.335478	ಗಡಿಯನ್ನು
-4.335478	ಗಡುಸಾಗಿದೆ
-4.335478	ಗಡ್ಡೆಗಳು
-4.159387	ಗಡ್ಡೆಯು
-4.335478	ಗಣನೆ
-4.159387	ಗಣನೆಗಳನ್ನು
-4.159387	ಗಣನೆಗೆ
-4.335478	ಗಣನೆಯ
-4.159387	ಗಣನೆಯಲ್ಲಿಟ್ಟುಕೊಂಡು
-4.034448	ಗಣರಾಜ್ಯ
-4.335478	ಗಣಿ
-4.335478	ಗಣಿಗಳ
-4.159387	ಗಣಿಗಳಿವೆ
-4.159387	ಗಣಿಗಾರಿಕೆ
-4.159387	ಗಣಿತಕ್ಕೆ
-4.034448	ಗಣಿತದ
-4.159387	ಗಣಿತಶಾಸ್ತ್ರ
-4.335478	ಗಣಿತಶಾಸ್ತ್ರದ
-4.335478	ಗಣಿತಶಾಸ್ತ್ರದಲ್ಲಿ
-4.335478	ಗಣಿತಶಾಸ್ತ್ರವನ್ನು
-4.335478	ಗಣಿತಾತ್ಮಕ
-4.335478	ಗತಿಯಲ್ಲಿ
-3.460417	ಗಮನ
-4.159387	ಗಮನಕ್ಕೆ
-4.159387	ಗಮನದಲ್ಲಿ
-4.159387	ಗಮನದಲ್ಲಿಟ್ಟುಕೊಂಡು
-4.335478	ಗಮನಸೆಳೆದರು
-4.335478	ಗಮನಾರ್ಹ
-4.034448	ಗಮನಾರ್ಹವಾದ
-4.335478	ಗಮನಿಸಬಹುದು
-4.034448	ಗಮನಿಸಬೇಕಾದ
-4.335478	ಗಮನಿಸಿದರೆ
-4.159387	ಗಮನಿಸಿದ್ದರು
-4.335478	ಗಮನಿಸುತ್ತಾರೆ
-4.159387	ಗಮ್
-3.432388	ಗಮ್ಯಸ್ಥಾನ
-3.937538	ಗಮ್ಯಸ್ಥಾನವನ್ನು
-4.034448	ಗರಿಷ್ಠ
-4.335478	ಗರಿಷ್ಠವೆಂದರೆ
-4.335478	ಗರುಡಧ್ವಜ
-4.335478	ಗರ್ಭಾಶಯ
-3.79141	ಗಳ
-3.595115	ಗಳನ್ನು
-4.159387	ಗಳಲ್ಲಿ
-4.335478	ಗಳಾಗಿರುತ್ತದೆ
-4.034448	ಗಳಾಗಿರುತ್ತವೆ
-4.159387	ಗಳಿಗೂ
-4.335478	ಗಳಿಸಿಕೊಳ್ಳುವುದು
-4.335478	ಗಳಿಸಿದರು
-4.159387	ಗಳಿಸಿದ್ದರು
-4.335478	ಗಳಿಸಿದ್ದಾರೆ
-4.335478	ಗಳಿಸಿವೆ
-3.636508	ಗಳು
-4.159387	ಗವರ್ನಮೆಂಟಲ್
-4.335478	ಗವರ್ನರನ್ನು
-4.335478	ಗವರ್ನರುಗಳ
-4.159387	ಗಾಗಿ
-4.034448	ಗಾಜಿನ
-3.733418	ಗಾಜು
-4.335478	ಗಾತಿಕ್
-4.335478	ಗಾತ್ರ
-3.937538	ಗಾತ್ರದ
-3.858357	ಗಾತ್ರದಲ್ಲಿ
-4.159387	ಗಾತ್ರದಲ್ಲೂ
-4.159387	ಗಾತ್ರವನ್ನು
-4.159387	ಗಾತ್ರವಿರುತ್ತದೆ
-4.335478	ಗಾತ್ರವು
-4.335478	ಗಾಯಕ್ಕೆ
-4.159387	ಗಾಯದ
-4.335478	ಗಾಯಮಾಡಿದಾಗ
-4.159387	ಗಾಳಿಯ
-4.159387	ಗಾಳಿಯನ್ನು
-4.159387	ಗಿಂತಲು
-4.159387	ಗಿಂತಲೂ
-4.034448	ಗಿಡಕ್ಕೆ
-4.159387	ಗಿಡಗಳನ್ನು
-4.335478	ಗಿಡಗಳಿಂದ
-3.937538	ಗಿಡದ
-4.335478	ಗಿಡದಿಂದ
-4.335478	ಗಿಡಮೂಲಿಕೆ
-4.159387	ಗಿಡವಾಗುತ್ತವೆ
-4.335478	ಗಿಡವು
-4.335478	ಗಿಡವೇ
-4.335478	ಗಿಣ್ಣು
-4.335478	ಗುಂಡಗಾಗಿ
-4.335478	ಗುಂಡಾದ
-4.335478	ಗುಂಡುಹಾರಿಸಿ
-4.335478	ಗುಂಪನ್ನು
-3.636508	ಗುಂಪಿಗೆ
-3.858357	ಗುಂಪಿನ
-3.733418	ಗುಂಪು
-4.335478	ಗುಂಪುಗಳ
-4.034448	ಗುಂಪುಗಳಾಗಿ
-3.858357	ಗುಂಪುಗಳು
-4.335478	ಗುಂಪೊಂದರಿಂದ
-4.159387	ಗುಚ್ಛ
-4.034448	ಗುಜರಾತ್
-4.159387	ಗುಟ್ಟಿನ
-4.335478	ಗುಡಿ
-4.335478	ಗುಡುಗಿನಂತೆ
-4.335478	ಗುಡ್ಡಕ್ಕೆ
-4.335478	ಗುಡ್ಡದಿಂದ
-4.335478	ಗುಡ್ಡಪ್ರದೇಶದಲ್ಲಿ
-4.159387	ಗುಣ
-4.335478	ಗುಣಗಳನ್ನು
-3.49038	ಗುಣಮಟ್ಟದ
-4.335478	ಗುಣಮಟ್ಟವನ್ನು
-4.335478	ಗುಣಲಕ್ಷಣಗಳನ್ನು
-4.159387	ಗುಣಲಕ್ಷಣಗಳು
-4.335478	ಗುಣಲಕ್ಷಣವಾಗಿದೆ
-4.335478	ಗುಣವಾಗುತ್ತದೆ
-4.335478	ಗುಣವೆಂದರೆ
-4.335478	ಗುಣಾಕಾರಗಳೂ
-4.159387	ಗುದ
-3.937538	ಗುಪ್ತ
-4.335478	ಗುಮಾಸ್ತರು
-3.682266	ಗುರಿ
-4.335478	ಗುರಿಯತ್ತ
-4.335478	ಗುರಿಯನ್ನು
-4.159387	ಗುರಿಯಾದುವು
-4.159387	ಗುರಿಯಿಂದಲೂ
-4.335478	ಗುರುತಾಗಿ
-4.335478	ಗುರುತಿಸಬಹುದಾದೊಂದು
-4.335478	ಗುರುತಿಸಲಾಗದಿದ್ದರೂ
-4.335478	ಗುರುತಿಸಲಾದ
-3.79141	ಗುರುತಿಸಲು
-4.034448	ಗುರುತಿಸಲೂ
-4.159387	ಗುರುತಿಸಲ್ಪಟ್ಟವು
-4.159387	ಗುರುತಿಸಲ್ಪಟ್ಟಿತು
-4.335478	ಗುರುತಿಸಲ್ಪಡುತ್ತಾರೆ
-4.034448	ಗುರುತಿಸಲ್ಪಡುವ
-4.159387	ಗುರುತಿಸಿ
-4.335478	ಗುರುತಿಸಿದರೂ
-4.159387	ಗುರುತಿಸಿದ್ದಾರೆ
-4.159387	ಗುರುತಿಸುವಿಕೆ
-4.335478	ಗುರುತಿಸುವುದು
-4.335478	ಗುರುತುಮಾಡಲ್ಪಟ್ಟಿದೆ
-4.335478	ಗುರುತ್
-4.335478	ಗುರುತ್ವ
-4.335478	ಗುರುತ್ವಕರ್ಷಣೆಯ
-4.159387	ಗುರುತ್ವಕ್ಕೆ
-4.159387	ಗುರುತ್ವದಲ್ಲಿ
-4.335478	ಗುರುತ್ವವಿಲ್ಲದೆ
-4.335478	ಗುರುತ್ವವೆಂದು
-4.159387	ಗುರುತ್ವಾಕರ್ಷಣ
-4.034448	ಗುರುತ್ವಾಕರ್ಷಣಾ
-3.460417	ಗುರುತ್ವಾಕರ್ಷಣೆಯ
-4.335478	ಗುರುತ್ವಾಕರ್ಷಣೆಯು
-4.159387	ಗುರುವೆಂದು
-4.159387	ಗುಳ್ಳೆಗಳಾಗುತ್ತದೆ
-4.335478	ಗುಳ್ಳೆಗಳು
-4.335478	ಗೂಟ
-4.159387	ಗೂಟನೆಟ್ಟು
-4.159387	ಗೂಡಿನಿಂದ
-4.159387	ಗೂಢಲಿಪೀಕರಣ
-3.406059	ಗೆ
-4.034448	ಗೆದ್ದರು
-4.335478	ಗೆದ್ದಿದ್ದರು
-3.937538	ಗೆದ್ದುಕೊಂಡರು
-4.335478	ಗೆದ್ದುಕೊಂಡಿದ್ದಾರೆ
-4.335478	ಗೆರಿಲ್ಲಾ
-4.159387	ಗೆರೆಗಳನ್ನು
-4.335478	ಗೆಳೆತನದ
-4.335478	ಗೊಂಚಲಿನ
-4.335478	ಗೊಂಚಲಿನಲ್ಲಿರುವ
-4.335478	ಗೊಂಚಲು
-4.335478	ಗೊಂದಲದ
-4.335478	ಗೊಡವೆಗೆ
-4.159387	ಗೊತ್ತಾಗಿದೆ
-3.858357	ಗೊತ್ತಾದ
-4.335478	ಗೊತ್ತಿರಲಿಲ್ಲ
-4.159387	ಗೊತ್ತಿರುತ್ತದೆ
-4.335478	ಗೊತ್ತುಪಡಿಸಲಾದ
-4.335478	ಗೊತ್ತುಪಡಿಸಿರುವ
-4.335478	ಗೊತ್ತುಮಾಡಲ್ಪಟ್ಟಿರುವ
-4.335478	ಗೊತ್ತುಮಾಡುತ್ತದೆ
-3.733418	ಗೊಬ್ಬರ
-4.159387	ಗೊಬ್ಬರಗಳನ್ನು
-4.159387	ಗೊಬ್ಬರಗಳು
-4.159387	ಗೊಬ್ಬರಸರಬರಾಜಿಗೆ
-4.335478	ಗೊರಕೆ
-3.937538	ಗೋಂದು
-4.335478	ಗೋಂದುಗಳ
-4.159387	ಗೋಕರ್ಣಕ್ಕೆ
-4.335478	ಗೋಚರ
-3.937538	ಗೋಚರಿಸುವ
-4.159387	ಗೋಜಿಗೆ
-4.159387	ಗೋಡೆ
-4.335478	ಗೋಡೆಗಳಿಗೆ
-4.159387	ಗೋಡೆಗಳು
-3.937538	ಗೋಡೆಯ
-4.335478	ಗೋಡೆಯಲ್ಲಿ
-4.034448	ಗೋಡೆಯಲ್ಲಿನ
-4.159387	ಗೋದಿ
-4.159387	ಗೋಧಿ
-4.159387	ಗೋಪುರವಿದೆ
-4.159387	ಗೋಪ್ಯಲಿಪಿಯಾಗಿಯೇ
-4.159387	ಗೌಡ
-4.335478	ಗೌಡರ
-4.335478	ಗೌರವದ
-4.335478	ಗೌರವವನ್ನು
-4.159387	ಗೌರವಿಸಲಾಯಿತು
-4.335478	ಗೌರವಿಸಿತ್ತು
-4.335478	ಗೌರ್ನರುಗಳಿಂದ
-4.159387	ಗೌರ್ನರುಗಳು
-4.159387	ಗ್ರಂಥಗಳಲ್ಲಿ
-4.335478	ಗ್ರಂಥಗಳಲ್ಲೂ
-4.335478	ಗ್ರಂಥಗಳು
-4.159387	ಗ್ರಂಥದ
-3.937538	ಗ್ರಂಥಾಲಯ
-4.159387	ಗ್ರಂಥಿಗಳ
-4.159387	ಗ್ರಂಥಿಗಳನ್ನು
-4.335478	ಗ್ರಂಥಿಗಳಿರುವ
-4.159387	ಗ್ರಂಥಿಗಳೂ
-4.159387	ಗ್ರನೈಟ್
-4.159387	ಗ್ರಹಗಳ
-4.034448	ಗ್ರಹಿಸಲು
-4.159387	ಗ್ರಹೀತ
-4.159387	ಗ್ರಾಫಿಯನ್
-4.335478	ಗ್ರಾಮ
-4.335478	ಗ್ರಾಮಕ್ಕೆದುರಾಗಿ
-3.733418	ಗ್ರಾಮದ
-3.636508	ಗ್ರಾಮದಲ್ಲಿ
-4.335478	ಗ್ರಾಮವಿದೆ
-3.858357	ಗ್ರಾಮವು
-4.159387	ಗ್ರಾಮಾಂತರ
-4.034448	ಗ್ರಾಮೀಣ
-4.159387	ಗ್ರಾಹಕಗಳನ್ನು
-4.335478	ಗ್ರಾಹಕರ
-4.335478	ಗ್ರಾಹಕರಿಗೆ
-3.937538	ಗ್ರಿಡ್
-4.335478	ಗ್ರೀಕರ
-4.335478	ಗ್ರೀಕರಿಗೆ
-4.034448	ಗ್ರೀಕ್
-4.335478	ಘಂಟೆಯ
-3.636508	ಘಟಕ
-4.159387	ಘಟಕಕ್ಕೆ
-3.79141	ಘಟಕಗಳ
-3.682266	ಘಟಕಗಳನ್ನು
-4.335478	ಘಟಕಗಳಲ್ಲಿ
-4.159387	ಘಟಕಗಳಿಗೆ
-3.79141	ಘಟಕಗಳು
-4.335478	ಘಟಕಗಳೆಂದರೆ
-3.682266	ಘಟಕದ
-4.335478	ಘಟಕದೊಂದಿಗೆ
-3.937538	ಘಟಕವನ್ನು
-4.335478	ಘಟಕವಾಗಿದ್ದು
-3.858357	ಘಟಕವು
-4.335478	ಘಟಕವೆಂದರೆ
-4.335478	ಘಟನಾವಳಿಗೂ
-4.159387	ಘಟನೆ
-4.335478	ಘಟನೆಗಳನ್ನು
-4.159387	ಘಟನೆಗಳಲ್ಲಿ
-4.335478	ಘಟನೆಗಳಿಂದ
-4.335478	ಘಟನೆಗಳು
-4.335478	ಘಟನೆಯ
-4.335478	ಘಟನೆಯಿಂದ
-4.335478	ಘಟನೆಯು
-4.335478	ಘಟ್ಟದಿಂದ
-4.034448	ಘನ
-4.335478	ಘನತೆ
-4.335478	ಘನರೂಪದಲ್ಲಿರುವ
-4.159387	ಘನಸ್ಥಿತಿಯಲ್ಲಿರುವ
-4.159387	ಘರ್ಷಣೆ
-4.335478	ಘೋರ
-4.159387	ಘೋಷಣೆ
-4.335478	ಘೋಷಣೆಗಳ
-4.159387	ಘೋಷಣೆಗಳು
-4.335478	ಘೋಷಿಸಲು
-4.335478	ಘೋಷಿಸಿತು
-4.159387	ಘೋಷಿಸಿದುದು
-4.335478	ಘೋಷಿಸುತ್ತವೆ
-4.335478	ಚಂಡೀಘಢ
-3.858357	ಚಂದ್ರ
-4.335478	ಚಂಪಾನಗರ
-4.159387	ಚಕ್ಕೆ
-4.159387	ಚಕ್ರ
-4.034448	ಚಕ್ರವರ್ತಿ
-4.335478	ಚಕ್ರಾಧಿಪತ್ಯಗಳ
-4.335478	ಚಕ್ರಾಧಿಪತ್ಯಗಳು
-4.159387	ಚಕ್ರಾಧಿಪತ್ಯದ
-4.159387	ಚಕ್ರಾಧಿಪತ್ಯದಲ್ಲಿ
-4.335478	ಚಟುವಟಿಕೆಗಳ
-4.335478	ಚಟುವಟಿಕೆಗಳನ್ನು
-4.159387	ಚಟುವಟಿಕೆಗಳೂ
-4.159387	ಚಟುವಟಿಕೆಯ
-4.335478	ಚಟುವಟಿಕೆಯನ್ನು
-4.159387	ಚಟುವಟಿಕೆಯಾಗಿದೆ
-4.335478	ಚತುಷ್ಬುಜ
-4.159387	ಚದುರಿಹೋಗಿದ್ದ
-4.159387	ಚನ್ನಕೇಶವ
-4.335478	ಚಪ್ಪಲಿ
-4.034448	ಚಯಾಪಚಯ
-3.937538	ಚರಕ
-4.335478	ಚರಕನೂ
-4.159387	ಚರಕಸಂಹಿತೆಯಲ್ಲಿ
-4.335478	ಚರಕಸಂಹಿತೆಯಲ್ಲಿದೆ
-4.159387	ಚರಕಸಂಹಿತೆಯಲ್ಲೇ
-4.159387	ಚರಾಚರಗಳಿಗೆ
-4.335478	ಚರಿತ್ರಾರ್ಹವಾದುವು
-4.335478	ಚರಿತ್ರೆಯ
-4.159387	ಚರಿತ್ರೆಯಲ್ಲಿ
-4.335478	ಚರಿತ್ರೆಯು
-4.159387	ಚರ್ಚಾಸ್ಪದವಾಗಿದೆ
-4.335478	ಚರ್ಚಿಸಿದಂತೆ
-4.335478	ಚರ್ಚಿಸಿದೆ
-4.159387	ಚರ್ಚಿಸಿದ್ದಾರೆ
-4.335478	ಚರ್ಚುಗಳಲ್ಲಿ
-4.159387	ಚರ್ಚೆ
-3.858357	ಚರ್ಚೆಗೆ
-4.335478	ಚರ್ಚೆಯ
-4.335478	ಚರ್ಚೆಯಾಗುತ್ತಿದೆ
-4.335478	ಚರ್ಚೆಯೊಂದಿಗೆ
-4.335478	ಚರ್ಚ್ರೆ
-4.335478	ಚರ್ಮ
-4.159387	ಚರ್ಮದ
-4.159387	ಚರ್ಮದಮೇಲೆ
-3.858357	ಚಲನ
-4.335478	ಚಲನಚಿತ್ರ
-4.159387	ಚಲನಚಿತ್ರಕ್ಕಾಗಿ
-4.335478	ಚಲನಚಿತ್ರಗಳ
-4.159387	ಚಲನಚಿತ್ರಗಳಲ್ಲೊಂದು
-4.159387	ಚಲನಚಿತ್ರದ
-4.335478	ಚಲನಯುಕ್ತ
-4.335478	ಚಲನಶಕ್ತಿಯನ್ನು
-4.335478	ಚಲನಶಾಸ್ತ್ರ
-4.159387	ಚಲನಾತ್ಮಕ
-4.335478	ಚಲನಾರಹಿತವಾಗಿ
-4.159387	ಚಲನೆಗಾಗಿ
-4.335478	ಚಲನೆಗೆ
-4.159387	ಚಲನೆಯ
-4.034448	ಚಲಾಯಿಸಲು
-4.335478	ಚಲಿಸುತ್ತಿರುತ್ತವೆ
-4.335478	ಚಲಿಸುವ
-4.335478	ಚಳವಳಿ
-4.335478	ಚಳವಳಿಗಳಿಗೆ
-4.335478	ಚಳವಳಿಗೆ
-4.335478	ಚಳವಳಿಯ
-4.034448	ಚಳವಳಿಯನ್ನು
-4.335478	ಚಳವಳಿಯನ್ನೂ
-4.335478	ಚಳವಳಿಯಲ್ಲಿ
-4.335478	ಚಳವಳಿಯು
-4.159387	ಚಳಿ
-3.557327	ಚಳಿಗಾಲದ
-3.858357	ಚಳಿಗಾಲದಲ್ಲಿ
-4.159387	ಚಳಿಗೆ
-4.159387	ಚಳುಕ್ಯರ
-4.335478	ಚಳುವಳಿ
-4.335478	ಚಳುವಳಿಯ
-4.159387	ಚಳುವಳಿಯಲ್ಲಿ
-4.159387	ಚಳ್ಳೆಹಣ್ಣಿನಂತೆ
-4.034448	ಚಾಂಪಿಯನ್
-4.335478	ಚಾಂಪಿಯನ್ಷಿಪ್
-4.335478	ಚಾಂಪಿಯನ್‌ಶಿಪ್‌‌ನಲ್ಲಿ
-4.159387	ಚಾಕುವಿನಿಂದ
-4.335478	ಚಾಚಿಕೊಂಡಿರುವಂತೆ
-4.335478	ಚಾಚು
-4.159387	ಚಾಟ್
-4.159387	ಚಾರನೊಬ್ಬ
-4.335478	ಚಾರ್ಲ್ಸ್
-4.159387	ಚಾಲಕ
-4.159387	ಚಾಲನೆ
-4.159387	ಚಾಲಿತ
-4.335478	ಚಾಲುಕ್ಯರು
-4.159387	ಚಾಲ್ತಿ
-4.335478	ಚಾಲ್ತಿಯಲ್ಲಿತ್ತು
-4.034448	ಚಾಳುಕ್ಯರು
-4.335478	ಚಾವಟಿಯಿಂದ
-3.557327	ಚಿಕಿತ್ಸೆ
-4.159387	ಚಿಕಿತ್ಸೆಗಳು
-3.937538	ಚಿಕಿತ್ಸೆಗೆ
-4.335478	ಚಿಕಿತ್ಸೆಯ
-4.159387	ಚಿಕಿತ್ಸೆಯನ್ನು
-4.159387	ಚಿಕಿತ್ಸೆಯಲ್ಲಿ
-4.335478	ಚಿಕಿತ್ಸೆಯಿಂದ
-3.79141	ಚಿಕ್ಕ
-4.335478	ಚಿಕ್ಕಚಿಕ್ಕ
-4.335478	ಚಿಕ್ಕಪ್ಪ
-4.159387	ಚಿಕ್ಕಮಗಳೂರು
-3.937538	ಚಿಗುರು
-4.335478	ಚಿತ್ರ
-4.159387	ಚಿತ್ರಗಳ
-4.335478	ಚಿತ್ರಗಳಿಗೆ
-4.034448	ಚಿತ್ರಗಳು
-4.335478	ಚಿತ್ರಗಳೆಂದು
-3.733418	ಚಿತ್ರಣ
-4.159387	ಚಿತ್ರಣಗಳನ್ನು
-3.858357	ಚಿತ್ರಣದ
-4.335478	ಚಿತ್ರಣದಂತಹ
-4.159387	ಚಿತ್ರಣದೊಂದಿಗೆ
-4.335478	ಚಿತ್ರಣವಿಲ್ಲದಿದ್ದರೂ
-4.159387	ಚಿತ್ರಣವು
-4.159387	ಚಿತ್ರಣವೇ
-3.937538	ಚಿತ್ರವನ್ನು
-4.335478	ಚಿತ್ರಿಸುವಿಕೆಯು
-4.335478	ಚಿನ್ನ
-4.335478	ಚಿನ್ನಕ್ಕೆ
-3.636508	ಚಿನ್ನದ
-4.335478	ಚಿಪ್ಪಿನ
-4.335478	ಚಿಪ್ಪುಗಳು
-4.335478	ಚಿಲುಮೆ
-4.159387	ಚಿಲುಮೆಗಳು
-4.159387	ಚಿಲುಮೆಯ
-4.335478	ಚಿಲುಮೆಯಾಗಿ
-3.937538	ಚಿಲ್ಲರೆ
-4.335478	ಚಿಹ್ನೆ
-4.034448	ಚಿಹ್ನೆಗಳನ್ನು
-4.335478	ಚೀಟಿ
-3.937538	ಚೀಟಿಗಳ
-3.858357	ಚೀಟಿಗಳನ್ನು
-4.159387	ಚೀಟಿಗಳನ್ನೇ
-4.335478	ಚೀಟಿಗಳನ್ನೊಳಗೊಂಡ
-4.034448	ಚೀಟಿಗಳು
-4.159387	ಚೀಟಿಯೂ
-4.335478	ಚೀನ
-4.335478	ಚೀನಾ
-4.159387	ಚೀನಾಗೆ
-3.937538	ಚೀನಾದಲ್ಲಿ
-4.159387	ಚೀನಾದಿಂದ
-4.159387	ಚೀಲದಲ್ಲಿ
-4.159387	ಚೀಲದಿಂದ
-4.159387	ಚೀಲವನ್ನು
-4.335478	ಚುಟುಕು
-4.335478	ಚುನಾಯಿತರಾದವರು
-4.159387	ಚುರುಕು
-4.335478	ಚೂಪು
-4.159387	ಚೂರನ್ನು
-4.335478	ಚೂರಿನಿಂದ
-4.159387	ಚೂರುಗಳನ್ನು
-4.335478	ಚೂರುಗಳಾಗಿ
-4.335478	ಚೂಷಣ
-4.159387	ಚೆಂಡಿನ
-3.937538	ಚೆನ್ನಾಗಿ
-4.335478	ಚೆನ್ನಾದ
-4.335478	ಚೆರ್ನೊಮೈರ್ಡಿನ್
-4.159387	ಚೆಲ್ಲುತ್ತದೆ
-4.335478	ಚೆಲ್ಲುವ
-4.335478	ಚೇಂಬರ್
-4.335478	ಚೇತನಗಳಲ್ಲಿ
-4.159387	ಚೇತನದ
-4.335478	ಚೇತನಾಚೇತನಗಳಲ್ಲಿ
-4.335478	ಚೈನಾದಿಂದ
-3.937538	ಚೌಕಟ್ಟನ್ನು
-4.159387	ಚೌಕಟ್ಟಿನೊಳಗೆ
-4.335478	ಚ್ಯಾಂಪಿಯನ್
-4.034448	ಚ್ಯಾಂಪಿಯನ್ಷಿಪ್
-4.335478	ಚ್ಯಾಂಪಿಯನ್ಷಿಪ್ಸ್
-4.335478	ಚ್ಯಾಂಪಿಯನ್ಷಿಪ್‌ಗೆ
-4.335478	ಚ್ಯಾಂಪಿಯನ್‌ಶಿಫ್ಸ್‌
-4.335478	ಛಾಯಾಚಿತ್ರ
-4.335478	ಛಾಯಾಚಿತ್ರಗಳ
-4.335478	ಛಾಯಾಚಿತ್ರಗಳು
-4.335478	ಛಾಯಾಚಿತ್ರದ
-4.335478	ಛಾಯಾಚಿತ್ರವೊಂದು
-4.159387	ಛಾಯೆಯ
-4.335478	ಛಾವಣಿಯಾಗುತ್ತದೆ
-4.335478	ಛೇದನವು
-4.335478	ಜಂಗಮಾದಿಗಳು
-4.034448	ಜಂಟಿ
-4.335478	ಜಂತುಹುಳುಗಳನ್ನು
-3.595115	ಜಂಪ್
-4.335478	ಜಂಬುಮಣ್ಣಿನಿಂದ
-4.159387	ಜಗತ್ಕಾರಣವಾದ
-4.335478	ಜಗತ್ತನ್ನು
-3.937538	ಜಗತ್ತಿನ
-4.335478	ಜಗತ್ತಿನಲ್ಲಿ
-4.335478	ಜಗತ್ತಿನಲ್ಲಿರುವ
-4.159387	ಜಗತ್ಪ್ರಸಿದ್ಧ
-4.335478	ಜಗುಲಿಯನ್ನೇರಿ
-4.335478	ಜಟಿಲ
-4.335478	ಜಟಿಲಗೊಂಡು
-4.335478	ಜಟಿಲವಾದ
-4.159387	ಜಡೇಜ
-4.159387	ಜತೆಯಾಗಿ
-3.858357	ಜನ
-3.937538	ಜನಗಣತಿ
-4.335478	ಜನಗಳಿಂದ
-4.335478	ಜನಜನಿತವಾಯಿತು
-4.335478	ಜನನಾಂಗ
-4.335478	ಜನನಾಂಗಳಿರುತ್ತವೆಮನುಷ್ಯ
-4.159387	ಜನಪದನಿವೇಶ
-4.034448	ಜನಪ್ರಿಯ
-4.159387	ಜನಪ್ರಿಯವಾಗಲು
-4.335478	ಜನಪ್ರಿಯವಾದ
-4.034448	ಜನರ
-4.159387	ಜನರನ್ನು
-4.335478	ಜನರಲ್ಲಿ
-4.335478	ಜನರವರೆಗೂ
-4.335478	ಜನರಿಗಾಗಿ
-4.335478	ಜನರಿಗೆ
-4.159387	ಜನರಿದ್ದಾರೆ
-4.159387	ಜನರಿರುವ
-4.034448	ಜನರು
-3.937538	ಜನರೇಟರ್
-3.858357	ಜನವರಿ
-4.335478	ಜನಸಂಖ್ಯೆ
-4.335478	ಜನಸೇವಾಪರ
-4.159387	ಜನಾಂಗ
-4.335478	ಜನಾಂಗಕ್ಕೆ
-4.335478	ಜನಾಂಗಗಳ
-4.335478	ಜನಾಂಗದಲ್ಲಿ
-4.159387	ಜನಾಂಗದವರು
-4.159387	ಜನಾಭಿಪ್ರಾಯ
-4.159387	ಜನಿಸಿದರು
-4.335478	ಜನ್ಮ
-4.335478	ಜನ್ಮಕ್ಕೂ
-4.335478	ಜಪಾನಿನ
-4.335478	ಜಪಾನೀ
-4.159387	ಜಮಖಾನೆ
-4.159387	ಜಮಾಖರ್ಚು
-4.159387	ಜಯಗಳಿಸಿ
-4.335478	ಜಯಪ್ರದವಾಗಿ
-4.159387	ಜರಾಯುಜಗಳಲ್ಲಿ
-3.858357	ಜರ್ಮನಿ
-4.159387	ಜರ್ಮನ್
-4.335478	ಜರ್ಮೈನಲ್
-3.937538	ಜಲ
-4.335478	ಜಲಗಳಿಗೂ
-4.335478	ಜಲಚಕ್ರ
-4.335478	ಜಲಜ
-4.335478	ಜಲಜನಕ
-4.159387	ಜಲಜಶಿಲೆಗಳು
-4.159387	ಜಲದೇವತೆ
-4.335478	ಜಲದೇವತೆಗಳೂ
-4.335478	ಜಲದೊಳಗೆ
-4.159387	ಜಲಧರ
-4.159387	ಜಲನೌಕೆಗಳು
-4.034448	ಜಲಮಟ್ಟ
-4.335478	ಜಲಮಟ್ಟದ
-4.159387	ಜಲರಾಶಿಯಲ್ಲ
-4.159387	ಜಲವನ್ನು
-4.159387	ಜಲವಾಹಕ
-4.335478	ಜಲವಿಜ್ಞಾನದಲ್ಲಿ
-4.335478	ಜಲಸೈನಿಕರು
-4.159387	ಜವಾಬ್ದಾರ
-4.159387	ಜವಾಬ್ದಾರಿ
-4.159387	ಜವಾಬ್ದಾರಿಗಳಿಗೆ
-4.335478	ಜವಾಬ್ದಾರಿಯನ್ನು
-4.335478	ಜವಾರಿ
-4.335478	ಜವೆಗೋದಿಯ
-4.335478	ಜಸ್ಟೈಐಸ್ಲ್
-4.159387	ಜಾಗಗಳ
-4.335478	ಜಾಗಗಳಲ್ಲಂತೂ
-4.159387	ಜಾಗಗಳಲ್ಲಿ
-3.79141	ಜಾಗತಿಕ
-4.335478	ಜಾಗತಿಕವಾಗಿ
-4.159387	ಜಾಗತೀಕರಣದ
-4.335478	ಜಾಗವನ್ನು
-4.159387	ಜಾಗವಿರುವಷ್ಟು
-4.159387	ಜಾಗವಿಲ್ಲ
-4.159387	ಜಾತಿಯ
-4.335478	ಜಾತಿಯವರಾದರು
-4.034448	ಜಾತ್ರೆ
-4.335478	ಜಾನ್
-4.159387	ಜಾಮ್
-3.937538	ಜಾಯಿಂಟ್
-4.159387	ಜಾರವ
-4.335478	ಜಾರಿ
-4.034448	ಜಾರಿಗೆ
-4.335478	ಜಾರಿಗೊಳಿಸುತ್ತದೆ
-4.335478	ಜಾರಿಗೊಳಿಸುತ್ತವೆ
-4.335478	ಜಾರಿಸುವ
-4.335478	ಜಾರುವಿಕೆ
-4.335478	ಜಾರ್ಜ್
-3.858357	ಜಾಲಗಳ
-4.335478	ಜಾಲದ
-4.159387	ಜಾಲದ್ವಾರಗಳಲ್ಲಿಯೇ
-4.034448	ಜಾಲಪುಟಗಳ
-4.335478	ಜಾಲಪುಟಗಳನ್ನು
-4.335478	ಜಾಲಮಧ್ಯವರ್ತಿಯ
-4.335478	ಜಾಲಯಾಂತ್ರಿಕ
-4.335478	ಜಾಲರಿ
-4.034448	ಜಾಲರಿಯ
-4.034448	ಜಾಲರಿಯನ್ನು
-4.335478	ಜಾಲಶೋಧನಾ
-4.335478	ಜಾಲಸಂಚಾರಿಗೆ
-4.335478	ಜಾಲಸಂಚಾರಿಯು
-4.335478	ಜಾಸ್ತಿ
-4.159387	ಜಾಹೀರಾತುಗಳ
-3.733418	ಜಿ
-4.159387	ಜಿಂಬಾಂಬ್ವೆಗೆ
-4.335478	ಜಿಗಿತದ
-4.335478	ಜಿನೀವ
-3.858357	ಜಿನುಗಿ
-4.335478	ಜಿನುಗುನೀರು
-4.335478	ಜಿನುಗುವ
-4.159387	ಜಿನುಗುವುದು
-3.733418	ಜಿಲ್ಲೆ
-3.636508	ಜಿಲ್ಲೆಯ
-4.159387	ಜಿಲ್ಲೆಯಲ್ಲಿ
-4.335478	ಜಿವುಗಳ
-4.335478	ಜೀರ್ಣಗೊಂಡಂತೆ
-4.159387	ಜೀರ್ಣವಾಗುತ್ತದೆ
-4.159387	ಜೀವಂತಿಕೆಯ
-4.335478	ಜೀವಕಣಗಳ
-4.034448	ಜೀವಕಣಗಳು
-4.335478	ಜೀವಕಣದ
-4.335478	ಜೀವಕಣದಂತೆಯೇ
-4.335478	ಜೀವಕಣದಲ್ಲಿ
-4.335478	ಜೀವಕೋಶಗಳನ್ನು
-4.335478	ಜೀವದ್ರವ್ಯ
-3.937538	ಜೀವನ
-4.335478	ಜೀವನಕ್ಕೆ
-4.335478	ಜೀವನದ
-4.159387	ಜೀವನಾಧಾರ
-4.335478	ಜೀವನಿಗೆ
-4.159387	ಜೀವನು
-4.335478	ಜೀವರುಗಳನ್ನು
-4.159387	ಜೀವರುಗಳಲ್ಲಿ
-4.335478	ಜೀವರುಗಳಿಗೆ
-4.335478	ಜೀವಶಾಸ್ತ್ರ
-4.335478	ಜೀವಶಾಸ್ತ್ರದ
-4.335478	ಜೀವಾಣುವನ್ನು
-4.034448	ಜೀವಾತ್ಮ
-4.335478	ಜೀವಾತ್ಮನನ್ನು
-3.937538	ಜೀವಿಗಳ
-4.335478	ಜೀವಿತಾವಧಿಯ
-4.335478	ಜೀವಿಯಿಂದ
-4.335478	ಜೀವಿಸಬಲ್ಲದು
-4.335478	ಜೀವಿಸಲು
-3.937538	ಜುಲೈ
-4.335478	ಜುಲೈಅಕ್ಟೋಬರ್
-4.034448	ಜುಲೈನಲ್ಲಿ
-4.159387	ಜೂಜಿನ
-4.335478	ಜೂರಿಸ್ಡಿಕಶನ್
-4.335478	ಜೆ
-4.159387	ಜೈನ
-4.159387	ಜೈನಧರ್ಮದಲ್ಲಿ
-4.335478	ಜೈನಯತಿಗಳು
-4.159387	ಜೈರೋಸ್ಕೋಪ್
-4.034448	ಜೈವಿಕ
-4.159387	ಜೈವಿಕರಾಸಾಯನಿಕ
-4.159387	ಜೊತೆ
-3.256297	ಜೊತೆಗೆ
-3.733418	ಜೊತೆಯಲ್ಲಿ
-4.335478	ಜೊತೆಯಲ್ಲೇ
-4.335478	ಜೋಗಿಯ
-4.159387	ಜೋಡಣಾ
-4.335478	ಜೋಡಣೆ
-4.335478	ಜೋಡಣೆಯು
-4.335478	ಜೋಡಿಗಳಂತೆ
-4.159387	ಜೋಡಿತಂತಿಗಳನ್ನು
-4.335478	ಜೋಡಿಸಲಾಗಲಿಲ್ಲ
-4.159387	ಜೋಡಿಸಲಾಗಿರುತ್ತದೆ
-4.159387	ಜೋಡಿಸಲಾದ
-4.159387	ಜೋಡಿಸಲು
-4.335478	ಜೋಡಿಸುತ್ತದೆ
-4.335478	ಜೋಡಿಸುವುದು
-4.335478	ಜೋಳದ
-4.335478	ಜ್ಞಾನ
-4.335478	ಜ್ಞಾನಗಳಲ್ಲಿ
-4.159387	ಜ್ಞಾನದ
-4.335478	ಜ್ಞಾನದಿಂದ
-4.335478	ಜ್ಞಾನದೊಡನೆ
-4.159387	ಜ್ಞಾನಭಂಡಾರಕ್ಕೆ
-4.335478	ಜ್ಞಾನವನ್ನು
-4.159387	ಜ್ಞಾನವು
-4.159387	ಜ್ಞಾನವೃದ್ಧಿಯ
-4.335478	ಜ್ನಾನವನ್ನು
-4.034448	ಜ್ಯೋತಿ
-4.159387	ಜ್ಯೋತಿಯನ್ನು
-4.335478	ಜ್ವಲಿಸುವ
-4.159387	ಜ್ವೆಜ್ದ
-4.335478	ಟನ್
-4.335478	ಟಪಾಲನ್ನು
-4.335478	ಟಪಾಲಿನ
-4.159387	ಟಪಾಲು
-4.335478	ಟಪಾಲುಗಳ
-4.034448	ಟರ್ಬೈನ್
-4.335478	ಟಾರು
-3.595115	ಟಿ
-4.159387	ಟಿಚ್ನರನ
-4.335478	ಟಿಚ್ನರ್
-4.335478	ಟಿಪ್ಪಣಿಗಳು
-4.335478	ಟಿಮ್
-4.159387	ಟಿಷ್ಯೂಗಳನ್ನು
-4.335478	ಟಿಸಿಪಿಐಪಿ
-4.335478	ಟೀಕಾಕಾರರು
-4.159387	ಟೀಕಿಸಲಾಗಿದೆ
-4.335478	ಟೀಕೆಗಳ
-4.159387	ಟೀಕೆಗಳಿಗೆ
-4.159387	ಟೂತ್
-4.034448	ಟೆಕ್ನಾಲಜಿ
-4.335478	ಟೆಕ್ನಾಲಜಿಗಳೂ
-4.335478	ಟೆನಿಸ್
-3.937538	ಟೈಮ್
-4.159387	ಟೋರಿನೊ
-4.159387	ಟ್ರಯಲ್
-3.937538	ಟ್ರಸ್
-4.335478	ಟ್ರಾಂವೇ
-4.335478	ಟ್ರಾಂವೇಗಳನ್ನು
-3.858357	ಟ್ರಿಪಲ್
-4.159387	ಟ್ರೆಡ್
-4.335478	ಟ್ರ್ಯಾಂಕ್ವಾಲಿಟಿ
-4.335478	ಟ್ರ್ಯಾಂಕ್ವಿಲಿಟಿ
-3.937538	ಠೇವಣಿ
-4.335478	ಡಚ್
-4.159387	ಡಯಗ್ನಾಸ್ಟಿಕ್
-4.159387	ಡಾಕಿಂಗ್
-4.159387	ಡಾಕ್ಟರೇಟ್
-4.335478	ಡಾಲರುಗಳಷ್ಟು
-4.159387	ಡಾಲರ್
-3.733418	ಡಿ
-4.159387	ಡಿಆರ್ಬಿಟ್
-4.335478	ಡಿಕ್ಕಿ
-4.335478	ಡಿಕ್ಲರೇಶನ್ಸ್
-3.79141	ಡಿಗ್ರಿ
-3.858357	ಡಿಜಿಟಲ್
-4.335478	ಡಿನೊರ್ವಿಗ್
-4.335478	ಡಿಸಿ
-4.335478	ಡಿಸೆಂಬರ್
-4.159387	ಡಿಸ್ಕವರಿ
-4.159387	ಡೀಸಲ್
-4.159387	ಡೀಸೆಲ್
-4.335478	ಡೆ
-4.335478	ಡೆಲ್ಫ್ಟ್
-3.937538	ಡೇಟಾ
-4.335478	ಡೇವಿಡ್
-4.335478	ಡೈ
-4.335478	ಡೊಂಕಾಗುತ್ತಾ
-4.335478	ಡೋಲಮೆಟಿಕ್
-4.159387	ಡೌಗ್ಲಾಸ್
-4.159387	ಡ್ಯಾಂ
-4.335478	ಡ್ಯೂಟೋಪ್ಲಾಸಮ್
-4.335478	ಡ್ರಾಯರ್
-4.159387	ಡ್ರೈವ್
-4.159387	ತಂಡ
-4.335478	ತಂಡಕ್ಕೆ
-3.937538	ತಂಡಗಳು
-4.335478	ತಂಡದ
-3.858357	ತಂಡದಲ್ಲಿ
-4.335478	ತಂಡವನ್ನು
-4.034448	ತಂತ್ರ
-4.335478	ತಂತ್ರಗಳ
-4.335478	ತಂತ್ರಗಳನ್ನನುಸರಿಸಿದುದರಿಂದ
-4.159387	ತಂತ್ರಗಳಿಗೆ
-4.335478	ತಂತ್ರಜ್ಙಾನದಲ್ಲಿ
-4.335478	ತಂತ್ರಜ್ಞದ
-4.335478	ತಂತ್ರಜ್ಞಾನ
-4.034448	ತಂತ್ರಜ್ಞಾನಗಳು
-4.335478	ತಂತ್ರಜ್ಞಾನದಲ್ಲೂ
-4.034448	ತಂತ್ರಜ್ಞಾನವನ್ನು
-4.335478	ತಂತ್ರಜ್ಞಾನವು
-4.159387	ತಂತ್ರದಲ್ಲಿ
-4.159387	ತಂದನೆಂದು
-4.335478	ತಂದರು
-4.034448	ತಂದಾಗ
-4.159387	ತಂದುಕೊಟ್ಟಿತು
-4.335478	ತಂದುಕೊಳ್ಳುವ
-4.159387	ತಂದೆ
-4.335478	ತಂದೆಗೆ
-4.335478	ತಂದೆಯಿಂದ
-4.335478	ತಂದೆಯಿಂದಲೇ
-4.159387	ತಂದೋ
-4.335478	ತಕ್ಕ
-3.937538	ತಕ್ಕಂತೆ
-4.335478	ತಕ್ಷಣದ
-4.159387	ತಕ್ಷಣವೇ
-4.335478	ತಕ್ಷಶಿಲೆಯ
-4.335478	ತಕ್ಷಶಿಲೆಯಲ್ಲಿಯೇ
-4.159387	ತಗಲುತ್ತದೆ
-4.335478	ತಗುಲಿದರೆ
-4.159387	ತಗುಲಿಯೋ
-3.522565	ತಗ್ಗಿದ
-4.159387	ತಗ್ಗಿನ
-4.335478	ತಗ್ಗಿಸಬಲ್ಲವು
-4.159387	ತಗ್ಗಿಸಲಾಗಿದೆ
-4.335478	ತಗ್ಗಿಸಲಾಗುತ್ತದೆ
-4.335478	ತಗ್ಗಿಸುವುದು
-4.335478	ತಗ್ಗು
-4.159387	ತಗ್ಗುಗಳೆಲ್ಲ
-4.159387	ತಜ್ಞ
-4.335478	ತಜ್ಞತೆಗೆ
-4.335478	ತಟ್ಟೆಗಳ
-4.335478	ತಟ್ಟೆಗಳಲ್ಲಿಟ್ಟು
-4.335478	ತಟ್ಟೆಯಲ್ಲಿ
-4.159387	ತಟ್ಟೆಯಲ್ಲಿಡುತ್ತಾರೆ
-3.937538	ತಡವಾಗಿ
-4.335478	ತಡೆಗಟ್ಟಬಹುದು
-4.335478	ತಡೆಗಟ್ಟಲಾಗಿದೆ
-3.858357	ತಡೆಗಟ್ಟಲು
-4.335478	ತಡೆಗಟ್ಟುವ
-4.335478	ತಡೆದುಕೊಳ್ಳುವಂತೆ
-4.159387	ತಡೆಯಬಲ್ಲದು
-4.335478	ತಡೆಯಲು
-4.335478	ತಡೆಯುಂಟು
-4.335478	ತಡೆಯುತ್ತಿತ್ತು
-4.034448	ತಡೆಯುವುದು
-4.335478	ತಡೆಯೊಡ್ಡಿತು
-4.335478	ತಡೆಹಿಡಿಯಲು
-3.937538	ತತ್ತಿ
-4.159387	ತತ್ತ್ವಗಳನ್ನು
-4.335478	ತತ್ತ್ವಜ್ಞರು
-4.335478	ತತ್ತ್ವಜ್ಞಾನಿಗಳು
-3.858357	ತತ್ತ್ವವನ್ನು
-4.335478	ತತ್ತ್ವಶಾಸ್ತ್ರಜ್ಞರು
-4.034448	ತತ್ತ್ವಶಾಸ್ತ್ರದಲ್ಲಿ
-4.335478	ತತ್ವಗಳೂ
-4.335478	ತತ್ವಜ್ಞಾನಿಗಳ
-4.335478	ತತ್ವಜ್ಞಾನಿಗಳು
-4.335478	ತತ್ವಜ್ನಾನಿ
-3.937538	ತತ್ವವನ್ನು
-4.335478	ತತ್ಸಮವಾದ
-4.335478	ತನಕ
-3.733418	ತನಗೆ
-4.159387	ತನುವನ್ನು
-2.837167	ತನ್ನ
-4.335478	ತನ್ನತ್ತ
-3.79141	ತನ್ನದೇ
-4.335478	ತನ್ನಿಂದ
-4.159387	ತನ್ನೆಲ್ಲ
-4.159387	ತನ್ಮೂಲಕ
-4.159387	ತಪಾಸಣಾ
-4.159387	ತಪಾಸಣೆ
-4.335478	ತಪ್ಪಾಗಿ
-4.159387	ತಪ್ಪಿ
-4.335478	ತಪ್ಪಿತು
-4.335478	ತಪ್ಪಿದರೂ
-4.335478	ತಪ್ಪಿಸಬಹುದು
-4.335478	ತಪ್ಪಿಸಿ
-4.159387	ತಪ್ಪಿಸುತ್ತದೆ
-4.159387	ತಪ್ಪಿಸುವ
-4.159387	ತಪ್ಪಿಹೋದ
-4.335478	ತಪ್ಪುಗಳನ್ನು
-4.335478	ತಪ್ಪೇನಲ್ಲ
-4.034448	ತಮಗೆ
-4.159387	ತಮಿಳುನಾಡಿನ
-3.034448	ತಮ್ಮ
-3.858357	ತಮ್ಮದೇ
-3.858357	ತಮ್ಮನ್ನು
-4.159387	ತಯಾರಕವಾಗಿದೆ
-4.034448	ತಯಾರಿಕೆಗೆ
-4.034448	ತಯಾರಿಕೆಯ
-3.79141	ತಯಾರಿಕೆಯಲ್ಲಿ
-4.034448	ತಯಾರಿಸಬಹುದು
-3.937538	ತಯಾರಿಸಲು
-4.159387	ತಯಾರಿಸಿದ
-3.937538	ತಯಾರಿಸುತ್ತಾರೆ
-4.159387	ತಯಾರಿಸುವ
-4.335478	ತರಕಾರಿ
-4.335478	ತರಗತಿ
-4.335478	ತರಗತಿಗಳನ್ನು
-4.335478	ತರಗತಿಯಲ್ಲಿದೆ
-4.034448	ತರದ
-4.335478	ತರಬಹುದು
-4.034448	ತರಬೇಕೆಂದು
-3.79141	ತರಬೇತಿ
-4.335478	ತರಬೇತಿಪಡೆಯುತ್ತಿದ್ದಾರೆ
-4.335478	ತರಬೇತಿಯನ್ನು
-4.335478	ತರಬೇತುದಾರರಾಗಲು
-4.335478	ತರಬೇತುದಾರರಾದ
-4.335478	ತರಬೇತುದಾರರಿಂದಾಗಿ
-4.335478	ತರಲು
-4.159387	ತರವಣಿವಾಲನ
-4.159387	ತರುವ
-4.034448	ತರುವಾಯ
-4.335478	ತರುವುದಕ್ಕೆ
-4.159387	ತರ್ಕಶಾಸ್ತ್ರದಲ್ಲಿನ
-4.159387	ತಲಪಿದೆ
-4.335478	ತಲಸ್ಥರದಲ್ಲಿ
-4.335478	ತಲುಪಲು
-4.335478	ತಲುಪಿತು
-4.159387	ತಲುಪಿದ
-3.937538	ತಲುಪಿದ್ದೀರಿ
-3.937538	ತಲುಪಿಸಲಾಯಿತು
-4.335478	ತಲುಪಿಸಿತು
-4.335478	ತಲುಪಿಸುವ
-4.335478	ತಲುಪುತಿದ್ದು
-3.937538	ತಲುಪುತ್ತೀರಿ
-4.159387	ತಲುಪುವುದಿಲ್ಲ
-4.335478	ತಲೆಕಟ್ಟಿಲ್ಲದ
-4.335478	ತಲೆಗೆ
-4.335478	ತಲೆದೋರುತ್ತವೆ
-4.335478	ತಲೆದೋರುತ್ತಿರುವ
-4.335478	ತಲೆಯ
-4.159387	ತಳಕ್ಕೆ
-4.335478	ತಳಭಾಗ
-4.335478	ತಳಭಾಗಕ್ಕಿಂತ
-4.335478	ತಳಭಾಗಕ್ಕೆ
-4.335478	ತಳಭಾಗದಲ್ಲಿ
-4.034448	ತಳಹದಿಯನ್ನು
-4.034448	ತಳಿ
-4.159387	ತಳಿಗಳು
-4.159387	ತಳಿಗಿಂತ
-4.335478	ತಳಿಯ
-3.858357	ತಳಿಯನ್ನು
-4.034448	ತಳಿಯಾಗಿ
-4.335478	ತಳ್ಳಿದ್ದರಿಂದ
-4.335478	ತಳ್ಳಿಹಾಕುವಿಕೆಯೂ
-4.159387	ತಳ್ಳುವುದು
-4.335478	ತವರದ
-4.335478	ತವರು
-4.335478	ತವರೂರಾಗಿದೆ
-4.335478	ತವರೂರು
-3.460417	ತಾಂತ್ರಿಕ
-4.335478	ತಾಂತ್ರಿಕತೆಯ
-4.335478	ತಾಣಗಳ
-4.159387	ತಾಣದ
-4.335478	ತಾಣದಲ್ಲಿನ
-4.159387	ತಾತ್ಕಾಲಿಕ
-4.335478	ತಾತ್ತ್ವಿಕ
-4.335478	ತಾತ್ವಿಕವಾಗಿ
-3.557327	ತಾನು
-4.335478	ತಾಮ್ರ
-4.159387	ತಾಮ್ರದ
-4.335478	ತಾಯಿ
-4.335478	ತಾಯಿಗಿಡದಿಂದ
-4.034448	ತಾಯಿಯ
-4.159387	ತಾರೀಖನ್ನು
-4.335478	ತಾರೀಖಿನ
-4.159387	ತಾರ್ಕಿಕ
-4.159387	ತಾಲೂಕು
-3.682266	ತಾಲ್ಲೂಕಿನ
-4.034448	ತಾಲ್ಲೂಕಿನಲ್ಲಿದೆ
-4.335478	ತಾಳಿ
-4.335478	ತಾಳಿದವು
-3.937538	ತಾಳುತ್ತದೆ
-4.335478	ತಾವಾಗಿಯೇ
-4.034448	ತಾವು
-4.159387	ತಿಂಗಳ
-3.937538	ತಿಂಗಳಲ್ಲೂ
-4.159387	ತಿಂಗಳಿಗೆ
-4.159387	ತಿಂಗಳಿಗೊಮ್ಮೆ
-4.159387	ತಿಂಗಳು
-4.335478	ತಿಂಗಳುಗಳ
-4.034448	ತಿಂಗಳುಗಳಲ್ಲೂ
-4.034448	ತಿಂಡಿ
-4.335478	ತಿಂದು
-4.335478	ತಿದ್ದುವಿಕೆಯನ್ನು
-4.335478	ತಿನ್ನಲಾಗುತ್ತದೆ
-4.159387	ತಿನ್ನಲು
-4.159387	ತಿನ್ನುವುದರಿಂದ
-4.335478	ತಿರಸ್ಕರಿಸಬಹುದಾಗಿದೆ
-3.460417	ತಿರುಗಿ
-4.335478	ತಿರುಗಿದುದರಿಂದ
-4.335478	ತಿರುಗಿಸಲು
-4.159387	ತಿರುಗುತ್ತದೆ
-4.159387	ತಿರುಗುತ್ತವೆ
-4.159387	ತಿರುಳನ್ನು
-4.159387	ತಿರುಳು
-3.79141	ತಿರುವು
-4.159387	ತಿರುವುಮುರುವಾಗಿ
-4.159387	ತಿಳಿದಿದ್ದ
-4.335478	ತಿಳಿದಿರುತ್ತದೆ
-4.335478	ತಿಳಿದಿರುವಂತೆ
-4.159387	ತಿಳಿದಿಲ್ಲ
-4.034448	ತಿಳಿದು
-4.335478	ತಿಳಿದುಬಂದಿದೆ
-4.335478	ತಿಳಿದುಬರುತ್ತದೆ
-4.335478	ತಿಳಿಯಪಡಿಸುವುದು
-4.335478	ತಿಳಿಯಬಹುದಾಗಿದೆ
-4.335478	ತಿಳಿಯಲಾಗಿದೆ
-4.335478	ತಿಳಿಯಲಾರರು
-4.335478	ತಿಳಿಯಲು
-4.159387	ತಿಳಿಯುವುದು
-4.335478	ತಿಳಿಯುವುದೇನಿದೆ
-4.159387	ತಿಳಿವಳಿಕೆಯ
-3.937538	ತಿಳಿವಿಗೆ
-4.335478	ತಿಳಿಸಿ
-4.159387	ತಿಳಿಸಿದನು
-4.335478	ತಿಳಿಸುತ್ತದೆ
-4.335478	ತಿಳಿಸುತ್ತವೆ
-4.335478	ತಿಳಿಸುವ
-4.335478	ತಿಳುವಳಿಕೆ
-4.335478	ತೀಕ್ಷ್ಣವಾಗಿರುವುದಿಲ್ಲ
-3.636508	ತೀರ
-4.159387	ತೀರದಲ್ಲಿ
-4.335478	ತೀರಪ್ರದೇಶ
-4.335478	ತೀರಪ್ರದೇಶದಲ್ಲಿ
-4.335478	ತೀರಾ
-4.335478	ತೀರಿಸಬಹುದಾದ
-3.858357	ತೀರುವೆ
-4.159387	ತೀರ್ಥಹಳ್ಳಿಯ
-4.335478	ತೀರ್ಪನ್ನೂ
-3.937538	ತೀರ್ಪುಗಳನ್ನು
-4.335478	ತೀರ್ಪುಗಳು
-4.159387	ತೀರ್ಮಾನಗಳನ್ನು
-4.335478	ತೀರ್ಮಾನಿಸಲಾಯಿತು
-4.159387	ತೀವ್ರ
-4.335478	ತೀವ್ರತರ
-4.335478	ತೀವ್ರತರದಲ್ಲಿ
-3.937538	ತೀವ್ರತೆಯ
-4.335478	ತೀವ್ರತೆಯನ್ನು
-4.159387	ತೀವ್ರತೆರನಾದ
-4.335478	ತೀವ್ರವಾಗಿರಲಿಲ್ಲ
-4.335478	ತೀವ್ರವಾದ
-4.335478	ತುಂಡುಗಳಾಗಿರುವ
-3.595115	ತುಂಬ
-4.335478	ತುಂಬಾ
-4.335478	ತುಂಬಿಕೊಂಡಿವೆ
-4.335478	ತುಂಬಿದ
-4.159387	ತುಂಬಿದ್ದಾನೆ
-4.159387	ತುಂಬಿಹೋಗಿ
-4.335478	ತುಂಬುತ್ತಾರೆ
-4.335478	ತುಂಬುವುದಕ್ಕೂ
-4.335478	ತುಣುಕಿನ
-4.159387	ತುಣುಕುಗಳು
-4.335478	ತುತ್ತ
-4.335478	ತುತ್ತಾಗುವ
-4.159387	ತುದಿಯಲ್ಲಿ
-4.335478	ತುದಿಯಲ್ಲಿದ್ದರೆ
-4.159387	ತುದಿಯು
-4.159387	ತುನೇಶಿಯಾ
-3.858357	ತುರ್ತು
-4.159387	ತುರ್ತುಪರಿಸ್ಥಿತಿ
-3.79141	ತುಲನಾತ್ಮಕ
-4.335478	ತುಲನಾತ್ಮಕವಾಗಿ
-4.159387	ತುಸುಹಳದಿ
-4.335478	ತೂಕ
-4.335478	ತೂಕಗಳನ್ನು
-4.159387	ತೂಕದ
-4.159387	ತೂಕರಹಿತ
-4.159387	ತೂತು
-4.159387	ತೂರಿಕೊಳ್ಳುತ್ತವೆ
-3.636508	ತೃತೀಯ
-4.335478	ತೃಪ್ತಿ
-4.159387	ತೆಂಗಿನ
-4.034448	ತೆಂಗಿನಕಾಯಿ
-3.733418	ತೆಗೆದು
-4.335478	ತೆಗೆದುಕೊಳ್ಳಲಾಗುತ್ತದೆ
-3.256297	ತೆಗೆದುಕೊಳ್ಳಿ
-3.858357	ತೆಗೆದುಕೊಳ್ಳುತ್ತದೆ
-4.335478	ತೆಗೆದುಕೊಳ್ಳುತ್ತಾರೆ
-4.159387	ತೆಗೆದುಕೊಳ್ಳುವುದಿಲ್ಲ
-4.159387	ತೆಗೆದುಕೊಳ್ಳುವುದು
-4.159387	ತೆಗೆದುಕೊಳ್ಳೋಣ
-4.335478	ತೆಗೆದುಹಾಕಲಾಗದ
-4.335478	ತೆಗೆದುಹಾಕಲಾಗುತ್ತದೆ
-4.335478	ತೆಗೆದುಹಾಕಿತು
-4.335478	ತೆಗೆದುಹಾಕಿದ
-4.335478	ತೆಗೆಯಬೇಕು
-4.335478	ತೆಗೆಯಲಾಗುವುದು
-3.858357	ತೆಗೆಯುವ
-4.159387	ತೆಗೆಯುವುದು
-4.335478	ತೆಗ್ಗಿನ
-4.159387	ತೆರನಾದ
-4.335478	ತೆರಪುಗಳಿರುವುದರಿಂದ
-4.335478	ತೆರಿಗೆಗಳನ್ನು
-4.159387	ತೆರಿಗೆದಾರರನ್ನೂ
-4.335478	ತೆರಿಗೆಯನ್ನು
-4.159387	ತೆರೆದ
-4.335478	ತೆರೆದಿದೆ
-4.335478	ತೆರೆದಿದ್ದು
-4.159387	ತೆರೆದಿರುವ
-4.159387	ತೆರೆದು
-4.335478	ತೆರೆದುಕೊಳ್ಳುತ್ತದೆ
-4.159387	ತೆಳು
-4.335478	ತೆಳ್ಳಗಿದ್ದರೆ
-4.335478	ತೇಜಸ್ವಿಯಾಗಿದೆ
-4.159387	ತೇಜಸ್ಸಿನಿಂದ
-4.335478	ತೇಜಸ್ಸು
-4.335478	ತೇಜಿ
-4.335478	ತೇಜೋರೂಪಿ
-4.159387	ತೇಲಾಡುತ್ತ
-4.335478	ತೇಲಿಹೋಗದಂತೆ
-4.159387	ತೇಲಿಹೋಗುವ
-4.159387	ತೇಲುವ
-4.159387	ತೇಲುವಾಗ
-4.159387	ತೈಲಲೇಪನ
-4.335478	ತೈಲೋತ್ಪಾದನೆ
-3.937538	ತೊಂದರೆ
-3.79141	ತೊಂದರೆಗಳನ್ನು
-4.335478	ತೊಂದರೆಗಳಿಗೆ
-4.159387	ತೊಂದರೆಗಳು
-4.159387	ತೊಂದರೆಗೊಳಗಾಗಿರುವ
-4.335478	ತೊಂದರೆಗೊಳಗಾದ
-4.335478	ತೊಂದರೆಯಾಯಿತು
-4.159387	ತೊಂದರೆಯುಂಟಾಗಲಿಲ್ಲ
-4.335478	ತೊಂಬತೈದು
-4.159387	ತೊಂಬತ್ತ
-4.159387	ತೊಂಬತ್ತನಾಲ್ಕರಲ್ಲಿ
-4.335478	ತೊಂಬತ್ತರ
-4.335478	ತೊಂಬತ್ತರಲ್ಲಿ
-4.335478	ತೊಂಬತ್ತಾರರ
-3.858357	ತೊಂಬತ್ತು
-4.159387	ತೊಂಬತ್ತೆಂಟರಲ್ಲಿ
-4.335478	ತೊಂಬತ್ತೆಂಟರಿಂದ
-4.335478	ತೊಂಬತ್ತೆರಡರ
-4.159387	ತೊಂಬತ್ತೊಂದರಲ್ಲಿ
-4.034448	ತೊಗಟೆ
-4.159387	ತೊಟ್ಟು
-4.335478	ತೊಡಕು
-4.335478	ತೊಡಕುಗಳು
-4.335478	ತೊಡಗಬೇಕಾಗಿದೆ
-4.335478	ತೊಡಗಿತ್ತು
-4.335478	ತೊಡಗಿರುವ
-4.034448	ತೊಡಗಿಸುವುದು
-4.335478	ತೊಡೂರು
-4.159387	ತೊಡೆಯೆಲುಬಿನ
-3.595115	ತೊಡೆಸಂದಿಯ
-4.159387	ತೊರೆದು
-4.335478	ತೊರೆಯು
-4.159387	ತೊಳೆಯುವುದಕ್ಕಿಂತ
-4.159387	ತೊಳೆಯುವುದು
-4.159387	ತೋಟಗಾರಿಕೆಯಾಗಿದೆ
-4.335478	ತೋಡು
-4.335478	ತೋಪಿನ
-4.159387	ತೋರಿದ
-4.335478	ತೋರಿದಾರೆ
-4.335478	ತೋರಿಸಲಾಗುತ್ತದೆ
-4.335478	ತೋರಿಸಲು
-4.335478	ತೋರಿಸಿಕೊಟ್ಟಿದ್ದಾರೆ
-4.335478	ತೋರಿಸಿಕೊಡುವುದಕ್ಕೆಂದೇ
-4.159387	ತೋರಿಸಿದಂತೆ
-4.335478	ತೋರಿಸಿದಾಗ
-4.159387	ತೋರಿಸಿದೆ
-3.937538	ತೋರುತ್ತದೆ
-4.159387	ತೋಳ
-4.335478	ತ್ಯಜಿಸಲಾಗುತ್ತದೆ
-4.335478	ತ್ಯಜಿಸಿ
-4.335478	ತ್ಯಜಿಸುವ
-4.159387	ತ್ಯಾಗ
-3.79141	ತ್ಯಾಜ್ಯ
-3.858357	ತ್ಯಾಜ್ಯವನ್ನು
-4.159387	ತ್ರಿಕರಣಶುದ್ಧಿಯಿಂದ
-4.159387	ತ್ರಿಪದಿಗಳು
-4.335478	ತ್ರಿಪಿಟಕಗಳಲ್ಲಿ
-4.335478	ತ್ರಿಪಿಟಕದಲ್ಲಿ
-4.335478	ತ್ರಿಮುಖಗಳಿವೆ
-4.335478	ತ್ವರಿತಗತಿಯಿಂದ
-4.159387	ತ್ವರಿತಗೊಳಿಸಿ
-3.595115	ದ
-3.858357	ದಂಡ
-4.335478	ದಂಡೆಯ
-4.335478	ದಂತಹ
-4.335478	ದಕ್ಷತೆಯಿಂದ
-4.335478	ದಕ್ಷನಿಂದ
-4.159387	ದಕ್ಷನಿಗೆ
-3.557327	ದಕ್ಷಿಣ
-4.159387	ದಕ್ಷಿಣಕ್ಕಿರುವ
-3.79141	ದಕ್ಷಿಣಕ್ಕೆ
-4.159387	ದಕ್ಷಿಣದ
-4.335478	ದಕ್ಷಿಣದಲ್ಲಿ
-4.159387	ದಟ್ಟ
-4.335478	ದಟ್ಟಣೆಯಾಗಿರುತ್ತದೆ
-4.335478	ದಟ್ಟವಾಗಿರುತ್ತದೆ
-4.159387	ದಟ್ಟವಾದ
-3.79141	ದತ್ತ
-4.159387	ದತ್ತಕೋಶದಲ್ಲಿ
-4.159387	ದತ್ತಗಳು
-4.159387	ದತ್ತಸಂಚಯಗಳು
-4.034448	ದತ್ತಸಂಚಯವನ್ನು
-4.159387	ದತ್ತಸಂಚಯವೊಂದರಲ್ಲಿ
-4.034448	ದತ್ತಾಂಶ
-4.034448	ದತ್ತಾಂಶಗಳ
-3.79141	ದತ್ತಾಂಶಗಳನ್ನು
-4.335478	ದತ್ತಾಂಶಗಳೊಂದಿಗೆ
-3.682266	ದತ್ತಾಂಶವನ್ನು
-4.159387	ದನಕರುಗಳು
-4.159387	ದನಗಳ
-4.335478	ದಪ್ಪ
-4.335478	ದಪ್ಪನಾಗಿರುವ
-4.335478	ದಪ್ಪವಾಗಿರುವ
-3.937538	ದಯವಿಟ್ಟು
-4.034448	ದರ
-4.335478	ದರಗಳನ್ನು
-4.159387	ದರಗಳು
-4.335478	ದರದಲ್ಲಿ
-4.335478	ದರ್ಗಾ
-4.159387	ದರ್ಜೆಯ
-4.159387	ದರ್ಶಕಗಳು
-3.682266	ದಲ್ಲಿ
-4.159387	ದಳ್ಳಾಳಿ
-4.159387	ದವಸ
-4.335478	ದಶಕದ
-4.335478	ದಶಮಾಂಶ
-4.159387	ದಶಮಾಂಶದ
-4.159387	ದಶಮಾನಗಳಿಂದ
-4.159387	ದಶಲಕ್ಷ
-4.159387	ದಹನ
-4.034448	ದಹನಕಾರಿ
-4.335478	ದಾಖಲಾಗಿಲ್ಲ
-4.159387	ದಾಖಲಾದ
-4.335478	ದಾಖಲಿಸಬಹುದು
-4.335478	ದಾಖಲಿಸಿ
-4.335478	ದಾಖಲಿಸುತ್ತಾರೆ
-3.937538	ದಾಖಲೆ
-4.159387	ದಾಖಲೆಗಳ
-4.159387	ದಾಖಲೆಯ
-4.335478	ದಾಟಿ
-4.159387	ದಾಟಿದ
-4.335478	ದಾರವನ್ನು
-4.335478	ದಾರಿ
-4.335478	ದಾರಿತಪ್ಪಿದಲ್ಲಿ
-4.159387	ದಾರಿಯ
-4.159387	ದಾರಿಯಿದೆ
-4.335478	ದಾರ್ಶನಿಕ
-4.335478	ದಾರ್ಶನಿಕರು
-4.335478	ದಾಳಿಗಳಿಗೆ
-4.335478	ದಾಳಿಯಿಂದ
-4.159387	ದಾಳಿಯಿಟ್ಟರೂ
-4.335478	ದಾವೆಗಳನ್ನು
-4.335478	ದಾಶಮಿಕ
-4.335478	ದಿ
-4.335478	ದಿಕ್ಕನ್ನು
-4.335478	ದಿಕ್ಕಿನ
-3.937538	ದಿಕ್ಕಿನಲ್ಲಿ
-4.335478	ದಿಕ್ಕಿನಿಂದ
-3.79141	ದಿನ
-4.335478	ದಿನಕ್ಕೆ
-4.159387	ದಿನಗಳ
-3.858357	ದಿನಗಳಲ್ಲಿ
-4.335478	ದಿನಗಳಲ್ಲೂ
-4.159387	ದಿನಗಳೊಳಗೆ
-4.159387	ದಿನದ
-4.159387	ದಿನದಂದು
-4.335478	ದಿನದಲ್ಲಿ
-4.159387	ದಿನಪತ್ರಿಕೆ
-4.335478	ದಿನವನ್ನ
-4.335478	ದಿನವನ್ನಾಗಿ
-4.034448	ದಿನವನ್ನು
-4.335478	ದಿನವಾಗಿದೆ
-4.335478	ದಿನವೂ
-4.159387	ದಿನವೆಂದು
-4.335478	ದಿನಾಚರಣೆ
-4.335478	ದಿವಸಕ್ಕೊಂದಾವೃತ್ತಿ
-4.159387	ದಿವೋದಾಸನೆಂದೂ
-3.937538	ದಿಶೆಯಲ್ಲಿ
-3.79141	ದೀಪ
-3.937538	ದೀಪಕ್ಕೆ
-4.335478	ದೀಪದಾರಿಗಳು
-4.335478	ದೀಪದೀಪೋಳ್ಗೆ
-4.335478	ದೀಪಧಾರಿಗಳ
-4.159387	ದೀಪಧಾರಿಗಳನ್ನು
-4.335478	ದೀಪಧಾರಿಗಳು
-4.159387	ದೀಪವನ್ನು
-4.159387	ದೀಪಾವಳಿ
-4.335478	ದೀಪಾವಳಿಯ
-4.159387	ದೀಪೋಳ್ಗೆ
-4.335478	ದೀಪ್
-4.335478	ದೀರ್ಘಕಾಲ
-3.79141	ದೀರ್ಘಕಾಲದ
-4.159387	ದೀರ್ಘಕಾಲದವರೆಗೆ
-4.335478	ದೀರ್ಘಕಾಲವಿರುವಂತಹ
-4.335478	ದೀವಳಿಗೆಯ
-4.335478	ದುಂಡಗೆ
-4.335478	ದುಂಡನೆಯ
-4.335478	ದುಂಡಾಗಿರುವ
-4.335478	ದುಂಬಿಗಳು
-4.159387	ದುಃಖಕರವಾಗಿರಿಸಬಹುದು
-4.335478	ದುಗ್ಧಕೋಶದಲ್ಲಿನ
-4.159387	ದುಪ್ಪಟ್ಟು
-4.159387	ದುಬಾರಿಯಲ್ಲದ
-4.159387	ದುರಭಿಮಾನದಿಂದ
-4.335478	ದುರಸ್ತಿ
-4.335478	ದುರಸ್ತಿಕ್ರಮಗಳೆಂದು
-4.034448	ದುರಸ್ತಿಯ
-4.159387	ದುರಸ್ತಿಯನ್ನು
-4.159387	ದುರ್ಘಟನೆಗೆ
-4.159387	ದುರ್ಘಟನೆಯಿಂದಾಗಿ
-3.733418	ದುರ್ಬಲ
-4.159387	ದುರ್ಬಲವಾಗಿದ್ದಲ್ಲಿ
-4.159387	ದುರ್ಬಲವಾದ
-4.335478	ದುರ್ಬಳಕೆ
-4.159387	ದುಷ್ಟಭಾವನೆಗಳನ್ನು
-4.335478	ದುಷ್ಪರಿಣಾಮಗಳನ್ನು
-4.335478	ದುಸ್ಥಿತಿ
-4.335478	ದೂತರಾದ
-4.159387	ದೂತರಿದ್ದಾರೆ
-4.335478	ದೂತಾವಾಸದ
-4.034448	ದೂರ
-4.335478	ದೂರಕೊಂಡೊಯ್ಯುತ್ತದೆ
-4.335478	ದೂರಕ್ಕೆ
-4.159387	ದೂರದರ್ಶನ
-4.335478	ದೂರದಲ್ಲಿ
-4.335478	ದೂರದಲ್ಲಿರುವ
-4.159387	ದೂರದವರೆಗೆ
-4.335478	ದೂರದಿಂದಲೇ
-4.335478	ದೂರನ್ನು
-4.159387	ದೂರವಾಗುತ್ತ
-3.49038	ದೂರವಾಣಿ
-4.335478	ದೂರವಾಣಿಯ
-4.159387	ದೂರವಾದ
-4.335478	ದೂರಸಂಪರ್ಕ
-4.159387	ದೂರಿನ
-4.159387	ದೂರು
-4.335478	ದೂರುದಾರರಿಂದ
-4.335478	ದೃಗ್ಗೋಚರ
-4.159387	ದೃಢತೆ
-4.335478	ದೃಢತೆಗೆ
-4.335478	ದೃಢತೆಯ
-4.159387	ದೃಢತೆಯನ್ನು
-4.335478	ದೃಢಪಡಿಸಿತು
-4.159387	ದೃಢಪಡಿಸುತ್ತದೆ
-4.159387	ದೃಢವಾಗಿ
-4.335478	ದೃಢವಾಗಿಸುತ್ತದೆ
-4.335478	ದೃಢವಾಗುವುದು
-4.335478	ದೃಢವಾಗುವುವು
-4.335478	ದೃಷ್ಟಾಂತವೆಂದರೆ
-4.159387	ದೃಷ್ಟಿಕೋನ
-4.335478	ದೃಷ್ಟಿಯಲ್ಲಿ
-3.937538	ದೃಷ್ಟಿಯಿಂದ
-4.159387	ದೆಸೆಯಿಂದ
-4.159387	ದೆಹಲಿ
-4.335478	ದೇಣೆ
-4.034448	ದೇವತಾ
-3.733418	ದೇವತೆ
-4.159387	ದೇವತೆಗಳಲ್ಲಿ
-4.159387	ದೇವತೆಗಳಿಗೂ
-4.034448	ದೇವತೆಗಳಿಗೆ
-4.159387	ದೇವತೆಗಳು
-4.159387	ದೇವತೆಗೂ
-3.79141	ದೇವತೆಗೆ
-3.937538	ದೇವತೆಯ
-4.335478	ದೇವತೆಯನ್ನು
-3.937538	ದೇವತೆಯಾದ
-4.335478	ದೇವತೆಯೂ
-4.159387	ದೇವರ
-4.159387	ದೇವರು
-4.335478	ದೇವಸ್ಥಾನಕ್ಕೆ
-4.159387	ದೇವಸ್ಥಾನದಲ್ಲಿ
-4.335478	ದೇವಾ
-3.937538	ದೇವಾಲಯ
-3.79141	ದೇವಾಲಯದ
-4.034448	ದೇವಾಲಯದಲ್ಲಿ
-4.159387	ದೇವಾಲಯವನ್ನು
-4.335478	ದೇವಾಲಯವಿದೆ
-4.159387	ದೇವಿ
-4.159387	ದೇವಿಯೇ
-3.79141	ದೇಶ
-4.335478	ದೇಶಕ್ಕೂ
-4.034448	ದೇಶಕ್ಕೆ
-3.858357	ದೇಶಗಳ
-4.335478	ದೇಶಗಳನ್ನು
-3.294085	ದೇಶಗಳಲ್ಲಿ
-4.159387	ದೇಶಗಳಿಂದ
-3.682266	ದೇಶಗಳು
-4.159387	ದೇಶಗಳೊಂದಿಗೆ
-3.117994	ದೇಶದ
-3.460417	ದೇಶದಲ್ಲಿ
-4.335478	ದೇಶದಲ್ಲಿರುವ
-4.335478	ದೇಶದಲ್ಲೇ
-4.159387	ದೇಶದವರ
-4.335478	ದೇಶದಷ್ಟು
-4.335478	ದೇಶದಾದ್ಯಂತ
-4.034448	ದೇಶದಿಂದ
-4.335478	ದೇಶದೊಂದಿಗೆ
-4.335478	ದೇಶವಾಗಿದ್ದಿತು
-3.937538	ದೇಶವು
-4.335478	ದೇಶವೂ
-4.335478	ದೇಶಾದಂತ್ಯ
-4.335478	ದೇಶಾದ್ಯಂತ
-3.682266	ದೇಶೀಯ
-4.159387	ದೇಹ
-4.159387	ದೇಹದ
-4.335478	ದೇಹದಲ್ಲಿ
-4.159387	ದೇಹಪೋಷಣೆಗೆ
-4.335478	ದೇಹಿಗಳ
-4.335478	ದೈನಿಕ
-4.335478	ದೈಹಿಕ
-4.335478	ದೊಂದಿಗೆ
-3.056724	ದೊಡ್ಡ
-4.159387	ದೊಡ್ಡದಾಗಿದೆ
-4.335478	ದೊಡ್ಡದಾದ
-4.159387	ದೊಡ್ಡದಾದಾಗ
-3.937538	ದೊಡ್ಡದು
-4.159387	ದೊಡ್ಡವು
-4.335478	ದೊರಕಬಹುದು
-4.335478	ದೊರಕಿಲ್ಲವಾದರೂ
-4.159387	ದೊರಕಿಸುತ್ತವೆ
-4.335478	ದೊರಕಿಸುವುದು
-3.937538	ದೊರಕುತ್ತವೆ
-4.159387	ದೊರೆ
-4.335478	ದೊರೆತ
-4.335478	ದೊರೆತದ್ದೆಂದು
-4.159387	ದೊರೆತಿದೆ
-4.335478	ದೊರೆಯನ್ನು
-4.159387	ದೊರೆಯಿತು
-3.79141	ದೊರೆಯುತ್ತದೆ
-4.159387	ದೊರೆಯುತ್ತವೆ
-4.335478	ದೊರೆಯುತ್ತವೆಯೋ
-4.159387	ದೊರೆಯುತ್ತಿತ್ತು
-4.159387	ದೊರೆಯುವ
-4.335478	ದೊರೆಯುವವರೆಗೆ
-4.159387	ದೊರೆಯುವುದಿಲ್ಲ
-4.159387	ದೊರೆಯುವುದು
-3.937538	ದೋಣಿಯಲ್ಲಿ
-4.335478	ದೋತ್ರ
-4.159387	ದೋರ
-4.034448	ದೋಷಗಳನ್ನು
-4.335478	ದೋಷಗಳು
-4.335478	ದೋಷಪೂರಿತ
-4.335478	ದೋಷವೊಂದು
-4.335478	ದೋಹಾದಲ್ಲಿ
-4.335478	ದ್ಯಾವಾಪೃಥುವಿಗಳನ್ನೂ
-4.034448	ದ್ಯುತಿ
-3.858357	ದ್ಯುತಿವಿದ್ಯುಜ್ಜನಕ
-4.335478	ದ್ಯುಲೋಕವನ್ನು
-3.937538	ದ್ರವ
-4.159387	ದ್ರವಗಳು
-4.335478	ದ್ರವದಿಂದ
-4.159387	ದ್ರವ್ಯಗಳು
-4.159387	ದ್ರವ್ಯದ
-4.159387	ದ್ರವ್ಯರಾಶಿ
-4.335478	ದ್ರವ್ಯವನ್ನು
-4.159387	ದ್ರಾವಕ
-4.159387	ದ್ರಾವಕವನ್ನು
-4.034448	ದ್ರಾವಣ
-4.335478	ದ್ರಾವಣಗಳ
-4.335478	ದ್ರಾವಣಗಳು
-4.159387	ದ್ರಾವಣರೂಪದಲ್ಲಿ
-4.034448	ದ್ರಾವಣವನ್ನು
-4.335478	ದ್ರುಷ್ಟಿಯಲ್ಲಿ
-3.522565	ದ್ವಿತೀಯ
-4.335478	ದ್ವಿತೀಯಕ
-4.335478	ದ್ವಿಪಕ್ಷೀಯ
-4.159387	ದ್ವಿಪದಿ
-4.335478	ದ್ವಿಲಿಂಗಗಳಾದರೆ
-3.937538	ದ್ವೀಪ
-3.937538	ದ್ವೀಪಗಳ
-4.034448	ದ್ವೀಪಗಳು
-4.159387	ದ್ವೇಷಿಸತೊಡಗಿತು
-3.937538	ಧನ
-4.159387	ಧನಸಂಸ್ಥೆ
-4.335478	ಧನಸಂಸ್ಥೆಯಿಂದ
-3.937538	ಧನಸಹಾಯ
-4.335478	ಧನಾತ್ಮಕವಾದ
-4.159387	ಧನಾದೇಶ
-3.733418	ಧನ್ವಂತರಿ
-4.159387	ಧನ್ವಂತರಿಯೇ
-4.034448	ಧಮನಿ
-4.034448	ಧಮನಿಗಳು
-4.335478	ಧರಿಸುವಂತಿಲ್ಲ
-4.335478	ಧರಿಸುವುದರಿಂದಲೇ
-4.335478	ಧರ್ಮಕ್ಕೆ
-4.335478	ಧರ್ಮಗಳ
-4.335478	ಧರ್ಮಗಳನ್ನು
-4.335478	ಧರ್ಮಚಕ್ಷು
-4.034448	ಧರ್ಮದ
-4.159387	ಧರ್ಮದರ್ಶಿ
-4.159387	ಧರ್ಮದರ್ಶಿಯಾಗಿ
-4.159387	ಧರ್ಮದಲ್ಲಿ
-4.335478	ಧರ್ಮದಷ್ಟೇ
-4.335478	ಧರ್ಮಪ್ರಚಾರಕ
-4.335478	ಧರ್ಮಸೂತ್ರದಲ್ಲಿ
-4.159387	ಧರ್ಮಿಗಳ
-4.159387	ಧಾನ್ಯ
-4.335478	ಧಾರಕಗಳನ್ನು
-4.159387	ಧಾರಕದಲ್ಲಿ
-4.335478	ಧಾರಾಳವಾಗಿ
-4.335478	ಧಾರ್ಮಿಕ
-4.335478	ಧಾಳಿಯಿಂದ
-4.159387	ಧೋರಣೆ
-4.159387	ಧೋರಣೆಗಳು
-4.335478	ಧೋರಣೆಯನ್ನು
-4.335478	ಧ್ಯೇಯಗಳು
-4.335478	ಧ್ರುವ
-4.159387	ಧ್ರುವಗಳಲ್ಲಿ
-4.159387	ಧ್ರುವದ
-4.335478	ಧ್ರುವದತ್ತ
-4.335478	ಧ್ವಂಸಕಾರಕ
-4.335478	ಧ್ವಂಸಮಾಡಿದ್ದಾನೆ
-4.159387	ಧ್ವನಿಯನ್ನಾಗಲಿ
-4.159387	ಧ್ವನಿಯನ್ನಾಗಿ
-3.105029	ನ
-4.159387	ನಂಗಿಲು
-3.145146	ನಂತರ
-3.937538	ನಂತರದ
-3.79141	ನಂತರದಲ್ಲಿ
-4.335478	ನಂತರದಲ್ಲೇ
-4.335478	ನಂತರವು
-4.335478	ನಂತಹ
-4.335478	ನಂದಬಾರದೆಂದೂ
-4.335478	ನಂದಿದರೆ
-4.335478	ನಂದುವಂತಿಲ್ಲ
-4.159387	ನಂಬಿ
-4.335478	ನಂಬಿಕೆ
-4.335478	ನಂಬಿಕೆಯ
-4.159387	ನಂಬಿಕೆಯಂತೆ
-4.159387	ನಂಬಿಕೆಯನ್ನು
-4.159387	ನಂಬಿಕೆಯು
-4.159387	ನಂಬಿದ್ದಾರೆ
-4.335478	ನಂಬುತ್ತಾರೆ
-4.335478	ನಂಬುವುದು
-3.858357	ನಕಲು
-4.159387	ನಕ್ಷತ್ರಗಳು
-4.159387	ನಕ್ಷೆಯನ್ನು
-4.034448	ನಗದು
-4.335478	ನಗರಗಳಲ್ಲಿ
-4.335478	ನಗರಗಳಲ್ಲೆವೂ
-4.335478	ನಗರಗಳಿಗೆ
-4.159387	ನಗರದಲ್ಲಿ
-4.335478	ನಗರದಲ್ಲೇ
-4.335478	ನಗರವು
-4.335478	ನಗರೀಕರಣದಿಂದಾಗಿ
-4.159387	ನಟ
-4.335478	ನಡಿಗೆಗಳ
-4.335478	ನಡಿಗೆಯ
-4.335478	ನಡಿಗೆಯನ್ನು
-4.335478	ನಡುವಣ
-3.27478	ನಡುವಿನ
-3.335478	ನಡುವೆ
-3.636508	ನಡೆದ
-4.335478	ನಡೆದಿದೆ
-4.335478	ನಡೆದಿರುತ್ತದೆ
-4.159387	ನಡೆದು
-4.034448	ನಡೆದುವು
-4.159387	ನಡೆಯಬಹುದು
-4.335478	ನಡೆಯಲಿಲ್ಲವಾದರೂ
-4.335478	ನಡೆಯಿತೆಂದು
-3.733418	ನಡೆಯುತ್ತದೆ
-4.159387	ನಡೆಯುತ್ತಿತ್ತು
-4.159387	ನಡೆಯುತ್ತಿದೆ
-4.335478	ನಡೆಯುತ್ತಿದ್ದಾಗ
-4.335478	ನಡೆಯುತ್ತಿದ್ದು
-3.595115	ನಡೆಯುವ
-4.159387	ನಡೆಯುವುದರಿಂದ
-4.034448	ನಡೆಯುವುದು
-4.335478	ನಡೆವ
-4.335478	ನಡೆಸಬಹುದಾಗಿದೆ
-4.335478	ನಡೆಸಬಹುದು
-4.159387	ನಡೆಸಬೇಕಾಗುತ್ತದೆ
-4.159387	ನಡೆಸಲಾಗಲಿಲ್ಲ
-4.159387	ನಡೆಸಲಾಗಿತ್ತು
-3.937538	ನಡೆಸಲಾಗುತ್ತದೆ
-4.159387	ನಡೆಸಲು
-4.335478	ನಡೆಸಲ್ಪಡುತ್ತದೆ
-4.335478	ನಡೆಸಿ
-4.335478	ನಡೆಸಿಕೊಂಡು
-4.159387	ನಡೆಸಿದನು
-3.937538	ನಡೆಸುತ್ತದೆ
-4.335478	ನಡೆಸುತ್ತವೆ
-4.159387	ನಡೆಸುತ್ತಿದೆ
-3.682266	ನಡೆಸುವ
-4.335478	ನಡೆಸುವನೆಂದು
-4.034448	ನದಿ
-4.335478	ನದಿಗಳು
-4.335478	ನದಿಯ
-4.335478	ನದಿಯಾಗಿ
-3.79141	ನಮಗೆ
-4.159387	ನಮಿಬಿಯ
-3.858357	ನಮೂದಿಸಿ
-3.460417	ನಮ್ಮ
-4.159387	ನಮ್ಮನ್ನು
-4.335478	ನಮ್ಮಲ್ಲಿ
-4.159387	ನಮ್ಮಲ್ಲಿಯೂ
-4.159387	ನಮ್ಯತೆಯ
-4.335478	ನಯಚೂರ್ಣವನ್ನು
-4.335478	ನರ
-4.159387	ನರಗಳನ್ನೂ
-4.335478	ನರನ
-4.335478	ನರಮಂಡಲದ
-4.335478	ನರಸಂಪರ್ಕಗಳನ್ನು
-4.335478	ನರಸಿಂಹಾವತಾರವನ್ನೆತ್ತಿದನೆಂಬುದು
-4.335478	ನರಹಾರ್ಮೋನುಗಳು
-4.159387	ನರಾಂತಕನನ್ನು
-4.335478	ನಲವತ್ತೇಳನೆಯ
-4.159387	ನಲಿಯುವ
-4.335478	ನಲುವತ್ತೊಂದರ
-3.27478	ನಲ್ಲಿ
-4.159387	ನಲ್ಲಿರುವ
-4.335478	ನಲ್ವತ್ತಮೂರರಲ್ಲಿ
-4.335478	ನಲ್ವತ್ತರಿಂದ
-4.159387	ನಲ್ವತ್ತೇಳರಲ್ಲಿ
-4.335478	ನಲ್ವತ್ತೊಂದು
-4.159387	ನಲ್ವತ್ತೊಂಬತ್ತು
-4.335478	ನಲ್ವತ್ನಾಲ್ಕು
-4.034448	ನವಕರ್ನಾಟಕ
-4.335478	ನವರಾತ್ರಿಯ
-4.159387	ನವೀಕರಿಸಲು
-4.159387	ನವೀಕರಿಸಿಕೊಳ್ಳಬಹುದು
-4.335478	ನವೆಂಬರ್
-4.335478	ನಶಿಸಿಹೋಗುತ್ತವೆ
-4.335478	ನಶಿಸುವಿಕೆಗೆ
-4.335478	ನಶಿಸುವಿಕೆಯಂತಹ
-4.335478	ನಶ್ಯದ
-3.79141	ನಷ್ಟ
-4.335478	ನಷ್ಟವನ್ನು
-4.335478	ನಷ್ಟವಾಗಿಲ್ಲವೆಂದು
-4.335478	ನಷ್ಟವಾಗಿಲ್ಲವೆಂಬುದನ್ನು
-4.335478	ನಷ್ಟವಾಗುವ
-4.335478	ನಷ್ಟು
-4.159387	ನಸುಗೆಂಪು
-4.335478	ನಾಕು
-4.159387	ನಾಗರಿಕ
-4.159387	ನಾಗರಿಕತೆಯ
-4.159387	ನಾಗರಿಕರೂ
-4.335478	ನಾಗಾಲೋಟದಲ್ಲಿ
-4.335478	ನಾಜೂಕು
-4.159387	ನಾಟಕದ
-4.159387	ನಾಡಶಿಲೆಯ
-4.335478	ನಾಡಿಗಳು
-4.335478	ನಾಣ್ಯಗಳಲ್ಲಿ
-4.335478	ನಾಣ್ಯದ
-3.79141	ನಾನಾ
-3.79141	ನಾನೂರು
-4.335478	ನಾನ್ಜಿಂಗ್
-4.335478	ನಾಮನಿರ್ದೇಶನ
-4.335478	ನಾಮಪತ್ರ
-4.159387	ನಾಮಸೂಚಕ
-4.034448	ನಾಯಕತ್ವದ
-4.335478	ನಾಯಕತ್ವವನ್ನು
-4.159387	ನಾಯಕನೆಂದು
-4.335478	ನಾಯಕನೊ
-4.159387	ನಾಯಕರಿಂದ
-4.159387	ನಾಯಕಿಯರ
-4.159387	ನಾರಾಯಣನು
-4.335478	ನಾರಿನಂಶಗಳ
-4.335478	ನಾರು
-4.335478	ನಾಲಕ್ಕನೇ
-4.335478	ನಾಲಗೆಯಲ್ಲಿ
-4.335478	ನಾಲ್ಕ
-3.937538	ನಾಲ್ಕನೆ
-4.335478	ನಾಲ್ಕನೆಯ
-4.335478	ನಾಲ್ಕನೆಯದು
-4.159387	ನಾಲ್ಕನೇ
-4.159387	ನಾಲ್ಕರ
-4.159387	ನಾಲ್ಕರಲ್ಲಿ
-4.159387	ನಾಲ್ಕರಲ್ಲಿಯೇ
-4.335478	ನಾಲ್ಕರಿಂದ
-3.27478	ನಾಲ್ಕು
-3.937538	ನಾಲ್ಕುನೂರು
-4.159387	ನಾಲ್ಕೈದು
-4.034448	ನಾಲ್ನೂರು
-4.159387	ನಾಳಗಳನ್ನು
-4.335478	ನಾಳಗಳಲ್ಲಿ
-3.858357	ನಾಳದ
-3.733418	ನಾವು
-4.335478	ನಾಶಗೊಳಿಸಲು
-4.335478	ನಾಶಮಾಡುತ್ತದೆ
-4.159387	ನಾಶವಾಗುತ್ತಿದ್ದವು
-4.335478	ನಾಶವಾಗುವುದನ್ನು
-4.335478	ನಾಶವಾದರೂ
-4.335478	ನಾಶವಾದಾಗ
-3.858357	ನಾಸ
-4.159387	ನಾಸದ
-4.159387	ನಾಸಾ
-4.335478	ನಾಹಿತಿಗಳಿಂದ
-4.159387	ನಿಂತುಹೋದವು
-4.034448	ನಿಂದ
-4.159387	ನಿಕಟ
-4.335478	ನಿಕಟವರ್ತಿ
-4.159387	ನಿಕಟವಾದ
-4.159387	ನಿಕಟಸಂಬಂಧವಿದೆ
-4.335478	ನಿಕಾಯಗಳಲ್ಲಿ
-4.159387	ನಿಕಾಯದಂತಹ
-4.159387	ನಿಕಾಯದಲ್ಲಿ
-4.335478	ನಿಕೋಬಾರ್
-4.335478	ನಿಕ್ಷೇಪಗಳಲ್ಲಿ
-4.335478	ನಿಖರ
-4.159387	ನಿಖರವಾಗಿ
-3.937538	ನಿಖರವಾದ
-4.159387	ನಿಗದಿ
-3.733418	ನಿಗದಿತ
-4.335478	ನಿಗದಿಪಡಿಸಿದ್ದರಿಂದಾಗಿ
-4.335478	ನಿಗದಿಪಡಿಸುತ್ತದೆ
-4.335478	ನಿಗದಿಮಾಡಲಾಗಿರುವ
-4.034448	ನಿಗದಿಯಾದ
-4.335478	ನಿಗಧಿತ
-4.335478	ನಿಗಾವಣೆ
-4.335478	ನಿಗ್ರಹಣ
-4.335478	ನಿಗ್ರಹಣಗಳ
-4.335478	ನಿಘಂಟಾಗಿದೆ
-4.335478	ನಿಚ್ಚಳವಾಗಿ
-4.335478	ನಿಜವಾದ
-4.159387	ನಿಜಾರ್ಥದಲ್ಲಿ
-4.335478	ನಿಝೊಫ್ಫ್
-4.159387	ನಿಟ್ಟಿನಲ್ಲಿ
-3.937538	ನಿತ್ಯ
-4.159387	ನಿತ್ಯವೂ
-4.159387	ನಿದರ್ಶನ
-4.034448	ನಿದರ್ಶನಗಳಲ್ಲಿ
-4.159387	ನಿದರ್ಶನಗಳಿವೆ
-4.159387	ನಿದರ್ಶನದಲ್ಲಿ
-4.034448	ನಿದ್ರಾ
-4.335478	ನಿದ್ರಾವಾತರೋಗವನ್ನು
-4.034448	ನಿದ್ರಿಸುವ
-4.159387	ನಿದ್ರೆಯ
-4.159387	ನಿಧಾನ
-4.159387	ನಿಧಾನವಾಗಿಯೂ
-3.522565	ನಿಧಿ
-4.335478	ನಿಧಿಗಳನ್ನು
-4.335478	ನಿಧಿಗೆ
-4.034448	ನಿಧಿನ
-4.034448	ನಿಧಿಯನ್ನು
-4.335478	ನಿಧಿಯು
-4.335478	ನಿಪಾತವನ್ನೂ
-4.335478	ನಿಬಂಧನೆಗಳಿಗನುಸಾರವಾಗಿ
-4.335478	ನಿಬಂಧನೆಗಳಿಗೆ
-4.159387	ನಿಬಂಧನೆಗಳು
-4.159387	ನಿಮಗೆ
-4.159387	ನಿಮಿಷ
-4.034448	ನಿಮಿಷಗಳ
-4.159387	ನಿಮಿಷಗಳವರೆಗೆ
-4.159387	ನಿಮ್ನ
-3.335478	ನಿಮ್ಮ
-3.636508	ನಿಯಂತ್ರಣ
-4.335478	ನಿಯಂತ್ರಣದ
-4.159387	ನಿಯಂತ್ರಣವನ್ನು
-3.858357	ನಿಯಂತ್ರಣಾ
-4.335478	ನಿಯಂತ್ರಿತ
-4.335478	ನಿಯಂತ್ರಿಸಬಹುದು
-4.335478	ನಿಯಂತ್ರಿಸಲಾಗಿದೆ
-4.335478	ನಿಯಂತ್ರಿಸಲಾಗುತ್ತದೆ
-3.937538	ನಿಯಂತ್ರಿಸಲು
-4.159387	ನಿಯಂತ್ರಿಸುತ್ತವೆ
-4.159387	ನಿಯಂತ್ರಿಸುವ
-4.335478	ನಿಯಂತ್ರಿಸುವಾಗ
-4.159387	ನಿಯತ
-4.159387	ನಿಯತಕಾಲಿಕಗಳು
-4.335478	ನಿಯತಾಂಶಗಳು
-4.034448	ನಿಯಮ
-3.937538	ನಿಯಮಗಳ
-4.159387	ನಿಯಮಗಳಲ್ಲಿ
-4.335478	ನಿಯಮಗಳಿಂದ
-4.335478	ನಿಯಮಗಳು
-4.159387	ನಿಯಮದಂತೆ
-4.335478	ನಿಯಮದಡಿ
-3.79141	ನಿಯಮವನ್ನು
-4.159387	ನಿಯಮವನ್ನೂ
-4.335478	ನಿಯಮವು
-3.858357	ನಿಯಮಾವಳಿ
-4.335478	ನಿಯಮಾವಳಿಗಳ
-4.034448	ನಿಯಮಾವಳಿಗಳು
-4.159387	ನಿಯಮಾವಳಿಯ
-4.335478	ನಿಯಮಾವಳಿಯಂತೆ
-4.335478	ನಿಯಮಿತ
-4.335478	ನಿಯಮಿತಗೊಳಿಸಲಾಗುತ್ತಿತ್ತು
-4.159387	ನಿಯಮಿತಗೊಳಿಸಲು
-4.159387	ನಿಯಮಿತವಾಗಿ
-4.335478	ನಿಯಮಿಸಬಹುದು
-4.335478	ನಿಯಮಿಸುವ
-4.335478	ನಿಯಾಮಕ
-4.159387	ನಿಯೋಗಗಳ
-4.335478	ನಿಯೋಗಗಳು
-4.335478	ನಿಯೋಗದ
-4.159387	ನಿಯೋಗದಿಂದ
-4.159387	ನಿಯೋಗವು
-3.937538	ನಿಯೋಗಿ
-4.159387	ನಿಯೋಜಿಸಲಾಯಿತು
-4.034448	ನಿರಂತರ
-3.858357	ನಿರಂತರವಾಗಿ
-4.159387	ನಿರತನಾಗುವುದಿಲ್ಲ
-4.335478	ನಿರತರಾಗಿದ್ದಾರೆ
-4.335478	ನಿರರ್ಥಕವಾಗುತ್ತದೆ
-4.335478	ನಿರಾಕರಣೆ
-4.159387	ನಿರಾಕರಿಸಿದೆ
-4.335478	ನಿರೀಕ್ಷಿಸಲಾಗಿದೆ
-4.335478	ನಿರೀಕ್ಷಿಸುತ್ತಿರುವುದರಿಂದ
-4.335478	ನಿರೀಕ್ಷಿಸುವುದರಿಂದ
-4.159387	ನಿರೀಕ್ಷೆಗಳನ್ನು
-4.335478	ನಿರುದ್ಯೋಗ
-4.335478	ನಿರುಪಯುಕ್ತವೋ
-4.335478	ನಿರೂಪಣೆ
-4.335478	ನಿರೂಪಣೆಯು
-4.159387	ನಿರೂಪಿತವಾಗಿವೆ
-4.034448	ನಿರೂಪಿಸಬಹುದು
-4.335478	ನಿರೂಪಿಸಲಾಗಿದೆ
-4.335478	ನಿರೂಪಿಸಲು
-4.159387	ನಿರೋಧಕ
-3.357754	ನಿರ್ಗಮನವನ್ನು
-4.159387	ನಿರ್ಗಮವನ್ನು
-3.314289	ನಿರ್ಗಮಿಸಿ
-4.335478	ನಿರ್ಜಲೀಕರಿಸಲಾದ
-3.858357	ನಿರ್ಣಯ
-4.335478	ನಿರ್ಣಯಕಾರಿ
-4.335478	ನಿರ್ಣಯಕ್ಕೆ
-4.335478	ನಿರ್ಣಯಗಳು
-4.335478	ನಿರ್ಣಯವಾಗಿ
-4.335478	ನಿರ್ಣಯಿಸಬೇಕಾಗುತ್ತದೆ
-4.034448	ನಿರ್ಣಯಿಸಲು
-3.335478	ನಿರ್ದಿಷ್ಟ
-4.335478	ನಿರ್ದಿಷ್ಟತೆಗಳನ್ನು
-4.335478	ನಿರ್ದಿಷ್ಟವಾಗಿ
-4.335478	ನಿರ್ದಿಷ್ಟವಾದ
-4.159387	ನಿರ್ದೇಶಕ
-4.159387	ನಿರ್ದೇಶಕರನ್ನು
-4.159387	ನಿರ್ದೇಶಕರಿಗೆ
-4.335478	ನಿರ್ದೇಶಕರುಗಳ
-4.335478	ನಿರ್ದೇಶನದ
-4.335478	ನಿರ್ದೇಶನದಲ್ಲಿ
-4.335478	ನಿರ್ದೇಶಿಸಲ್ಪಡುವುದರಿಂದ
-4.335478	ನಿರ್ದೇಶಿಸುತ್ತವೆ
-4.335478	ನಿರ್ದೇಶಿಸುತ್ತಾರೆ
-4.159387	ನಿರ್ಧರಿಸಲಾಗಿದೆ
-4.034448	ನಿರ್ಧರಿಸಲು
-4.159387	ನಿರ್ಧರಿಸಲೂ
-4.159387	ನಿರ್ಧರಿಸಲ್ಪಡುತ್ತವೆ
-4.335478	ನಿರ್ಧರಿಸಿದ
-4.335478	ನಿರ್ಧರಿಸಿದಾಗ
-4.159387	ನಿರ್ಧರಿಸಿದ್ದರು
-4.335478	ನಿರ್ಧರಿಸಿವೆ
-4.335478	ನಿರ್ಧರಿಸುತ್ತದೆ
-4.335478	ನಿರ್ಧರಿಸುತ್ತಾರೆ
-4.335478	ನಿರ್ಧರಿಸುವ
-4.335478	ನಿರ್ಧರಿಸುವುದರಿಂದ
-4.335478	ನಿರ್ಧರಿಸುವುದು
-3.937538	ನಿರ್ಧಾರ
-4.335478	ನಿರ್ಧಾರಕ
-4.159387	ನಿರ್ಧಾರಗಳು
-4.335478	ನಿರ್ಧಾರಣಾ
-4.159387	ನಿರ್ಧಾರವಿಲ್ಲ
-3.937538	ನಿರ್ಧಿಷ್ಟ
-4.159387	ನಿರ್ನಾಳ
-4.159387	ನಿರ್ಬಂಧ
-4.335478	ನಿರ್ಬಂಧಗಳಿಗೆ
-4.159387	ನಿರ್ಬಂಧದಿಂದಾಗಿ
-4.335478	ನಿರ್ಬಂಧವಿಲ್ಲದ
-4.335478	ನಿರ್ಬಂಧಿಸಿತ್ತು
-4.159387	ನಿರ್ಬಂಧಿಸುವುದು
-4.335478	ನಿರ್ಬಂಧಿಸ್ಪಲ್ಪಟ್ಟಿದ್ದು
-4.335478	ನಿರ್ಭಂದಗಳನ್ನು
-4.335478	ನಿರ್ಮಾಣಕ್ಕೆ
-4.034448	ನಿರ್ಮಾಣದ
-4.335478	ನಿರ್ಮಾಣದಲ್ಲಿನ
-4.159387	ನಿರ್ಮಾಣಮಾಡಿ
-4.335478	ನಿರ್ಮಾಣಮಾಡಿದೆ
-4.335478	ನಿರ್ಮಾಣವನ್ನು
-4.335478	ನಿರ್ಮಾಣವಾಗಬೇಕೆಂಬುದರ
-4.159387	ನಿರ್ಮಾಣವಾಗುತ್ತದೆ
-4.159387	ನಿರ್ಮಾಣವಾದ
-4.335478	ನಿರ್ಮಿತ
-4.335478	ನಿರ್ಮಿಸದಿದ್ದರೂ
-4.335478	ನಿರ್ಮಿಸಬಹುದು
-4.159387	ನಿರ್ಮಿಸಲಾಗಿದೆ
-4.159387	ನಿರ್ಮಿಸಲಾಗುತ್ತದೆ
-3.937538	ನಿರ್ಮಿಸಲು
-4.335478	ನಿರ್ಮಿಸಿ
-4.159387	ನಿರ್ಮಿಸಿದ
-4.335478	ನಿರ್ಮಿಸಿದರು
-4.159387	ನಿರ್ಮಿಸಿದೆ
-4.335478	ನಿರ್ಮಿಸುವಂತೆ
-4.335478	ನಿರ್ಲಕ್ಷಿಸುತ್ತವೆ
-4.159387	ನಿರ್ಲಿಪ್ತತೆಯನ್ನು
-4.335478	ನಿರ್ಲಿಪ್ತನಾದರೂ
-4.335478	ನಿರ್ವಹಣಾ
-3.79141	ನಿರ್ವಹಣೆ
-4.159387	ನಿರ್ವಹಣೆಗಾಗಿ
-4.335478	ನಿರ್ವಹಣೆಗೆ
-4.335478	ನಿರ್ವಹಣೆಯ
-4.335478	ನಿರ್ವಹಣೆಯಲ್ಲಿ
-4.335478	ನಿರ್ವಹಣೆಯು
-4.335478	ನಿರ್ವಹಿಸಬೇಕಾದ
-4.335478	ನಿರ್ವಹಿಸಲಾಗುತ್ತದೆ
-4.159387	ನಿರ್ವಹಿಸಲು
-4.034448	ನಿರ್ವಹಿಸಿಕೊಂಡು
-3.858357	ನಿರ್ವಹಿಸುತ್ತಿದ್ದರು
-4.335478	ನಿರ್ವಹಿಸುವ
-4.335478	ನಿರ್ವಹಿಸುವಲ್ಲಿಯೂ
-4.335478	ನಿರ್ವಹಿಸುವುದು
-4.335478	ನಿರ್ವಾಹಕ
-4.335478	ನಿರ್ವಾಹಕರ
-4.335478	ನಿರ್ವಾಹಿಸುತ್ತಾರೆ
-4.335478	ನಿಲುಗಡೆ
-3.522565	ನಿಲ್ದಾಣ
-4.335478	ನಿಲ್ದಾಣಕ್ಕಾಗಿ
-3.595115	ನಿಲ್ದಾಣಕ್ಕೆ
-4.159387	ನಿಲ್ದಾಣಗಳನ್ನು
-4.159387	ನಿಲ್ದಾಣಗಳಿಗೆ
-2.79141	ನಿಲ್ದಾಣದ
-4.335478	ನಿಲ್ದಾಣದನೊಳಗೆ
-4.159387	ನಿಲ್ದಾಣದಲ್ಲಿ
-4.159387	ನಿಲ್ದಾಣದಲ್ಲಿರುವ
-4.159387	ನಿಲ್ದಾಣದಿಂದ
-4.335478	ನಿಲ್ದಾಣದೊಳಗೆ
-3.858357	ನಿಲ್ದಾಣವನ್ನು
-4.335478	ನಿಲ್ದಾಣವಾಗಿದೆ
-4.335478	ನಿಲ್ದಾಣವಾದ
-4.335478	ನಿಲ್ದಾಣವಾಯಿತು
-3.595115	ನಿಲ್ದಾಣವು
-4.335478	ನಿಲ್ಲದೆ
-4.335478	ನಿಲ್ಲಬೇಕು
-4.335478	ನಿಲ್ಲಿಸಿ
-4.335478	ನಿಲ್ಲಿಸುವ
-4.335478	ನಿಲ್ಲುವುದಿಲ್ಲ
-4.335478	ನಿವಾರಣೆಗೆ
-4.159387	ನಿವಾರಣೆಯಾಗುತ್ತದೆ
-4.335478	ನಿವಾರಿಸಿ
-4.335478	ನಿವಾರಿಸುವ
-4.335478	ನಿವಾಸಿ
-4.335478	ನಿವೃತ್ತಿ
-4.335478	ನಿವೃತ್ತಿಯ
-4.034448	ನಿಶಾಚನಾ
-3.858357	ನಿಶೇಚನಗೊಂಡ
-4.335478	ನಿಶ್ಚಲ
-4.335478	ನಿಶ್ಚಿತವಾದ
-4.335478	ನಿಷೇಧ
-4.335478	ನಿಷೇಧಿಸಬೇಕೆಂಬ
-4.335478	ನಿಷ್ಕಾಸ
-4.335478	ನಿಷ್ಕ್ರಿಯವಾಗಿಲ್ಲದಿದ್ದರೆ
-4.335478	ನಿಷ್ಪ್ರಯೋಜಕ
-4.034448	ನಿಸ್ತಂತು
-4.159387	ನಿಸ್ಪಂದ
-4.335478	ನಿಸ್ಪಂದವಾದ
-4.335478	ನೀಡಬಹುದಾಗಿದೆ
-4.335478	ನೀಡಬಹುದಾದ
-4.335478	ನೀಡಬೇಕು
-4.034448	ನೀಡಲಾಗಿದೆ
-4.159387	ನೀಡಲಾಗಿರುತ್ತದೆ
-4.335478	ನೀಡಲಾಗುತ್ತದೆ
-4.335478	ನೀಡಲಾಗುವುದಿಲ್ಲ
-4.159387	ನೀಡಲಾಯಿತು
-4.335478	ನೀಡಲಿದೆ
-4.034448	ನೀಡಲು
-4.335478	ನೀಡಲ್ಪಟ್ಟಾಗ
-3.733418	ನೀಡಿ
-4.335478	ನೀಡಿಕೆಗಳಲ್ಲಿ
-4.159387	ನೀಡಿಕೆಗೆ
-4.159387	ನೀಡಿಕೆಯ
-4.335478	ನೀಡಿಕೆಯು
-3.937538	ನೀಡಿತು
-4.335478	ನೀಡಿದರು
-4.335478	ನೀಡಿದಾಗ
-4.034448	ನೀಡಿದೆ
-3.937538	ನೀಡಿರುವ
-3.432388	ನೀಡುತ್ತದೆ
-4.159387	ನೀಡುತ್ತದೆಅಂಕಗಣಿತವನ್ನು
-3.557327	ನೀಡುತ್ತವೆ
-4.335478	ನೀಡುತ್ತಾರೆ
-4.335478	ನೀಡುತ್ತಿದೆ
-4.335478	ನೀಡುತ್ತಿದ್ದಾರೆ
-4.335478	ನೀಡುತ್ತಿರಲಿಲ್ಲ
-3.357754	ನೀಡುವ
-4.335478	ನೀಡುವಂತಿಲ್ಲ
-4.335478	ನೀಡುವುದಕ್ಕಾಗಿ
-4.335478	ನೀಡುವುದಾಗಿದೆ
-4.034448	ನೀಡುವುದು
-4.335478	ನೀತಿಗಳ
-3.937538	ನೀತಿಗೆ
-4.159387	ನೀತಿನಿಯಮಗಳಿಂದ
-3.79141	ನೀತಿಯನ್ನು
-4.335478	ನೀತಿಯಯಂತಹ
-4.159387	ನೀತಿಶಾಸ್ತ್ರಜ್ಞರು
-3.238568	ನೀರನ್ನು
-4.335478	ನೀರಾವರಿ
-4.159387	ನೀರಿಗಿಂತ
-4.159387	ನೀರಿಗೆ
-3.314289	ನೀರಿನ
-3.733418	ನೀರಿನಲ್ಲಿ
-3.858357	ನೀರಿನಿಂದ
-3.045443	ನೀರು
-4.335478	ನೀರುಗಾಜನ್ನು
-4.159387	ನೀರುಗಾಜು
-4.335478	ನೀರುಗುರುತನ್ನು
